tree
version=v4
num_class=1
num_tree_per_iteration=1
label_index=0
max_feature_idx=136
objective=regression
feature_names=dvp_fp_avg_3 dvp_rec_yds_avg_3 dvp_rush_yds_avg_3 dvp_fp_avg_5 def_pass_yds_allowed_avg_3 def_rush_yds_allowed_avg_3 def_rec_yds_allowed_avg_3 def_fp_allowed_avg_3 def_pass_td_allowed_avg_3 def_int_made_avg_3 def_pass_yds_allowed_avg_5 def_rush_yds_allowed_avg_5 def_rec_yds_allowed_avg_5 def_fp_allowed_avg_5 passing_yards_avg_4 passing_tds_avg_4 passing_air_yards_avg_4 interceptions_avg_4 rushing_yards_avg_4 rushing_tds_avg_4 carries_avg_4 receiving_yards_avg_4 receiving_tds_avg_4 receptions_avg_4 targets_avg_4 touchdowns_avg_4 fantasy_points_avg_4 pass_attempts_avg_4 rush_attempts_avg_4 pass_yds+td_avg_4 rush+rec_yds_avg_4 passing_epa_avg_4 rushing_epa_avg_4 receiving_epa_avg_4 passing_yards_avg_8 passing_tds_avg_8 passing_air_yards_avg_8 interceptions_avg_8 rushing_yards_avg_8 rushing_tds_avg_8 carries_avg_8 receiving_yards_avg_8 receiving_tds_avg_8 receptions_avg_8 targets_avg_8 touchdowns_avg_8 fantasy_points_avg_8 pass_attempts_avg_8 rush_attempts_avg_8 pass_yds+td_avg_8 rush+rec_yds_avg_8 passing_epa_avg_8 rushing_epa_avg_8 receiving_epa_avg_8 passing_yards_avg_16 passing_tds_avg_16 passing_air_yards_avg_16 interceptions_avg_16 rushing_yards_avg_16 rushing_tds_avg_16 carries_avg_16 receiving_yards_avg_16 receiving_tds_avg_16 receptions_avg_16 targets_avg_16 touchdowns_avg_16 fantasy_points_avg_16 pass_attempts_avg_16 rush_attempts_avg_16 pass_yds+td_avg_16 rush+rec_yds_avg_16 passing_epa_avg_16 rushing_epa_avg_16 receiving_epa_avg_16 passing_yards_ewm passing_tds_ewm passing_air_yards_ewm interceptions_ewm rushing_yards_ewm rushing_tds_ewm carries_ewm receiving_yards_ewm receiving_tds_ewm receptions_ewm targets_ewm touchdowns_ewm fantasy_points_ewm pass_attempts_ewm rush_attempts_ewm pass_yds+td_ewm rush+rec_yds_ewm passing_epa_ewm rushing_epa_ewm receiving_epa_ewm passing_yards_streak passing_tds_streak passing_air_yards_streak interceptions_streak rushing_yards_streak rushing_tds_streak carries_streak receiving_yards_streak receiving_tds_streak receptions_streak targets_streak touchdowns_streak fantasy_points_streak pass_attempts_streak rush_attempts_streak pass_yds+td_streak rush+rec_yds_streak passing_epa_streak rushing_epa_streak receiving_epa_streak passing_yards_consistency passing_tds_consistency passing_air_yards_consistency interceptions_consistency rushing_yards_consistency rushing_tds_consistency carries_consistency receiving_yards_consistency receiving_tds_consistency receptions_consistency targets_consistency touchdowns_consistency fantasy_points_consistency pass_attempts_consistency rush_attempts_consistency pass_yds+td_consistency rush+rec_yds_consistency passing_epa_consistency rushing_epa_consistency receiving_epa_consistency days_rest b2b four_in_six
feature_infos=[-1.1266666452089946:48.333333333333336] [-2.6666666666666665:293.5] [-13:228.33333333333334] [-1.0333333015441895:44.349998474121094] [98.666666666666671:389] [38:251.66666666666666] [98.666666666666671:389] [26.240000406901043:118.56666564941406] [0:5] [0:4] [121:389] [50.799999999999997:238] [121:389] [32.819999694824219:117.20000457763672] [-3:384.5] [0:5] [-13.5:486] [0:4] [-11.5:164] [0:2] [0:31] [-7:184] [0:2] [0:13] [0:17.5] [0:5] [-2.880000114440918:34.900001525878906] [0:59] [0:31] [-3:387] [-8:194] [-32.769081115722656:33.188526153564453] [-10.677238464355469:10.26837158203125] [-9.9687585830688477:14.492033958435059] [-3:369.5] [0:5] [-13.5:486] [0:4] [-11.5:164] [0:2] [0:31] [-7:184] [0:2] [0:13] [0:17.5] [0:5] [-2.880000114440918:34.900001525878906] [0:59] [0:31] [-3:373] [-8:194] [-27.361719131469727:33.188526153564453] [-10.677238464355469:10.26837158203125] [-9.9687585830688477:14.492033958435059] [-3:369.5] [0:5] [-13.5:486] [0:4] [-11.5:164] [0:2] [0:31] [-7:184] [0:2] [0:13] [0:17.5] [0:5] [-2.880000114440918:34.900001525878906] [0:59] [0:31] [-3:373] [-8:194] [-27.361719131469727:33.188526153564453] [-10.677238464355469:10.26837158203125] [-9.9687585830688477:14.492033958435059] [-3:369.54977488744373] [0:5] [-13.501750875437716:486] [0:4] [-11.507253626813407:164] [0:2] [0:31] [-7:184] [0:2.0005002501250626] [0:13] [0:17.501250625312654] [0:5] [-2.880000114440918:34.900001525878906] [0:59] [0:31] [-3:373.05102551275638] [-8:194] [-27.361719131469727:33.188526153564453] [-10.677238464355469:10.26837158203125] [-9.9687585830688477:14.492033958435059] [-151.13333333333333:135.75] [-1.125:1.75] [-188.31666666666666:159.75] [-0.88888888888888884:1.1499999999999999] [-54.1875:70] [-0.9375:1.375] [-8.3125:14.1875] [-51.88333333333334:58.25] [-0.80000000000000004:1.05] [-4.3499999999999996:4.75] [-4.125:4.9375] [-1.3928571428571428:1.6875] [-10.268750093877316:12.429000520706175] [-22.516666666666666:15.875] [-8.3125:14.1875] [-151.56666666666666:136.61111111111111] [-56.625:78.875] [-16.407784104347229:10.571348384022713] [-4.8075815119913647:4.4804327236488461] [-7.132437027990818:6.5142585914582014] [0:2.0558823529411763] [0:2.625] [-0.021148036253776436:2.1012931034482758] [0:3.5555555555555554] [-35:24] [0:5.75] [0:6.75] [-0.59999999999999998:3.6699029126213589] [0:10] [0:4] [0:3.7894736842105265] [0:7] [-0.44615382922471641:6.0000004470348625] [0:4.666666666666667] [0:6.75] [0:2.0568920676202862] [-35:24] [-164.70809802173125:2847.8627049180327] [-673.2594717716496:4144.8770602949471] [-744.44406904859397:2923.8584008732196] [7:721] none [0:1]
tree_sizes=2750 2807 2793 2788 2792 2781 2808 2791 2812 2795 2800 2793 2794 2777 2770 2811 2825 2795 2748 2798 2784 2779 2788 2770 2791 2822 2803 2797 2793 2795 2790 2808 2729 2812 2803 2779 2804 2785 2818 2792 2821 2826 2803 2822 2828 2760 2804 2777 2786 2823 2778 2828 2828 2773 2819 2769 2813 2823 2779 2794 2830 2792 2799 2781 2768 2786 2805 2806 2820 2821 2815 2798 2840 2843 2773 2810 2832 2813 2767 2837 2777 2837 2816

Tree=0
num_leaves=31
num_cat=0
split_feature=27 1 125 11 51 2 125 98 0 31 132 126 106 106 48 120 97 118 132 120 108 112 27 27 4 4 120 32 78 31
split_gain=558.568 11.8597 9.22048 7.60363 7.99385 7.04512 6.46165 5.90329 5.65459 5.36577 5.35528 7.25509 8.29028 5.13477 5.07162 4.776 4.34552 4.66169 7.33841 5.84721 6.922 7.69481 5.39436 10.1004 10.6648 4.2853 4.21946 4.19548 4.59959 4.56168
threshold=4.6250000000000009 1.8333333333333337 0.50757575757575768 112.30000000000003 3.8595049306750302 8.1666666666666696 1.5065789473684212 7.1698717948717965 8.0000000794728603 1.8469444215297701 3.9578547402553941 1.0228674458624278 -1.8937500054016707 -0.62499999906867731 0.77500000000000013 0.81302966101694929 0.49038461538461542 1.1773419613111968 -0.33179118458233942 0.58372274143302194 -0.46428571428571425 0.63693811930716049 25.125000000000004 34.125000000000007 232.16666666666671 270.16666666666669 1.0397015475313192 -1.8616005678971608 14.272618644182133 -1.010558485984802
decision_type=2 2 2 2 2 2 2 2 2 2 2 2 2 2 2 2 2 2 2 2 2 2 2 2 2 2 2 2 2 2
left_child=1 8 13 6 27 -6 7 16 -1 -8 11 12 -7 -2 -10 -13 17 18 -4 -20 -21 22 -22 24 -24 -26 -17 -5 29 -29
right_child=2 -3 3 4 5 10 9 -9 14 -11 -12 15 -14 -15 -16 26 -18 -19 19 20 21 -23 23 -25 25 -27 -28 28 -30 -31
leaf_value=0.076281121693836385 0.082503549531875511 0.076182173182353 0.084118806949156369 0.080115326409065296 0.083273221098851102 0.085825416766959581 0.10810581707010768 0.083089986629381204 0.086264616462234531 0.090962959622131509 0.10327514081054601 0.078989218005326114 0.10031963359543355 0.08866113731281447 0.078910673632613809 0.096589217719223824 0.084113944331300872 0.098356795653488968 0.10248091097265268 0.084946963240662365 0.084415913685944408 0.10458921796956333 0.10811267417888451 0.087275715842211443 0.086742890828210267 0.098682559533631101 0.084111680741242131 0.093073148872233252 0.085273262892900784 0.086662322188637175
leaf_weight=74 120 11824 53 37 37 27 20 38 83 20 23 24 59 118 75 24 33 58 26 57 39 24 30 70 34 27 28 100 208 114
leaf_count=74 120 11824 53 37 37 27 20 38 83 20 23 24 59 118 75 24 33 58 26 57 39 24 30 70 34 27 28 100 208 114
internal_value=0.0776807 0.0762707 0.0894132 0.0901416 0.0886367 0.091874 0.0920357 0.0912935 0.080726 0.100311 0.093501 0.0919035 0.09603 0.0856315 0.0828664 0.0869265 0.0919491 0.092527 0.0915053 0.092723 0.0917 0.093334 0.0918064 0.0934823 0.0979918 0.0924425 0.0903073 0.0870218 0.0875965 0.0897622
internal_weight=13504 12056 1448 1210 681 222 529 489 232 40 185 162 86 238 158 76 451 418 360 307 281 224 200 161 91 61 52 459 422 214
internal_count=13504 12056 1448 1210 681 222 529 489 232 40 185 162 86 238 158 76 451 418 360 307 281 224 200 161 91 61 52 459 422 214
is_linear=0
shrinkage=1


Tree=1
num_leaves=31
num_cat=0
split_feature=27 35 96 70 134 32 3 125 125 127 77 10 10 109 16 127 10 7 108 7 36 26 9 77 25 125 27 109 117 55
split_gain=537.156 9.36342 7.30772 5.57954 8.84303 6.81676 7.61641 10.104 7.59429 6.43856 6.23492 4.64489 5.52874 4.66009 4.58335 5.1919 4.22859 4.12438 3.81263 3.80695 3.44872 3.39923 3.28566 3.79631 3.2671 3.20542 3.15515 3.09031 2.89994 4.55317
threshold=4.6250000000000009 2.0625000000000004 -77.187499999999986 22.763888888888893 31.500000000000004 -1.4575454965233801 13.476000022888185 0.50757575757575768 0.90161290322580656 0.97063362381989848 0.75125112374518621 217.70000000000002 227.50000000000003 -30.333333333333325 162.37500000000003 1.1016634880271245 219.70000000000002 61.103334108988456 -0.060096153846153848 51.558333714803062 249.81250000000003 10.374999959021808 0.41666666666666669 0.87618771635599269 1.7083333333333337 0.32971014492753631 0.87500000000000011 -8.2187499999999982 0.98611111111111127 1.310096153846154
decision_type=2 2 2 2 2 2 2 2 2 2 2 2 2 2 2 2 2 2 2 2 2 2 2 2 2 2 2 2 2 2
left_child=26 2 -2 4 5 14 7 -7 -9 19 27 -5 -13 -14 -4 -16 -6 -3 -10 -8 -19 -18 -12 -24 25 -21 -1 -11 -29 -30
right_child=1 17 3 11 16 6 9 8 18 10 22 12 13 -15 15 -17 21 20 -20 24 -22 -23 23 -25 -26 -27 -28 28 29 -31
leaf_value=-0.0014102541113317133 0.0025537476175361206 0.020878741956419415 0.016486595294305257 0.0047036282184876894 0.0014228996013601622 0.0048902788987526527 0.0011248763263225557 0.027889739655350385 0.010570149837538255 0.023097731374925181 0.0047043038727272125 0.018614102827925836 0.017125077241888415 0.007389883329658389 0.0093369901151049376 0.00020414395106805339 0.014232011549174787 0.020609282269364312 0.01947363722750119 0.0040095919629801876 0.0098814461245888569 0.0031262682572655055 0.0047278912171073587 0.015875525224082015 0.0048444012518633495 0.013379929876043684 0.0023099990321530238 0.017079397950483407 0.014412836870551109 0.0028861553159852823
leaf_weight=11967 44 62 27 94 47 25 24 37 42 30 41 30 25 158 101 36 31 20 69 22 60 22 22 46 43 104 89 114 49 23
leaf_count=11967 44 62 27 94 47 25 24 37 42 30 41 30 25 158 101 36 31 20 69 22 60 22 22 46 43 104 89 114 49 23
internal_value=1.98774e-07 0.0115064 0.0109348 0.0112168 0.0120112 0.0126835 0.0135918 0.0174404 0.0194462 0.0122561 0.0140569 0.00868223 0.0103611 0.00886002 0.00873667 0.00702845 0.00609532 0.0165799 0.0163185 0.00911541 0.0129082 0.00995053 0.00974974 0.0125347 0.010178 0.011867 -0.00138177 0.0161294 0.0148344 0.0109577
internal_weight=13504 1448 1306 1262 955 855 691 173 148 518 325 307 213 183 164 137 100 142 111 193 80 53 109 68 169 126 12056 216 186 72
internal_count=13504 1448 1306 1262 955 855 691 173 148 518 325 307 213 183 164 137 100 142 111 193 80 53 109 68 169 126 12056 216 186 72
is_linear=0
shrinkage=0.02


Tree=2
num_leaves=31
num_cat=0
split_feature=27 116 1 37 88 115 91 125 3 19 5 129 118 78 86 118 36 54 125 48 86 10 129 116 105 99 32 14 4 125
split_gain=516.555 13.3581 11.2657 6.90723 7.67696 7.50072 6.6098 8.34472 6.57614 6.20692 6.18698 7.36049 9.60432 9.48055 6.65934 8.46353 5.41264 5.1455 5.04767 5.02268 5.0056 4.63536 7.40924 4.37421 4.32604 5.19391 5.55387 4.28281 4.20696 3.27818
threshold=4.6250000000000009 0.73510204602275631 1.8333333333333337 0.86607142857142871 3.0000714996423579 0.90803382663847787 3.7756703247154322 1.0645833333333334 11.987500000000002 0.58333333333333337 99.166666666666671 1.0067301144781908 1.1648882822856348 4.5700171283087379 11.065293622527468 0.72374686716791992 289.18750000000006 169.10714285714289 1.0645833333333334 0.77500000000000013 16.014511114932034 264.22500000000008 0.87405950664332066 1.0844755095684102 0.53055555555555567 0.089743589743589772 0.57629579802354181 160.12500000000003 215.83333333333334 0.85549450549450556
decision_type=2 2 2 2 2 2 2 2 2 2 2 2 2 2 2 2 2 2 2 2 2 2 2 2 2 2 2 2 2 2
left_child=2 18 8 4 10 9 24 21 -1 -5 17 12 14 -13 -12 28 -7 -3 -2 -10 23 22 -8 -19 25 26 -6 -28 -16 -29
right_child=1 3 -4 5 6 16 7 -9 19 -11 11 13 -14 -15 15 -17 -18 20 -20 -21 -22 -23 -24 -25 -26 -27 27 29 -30 -31
leaf_value=-0.000998074449990925 0.0034773389274468185 0.026967490594834088 -0.0014404065376734383 0.004681261443819096 0.0072641481692884485 0.0095844794531091525 0.012013314443826676 0.0082103074714541431 0.009409497392504183 0.015977197326719761 0.0071772532297505274 0.0045365416631102566 0.02977751899333227 0.015506405388234093 0.030004952456802129 0.0089188128578312261 0.016991619825363159 0.016007959091001087 0.012488339517046422 0.0015541493092010271 0.023569938649733859 0.0097664766726286521 0.028063188014846099 0.0039639499173922971 0.016640829866802372 0.0033178712167437115 0.022121087834239005 0.015619315657350752 0.01526597684621811 0.0075899199669559794
leaf_weight=94 121 31 11824 152 152 138 24 51 72 23 44 75 20 60 23 33 69 44 33 66 29 22 37 21 36 62 21 44 24 59
leaf_count=94 121 31 11824 152 152 138 24 51 72 23 44 75 20 60 23 33 69 44 33 66 29 22 37 21 36 62 21 44 24 59
internal_value=1.07806e-06 0.0112844 -0.00135412 0.0119555 0.0129474 0.00953353 0.0111776 0.0151726 0.002988 0.00630503 0.0151151 0.0132285 0.0165056 0.00956373 0.0140639 0.0175927 0.0121714 0.0191081 0.0055409 0.00576274 0.0161543 0.0191829 0.0222054 0.0123873 0.00968288 0.00886539 0.010059 0.0133194 0.0231618 0.0112333
internal_weight=13504 1448 12056 1294 912 382 508 134 232 175 404 279 144 135 124 80 207 125 154 138 94 83 61 65 374 338 276 124 47 103
internal_count=13504 1448 12056 1294 912 382 508 134 232 175 404 279 144 135 124 80 207 125 154 138 94 83 61 65 374 338 276 124 47 103
is_linear=0
shrinkage=0.02


Tree=3
num_leaves=31
num_cat=0
split_feature=27 1 35 11 125 40 54 6 5 3 75 127 87 51 115 74 31 40 16 111 127 40 27 68 72 31 132 9 11 118
split_gain=496.8 10.8251 8.77674 7.4907 7.7985 11.1256 6.36341 6.7547 6.35623 6.32475 5.58335 5.29668 5.1961 4.96033 6.93951 5.76039 5.02285 7.36393 8.66198 4.9369 4.93191 4.82085 4.2932 5.32744 6.46348 4.80575 4.65002 4.37826 4.15937 4.4445
threshold=4.6250000000000009 1.8333333333333337 2.0625000000000004 112.50000000000001 1.2149859943977595 2.2678571428571432 196.96875000000003 221.83333333333334 119.16666666666667 11.987500000000002 1.4008513249097241 1.2389763406192216 29.306403138313147 3.511945560574532 1.1558704453441297 250.91950277411874 -1.010558485984802 3.6458333333333335 279.87500000000006 0.60764812711212379 0.63972789115646267 0.77500000000000013 33.125000000000007 3.4494949494949503 0.47962001835306495 1.2351393699645998 0.53117508954750048 0.58333333333333337 143.50000000000003 1.2145707963309187
decision_type=2 2 2 2 2 2 2 2 2 2 2 2 2 2 2 2 2 2 2 2 2 2 2 2 2 2 2 2 2 2
left_child=1 9 3 4 11 -6 7 -5 -8 -1 19 20 -9 16 15 -15 17 18 -10 -7 -2 -11 23 24 27 -24 -27 -22 29 -4
right_child=2 -3 28 6 5 10 8 12 13 21 -12 -13 -14 14 -16 -17 -18 -19 -20 -21 22 -23 25 -25 -26 26 -28 -29 -30 -31
leaf_value=-0.00097832300317914869 0.0013692526654763657 -0.0014116008575698539 0.015337482833413667 0.0031983956893285115 0.027209553332889783 0.0092755019554385428 0.0062864016372224567 0.011147540652936742 0.021353629914657123 0.0092238854320898442 0.0054585846942482577 0.00037534717293012708 0.00071055618616250847 0.026661543652415274 0.0069656325783580544 0.013931369206309319 0.0066615435551359969 0.0043310261224255419 0.0072493906454606499 0.022858109350862174 0.0087096663458006724 0.0015235301718783023 0.0056003263056947942 0.0099859381916707953 0.027203860729932784 0.0056630393421208411 0.01751855944351452 0.017321295730578595 0.0081232422242561979 0.027060732766985895
leaf_weight=94 21 11824 92 134 33 26 114 128 52 72 32 20 25 29 31 49 105 32 32 28 48 66 88 115 21 26 40 77 29 21
leaf_count=94 21 11824 92 134 33 26 114 128 52 72 32 20 25 29 31 49 105 32 32 28 48 66 88 115 21 26 40 77 29 21
internal_value=2.01025e-06 -0.00132701 0.0110675 0.0105137 0.0122932 0.0170715 0.00908547 0.00662601 0.0106343 0.0029291 0.0127984 0.0109897 0.00952277 0.0120826 0.015812 0.0190685 0.0101352 0.0131102 0.0162467 0.0167877 0.0114517 0.0056505 0.0119334 0.0136057 0.0163015 0.00896511 0.0131517 0.0141892 0.015982 0.0178221
internal_weight=13504 12056 1448 1306 575 119 731 287 444 232 86 456 153 330 109 78 221 116 84 54 436 138 415 261 146 154 66 125 142 113
internal_count=13504 12056 1448 1306 575 119 731 287 444 232 86 456 153 330 109 78 221 116 84 54 436 138 415 261 146 154 66 125 142 113
is_linear=0
shrinkage=0.02


Tree=4
num_leaves=31
num_cat=0
split_feature=27 116 1 11 51 2 2 0 60 13 10 100 110 115 125 40 75 4 32 117 17 4 114 4 131 5 5 76 127 7
split_gain=477.751 12.7293 10.4019 7.13877 9.30988 7.24154 5.69254 5.03384 4.9925 14.0428 7.42898 8.15347 7.37584 5.06242 4.80343 4.56981 4.33674 5.39704 4.30324 4.28276 7.91407 4.03158 8.58688 4.51069 4.48171 5.10115 4.91996 3.72899 3.57056 3.491
threshold=4.6250000000000009 0.73510204602275631 1.8333333333333337 115.50000000000001 3.8595049306750302 7.166666666666667 41.500000000000007 8.0000000794728603 3.3229166666666674 58.183999633789071 196.10000000000002 -0.25833333333333325 0.31696428571428564 0.50384615384615394 1.0645833333333334 0.77500000000000013 0.88844431661505563 284.00000000000006 -1.8616005678971608 0.69782608695652182 0.87500000000000011 221.16666666666671 1.0021280300015316 212.83333333333334 -0.23486158376090349 129.50000000000003 164.83333333333334 266.66083824716105 1.0478671069479077 67.446665445963546
decision_type=2 2 2 2 2 2 2 2 2 2 2 2 2 2 2 2 2 2 2 2 2 2 2 2 2 2 2 2 2 2
left_child=2 14 7 6 18 -6 8 -1 9 10 -3 -12 -13 -10 -2 -9 -15 28 -5 -7 29 22 23 27 -23 -26 -27 -20 -18 -21
right_child=1 3 -4 4 5 19 -8 15 13 -11 11 12 -14 16 -16 -17 17 -19 21 20 -22 24 -24 -25 25 26 -28 -29 -30 -31
leaf_value=-0.0013165658672650655 0.0032355841053802459 0.011064200504468038 -0.0013833712063556494 0.0019075705838757892 0.0033470521756896266 0.011070475025128012 0.0028771715044975284 0.0081177596322127756 0.0024263449705072813 0.011187150650683729 0.011849123477935791 0.031473058080300688 0.018032107824502989 0.0060195774093587352 0.012021208501913969 0.0011299460596944156 0.013679964752015421 0.021352424568989697 0.0090352470020453133 0.028756952830590307 0.01089617026651778 0.0046185765233304763 0.0015564639381615512 0.0010620651868256657 0.0084696378575071039 0.018594128600188664 0.0073710351437330244 0.018597502703113215 0.0063671264559664624 0.015132892646572806
leaf_weight=74 121 38 11824 42 26 72 24 83 27 178 29 47 42 46 33 75 117 33 74 31 40 44 82 21 91 69 27 27 46 21
leaf_count=74 121 38 11824 42 26 72 24 83 27 178 29 47 42 46 33 75 117 33 74 31 40 44 82 21 91 69 27 27 46 21
internal_value=2.83778e-06 0.0108542 -0.00130043 0.011509 0.00996463 0.0138136 0.0131176 0.00287135 0.0135031 0.0152703 0.0197647 0.0223661 0.0255121 0.0112234 0.00524814 0.00489162 0.0121498 0.0134999 0.00838488 0.015382 0.0184934 0.00898153 0.00673622 0.0100954 0.0108837 0.0122723 0.0156493 0.0118468 0.0117286 0.0238329
internal_weight=13504 1448 12056 1294 667 190 627 232 603 334 156 118 89 269 154 158 242 196 477 164 92 435 204 122 231 187 96 101 163 52
internal_count=13504 1448 12056 1294 667 190 627 232 603 334 156 118 89 269 154 158 242 196 477 164 92 435 204 122 231 187 96 101 163 52
is_linear=0
shrinkage=0.02


Tree=5
num_leaves=31
num_cat=0
split_feature=27 116 11 31 2 111 2 128 7 99 40 115 9 7 116 4 107 31 99 4 9 30 5 112 4 114 114 77 132 57
split_gain=459.417 12.2339 6.84111 7.30405 7.56527 7.91821 5.45981 5.03753 7.57157 5.58994 4.8502 8.51434 8.74901 5.44912 4.77145 5.71544 7.40393 5.64493 4.65026 5.53227 4.9107 4.57119 4.39781 4.44082 5.32449 4.33527 4.26624 4.11963 3.58779 3.45413
threshold=4.6250000000000009 0.73510204602275631 115.50000000000001 3.3906635716557507 8.1666666666666696 5.3273474927991638 41.500000000000007 0.77801318267419972 67.003332773844406 0.044230769230769219 2.3875000000000006 1.1801948051948055 0.83333333333333337 78.623332977294936 0.95885257724622386 221.16666666666671 1.6375000000000004 -0.7441616803407668 -0.047727272727272695 229.50000000000003 0.83333333333333337 31.125000000000004 101.83333333333336 1.9553612985958659 221.16666666666671 1.0021280300015316 0.97128918135676301 0.50016662496530906 0.43557110930500337 0.77350427350427364
decision_type=2 2 2 2 2 2 2 2 2 2 2 2 2 2 2 2 2 2 2 2 2 2 2 2 2 2 2 2 2 2
left_child=-1 18 6 22 -5 7 10 -6 9 -9 11 12 -3 14 17 16 26 -12 -2 -20 -21 -19 -4 24 25 -24 -16 -26 -13 -14
right_child=1 2 3 4 5 -7 -8 8 -10 -11 13 28 29 -15 15 -17 -18 21 19 20 -22 -23 23 -25 27 -27 -28 -29 -30 -31
leaf_value=-0.0012743983921437575 8.0475726952919591e-07 0.0082020135652273903 0.0011776847533277563 0.0034526767378503624 0.0080444406357503707 0.0041347146599457181 0.0028219297468662263 0.027574062388051643 0.011207538430268567 0.014477748125791549 0.022671634732715544 0.014137308131093564 0.022425173489110814 0.022494041770696641 0.025310747804849047 0.0071371420227378784 0.0050806290633750688 0.01454688492231071 0.002176008193443219 0.0059158412750923272 0.018719409281015394 0.0035007950246334074 0.008208602841781534 0.017716870984683435 0.016669700796284326 0.0018972168117761612 0.012718601986056281 0.0089267988232049084 0.027047015452071239 0.010183480829000472
leaf_weight=12056 51 79 36 32 30 28 24 43 47 31 30 22 41 20 22 172 32 63 47 32 24 24 114 23 40 79 41 164 37 20
leaf_count=12056 51 79 36 32 30 28 24 43 47 31 30 22 41 20 22 172 32 63 47 32 24 24 114 23 40 79 41 164 37 20
internal_value=3.6082e-06 0.0106447 0.0112868 0.00977344 0.012961 0.0145766 0.0128627 0.0164071 0.0183156 0.0224873 0.0132405 0.0160241 0.012992 0.0118085 0.011169 0.00951013 0.0135832 0.0147571 0.00514644 0.00757362 0.0118107 0.0116877 0.00825148 0.00882981 0.0082466 0.00569983 0.0175989 0.0105677 0.0227157 0.0188018
internal_weight=13504 1448 1294 667 211 179 627 151 121 74 603 199 140 404 384 267 95 117 154 103 56 87 456 420 397 193 63 204 59 61
internal_count=13504 1448 1294 667 211 179 627 151 121 74 603 199 140 404 384 267 95 117 154 103 56 87 456 420 397 193 63 204 59 61
is_linear=0
shrinkage=0.02


Tree=6
num_leaves=31
num_cat=0
split_feature=27 1 125 11 125 3 55 109 31 106 40 2 17 117 3 114 120 70 131 49 4 32 126 67 100 120 112 120 70 100
split_gain=441.89 9.99285 7.91583 6.41959 6.01332 5.91629 5.20879 5.28281 5.13788 4.58495 4.45553 4.40963 4.39336 6.02564 4.12088 5.98267 3.67902 3.56837 3.51026 3.52058 5.60203 4.39442 4.75081 4.31105 3.494 3.44701 3.78039 6.4083 5.731 3.43542
threshold=4.6250000000000009 1.8333333333333337 0.50757575757575768 112.30000000000003 1.5065789473684212 11.987500000000002 1.7638888888888891 45.428571428571431 1.8469444215297701 -0.62499999906867731 0.77500000000000013 22.166666666666668 0.87500000000000011 0.69782608695652182 12.759999990463259 1.0021280300015316 0.55333494553075857 15.031250000000002 0.061135551583495852 197.43750000000003 199.16666666666671 -1.8424179404973982 0.82998317335870475 27.13942307692308 -0.77222222222222203 0.69519450800915339 0.18200900163501502 1.0841666666666667 15.773504273504276 -0.31458333333333338
decision_type=2 2 2 2 2 2 2 2 2 2 2 2 2 2 2 2 2 2 2 2 2 2 2 2 2 2 2 2 2 2
left_child=1 5 9 4 16 -1 7 18 -6 -2 -7 12 13 -8 -11 -16 -4 -13 -5 20 -20 -21 -23 -22 -24 -26 28 -28 -27 -18
right_child=2 -3 3 6 8 10 11 -9 -10 14 -12 17 -14 -15 15 -17 29 -19 19 21 23 22 24 -25 25 26 27 -29 -30 -31
leaf_value=-0.00093615835591366429 0.0039899567040530123 -0.0013302202787132142 0.019732688382267952 0.0058351534430508148 0.028338247509229753 0.0089095273593517207 0.0056265956876070597 0.0010397643092516307 0.011774987918989999 0.00090413192198390054 0.0014963603998298075 0.024549869006872175 0.0036825283503893651 0.021441902583060054 0.014532649649514093 0.0028538054121392117 0.0079791223591282254 0.012103896816571553 -4.0820394792864408e-05 0.0031139308379756082 0.012907912851341311 0.020576819136738776 0.0039077608287334444 0.00409571628340266 0.0042766214132308961 0.020905728076512996 0.0146561891204781 0.0027341179301341371 0.0092627717844314048 0.012609902520974476
leaf_weight=94 120 11824 29 110 20 72 22 36 20 20 66 24 32 22 71 27 104 29 30 26 61 29 28 43 24 51 44 35 35 356
leaf_count=94 120 11824 29 110 20 72 22 36 20 20 66 24 32 22 71 27 104 29 30 26 61 29 28 43 24 51 44 35 35 356
internal_value=4.46505e-06 -0.00124891 0.0104406 0.0111151 0.0128564 0.00283999 0.00973095 0.00879846 0.0207897 0.00693736 0.00547231 0.0135459 0.00992336 0.0140572 0.00979197 0.0114773 0.012146 0.0182753 0.00931736 0.0102196 0.00725361 0.0116122 0.0124537 0.00943335 0.0112328 0.0122391 0.0133043 0.00959946 0.0164432 0.0116042
internal_weight=13504 12056 1448 1210 529 232 681 552 40 238 138 129 76 44 118 98 489 53 516 406 134 272 246 104 217 189 165 79 86 460
internal_count=13504 12056 1448 1210 529 232 681 552 40 238 138 129 76 44 118 98 489 53 516 406 134 272 246 104 217 189 165 79 86 460
is_linear=0
shrinkage=0.02


Tree=7
num_leaves=31
num_cat=0
split_feature=27 116 1 11 51 2 118 3 40 2 125 118 128 27 60 13 100 110 115 72 13 18 126 7 11 110 114 67 13 3
split_gain=424.948 12.9202 8.18926 6.85353 8.86217 6.61681 5.75521 5.42086 5.30635 5.28012 4.79375 4.7708 6.32551 6.66595 4.62387 13.2239 5.9659 5.82999 4.81197 4.78842 4.2148 4.192 4.08228 4.0749 3.35116 6.18536 6.22013 3.8572 3.24745 4.59365
threshold=3.4166666666666674 0.73510204602275631 1.8333333333333337 115.50000000000001 3.8595049306750302 7.166666666666667 1.3641199226305611 13.320000267028812 0.77500000000000013 41.500000000000007 1.0645833333333334 0.8302839168670334 0.77334665697674432 34.125000000000007 3.3229166666666674 58.183999633789071 -0.25833333333333325 0.31696428571428564 0.50384615384615394 0.38781642029061919 49.579999732971196 11.125000000000002 1.0228674458624278 59.283333460489914 132.50000000000003 0.31696428571428564 0.95568529584084327 35.133928571428577 62.897999572753911 19.619999599456794
decision_type=2 2 2 2 2 2 2 2 2 2 2 2 2 2 2 2 2 2 2 2 2 2 2 2 2 2 2 2 2 2
left_child=2 10 7 9 6 -6 24 -1 -9 14 -2 12 -7 -14 15 16 -3 20 -16 23 -18 -8 -13 -20 -5 26 -26 -28 -17 -30
right_child=1 3 -4 4 5 11 21 8 -10 -11 -12 22 13 -15 18 28 17 -19 19 -21 -22 -23 -24 -25 25 -27 27 -29 29 -31
leaf_value=-0.00049221645031019903 0.0027335512381978333 0.010479390840563509 -0.001303618145341853 0.0047599855002272073 0.003072277616571497 0.0099521434257427849 0.0052847114489192057 0.0095459931190051729 0.0003066358488538991 0.0025349897742271421 0.011428008184713477 0.014959293336917956 0.029730280689124405 0.012438151169390906 0.0020067754174981798 0.0065304683971760882 0.016713716574013233 0.015674970914594463 0.0025532263980971442 0.013489671927509885 0.03056720184210019 0.017739018037915232 0.00553757956115211 0.012152632845299586 0.018326695984915684 0.0038998905906365033 0.0059979797715551397 0.014795576776227644 0.017029101409410174 0.0083290411916471293
leaf_weight=106 127 35 11824 188 26 29 20 62 45 24 33 47 28 20 27 66 23 60 44 164 38 39 40 34 37 83 88 30 56 61
leaf_count=106 127 35 11824 188 26 29 20 62 45 24 33 47 28 20 27 66 23 60 44 164 38 39 40 34 37 83 88 30 56 61
internal_value=5.14808e-06 0.0101648 -0.00123297 0.0108284 0.00932936 0.0130889 0.00781207 0.00263007 0.00579169 0.0123963 0.00464874 0.0145881 0.0184865 0.0231302 0.0127644 0.0144449 0.0188324 0.0210608 0.0105638 0.0114652 0.0258589 0.0138423 0.0108533 0.00696503 0.00692301 0.00856271 0.0109545 0.00842423 0.0105685 0.0126869
internal_weight=13504 1467 12037 1307 675 190 485 213 107 632 160 164 77 48 608 339 156 121 269 242 61 59 87 78 426 238 155 118 183 117
internal_count=13504 1467 12037 1307 675 190 485 213 107 632 160 164 77 48 608 339 156 121 269 242 61 59 87 78 426 238 155 118 183 117
is_linear=0
shrinkage=0.02


Tree=8
num_leaves=31
num_cat=0
split_feature=47 116 1 37 115 80 19 91 125 52 127 13 114 12 3 92 125 12 129 105 109 69 126 13 60 58 77 111 14 20
split_gain=405.213 13.8661 9.48738 6.41519 6.82722 6.61064 5.86732 5.75453 7.65443 5.59065 8.36351 8.35802 7.54577 5.51862 4.93179 4.90661 4.77742 4.42295 6.92957 4.0281 3.89914 3.74331 4.23273 3.6967 3.36766 2.91831 2.91736 3.93294 4.47086 2.91249
threshold=4.8000000000000007 0.73510204602275631 1.0000000180025095e-35 0.86607142857142871 0.90803382663847787 3.0000714996423579 0.58333333333333337 3.7756703247154322 1.0645833333333334 -1.0658344402909277 0.84233029757492328 60.535999679565435 0.99456790698917596 196.10000000000002 13.320000267028812 -0.058115950350238192 1.0645833333333334 264.22500000000008 0.87405950664332066 0.53055555555555567 17.025000000000009 211.29166666666671 1.0866204424553192 63.745999908447274 2.5166666666666671 16.031250000000004 0.73844472969723041 -0.11432581461433852 211.87500000000003 0.70833333333333337
decision_type=2 2 2 2 2 2 2 2 2 2 2 2 2 2 2 2 2 2 2 2 2 2 2 2 2 2 2 2 2 2
left_child=2 16 14 5 6 9 -5 19 17 12 -11 13 -3 -12 -1 -15 -2 18 -9 -7 -14 -6 24 -13 -23 -26 27 -25 -29 -16
right_child=1 3 -4 4 21 7 -8 8 -10 10 11 23 20 15 29 -17 -18 -19 -20 -21 -22 22 -24 26 25 -27 -28 28 -30 -31
leaf_value=-0.00028779955259684858 0.0025945436494315371 0.016155982223840862 -0.0012731471305532293 0.0036941546474406925 0.0060781163225571309 0.0077861365091308381 0.014624518863856793 0.010657365536689759 0.0070477434820853746 0.0024937958756218789 0.012114041044905379 0.0063357164691656065 0.009037527829408646 0.027985675601249045 0.0089053125198810344 0.016830625033124963 0.011206170451991699 0.0084352881493775754 0.026073365980073024 0.01524343934413549 -0.00056398253639539087 0.0044890726083203361 0.017923327470198275 0.0094476347323507077 0.018475730304534619 0.0084706694632768632 0.0076031467061618277 0.011295631403724353 0.024773684161550857 0.0018801971509101543
leaf_weight=86 135 38 11849 152 59 338 23 24 51 22 36 38 34 46 61 46 33 22 37 36 29 37 47 31 25 39 28 23 33 46
leaf_count=86 135 38 11849 152 59 338 23 24 51 22 36 38 34 46 61 46 33 22 37 36 29 37 47 31 25 39 28 23 33 46
internal_value=5.88439e-06 0.00994587 -0.00120081 0.010654 0.00833154 0.0116056 0.00526247 0.00996311 0.0136868 0.0136166 0.0150502 0.0159854 0.00911252 0.019958 0.00317247 0.0227566 0.00440158 0.0175147 0.0204391 0.00856935 0.00452178 0.0108403 0.0126181 0.012489 0.00989981 0.0127569 0.0143639 0.0163151 0.0197088 0.00602314
internal_weight=13504 1462 12042 1294 382 912 175 508 134 404 303 281 101 128 193 92 168 83 61 374 63 207 148 153 101 64 115 87 56 107
internal_count=13504 1462 12042 1294 382 912 175 508 134 404 303 281 101 128 193 92 168 83 61 374 63 207 148 153 101 64 115 87 56 107
is_linear=0
shrinkage=0.02


Tree=9
num_leaves=31
num_cat=0
split_feature=27 116 1 37 115 80 19 36 98 51 127 129 0 52 55 118 35 120 125 0 40 125 4 0 58 10 35 129 39 18
split_gain=393.111 11.9321 7.55295 5.93203 6.56364 5.83925 5.64267 5.16897 5.12945 7.15029 5.05648 7.93588 11.2072 10.299 6.66247 5.93491 5.07248 4.86456 4.42811 4.2467 4.82515 4.14501 4.02861 3.84275 3.81715 3.64244 4.24179 6.27608 3.25913 3.91324
threshold=3.4166666666666674 0.73510204602275631 1.8333333333333337 0.86607142857142871 0.90803382663847787 3.0000714996423579 0.58333333333333337 289.18750000000006 -2.9354166666666663 3.8595049306750302 0.84233029757492328 0.99454993176289097 18.900000095367435 -1.1411066601673758 1.7303030303030307 1.1482928240740742 1.4642857142857146 1.0227744247453794 1.0775240384615385 8.0000000794728603 0.77500000000000013 1.0851449275362322 248.16666666666671 18.300000111262005 6.0312500000000009 226.50000000000003 0.93750000000000011 0.98628301804232743 0.58571428571428574 15.29166666666667
decision_type=2 2 2 2 2 2 2 2 2 2 2 2 2 2 2 2 2 2 2 2 2 2 2 2 2 2 2 2 2 2
left_child=2 18 19 5 6 10 -5 -6 25 28 -3 12 15 22 16 17 24 -12 -2 -1 -21 23 -13 -11 -15 26 -7 -28 29 -10
right_child=1 3 -4 4 7 8 -8 -9 9 21 11 13 -14 14 -16 -17 -18 -19 -20 20 -22 -23 -24 -25 -26 -27 27 -29 -30 -31
leaf_value=-0.0012299734334150949 0.0026936489022695103 0.0035160875260829929 -0.0012520872841551743 0.0036207544394567903 0.0081335827140070552 0.0021149083430116828 0.014344215591748555 0.015300460287502832 0.012667971246410161 0.022889172788276228 0.021309683605244288 0.00043414377014745368 0.006828213548287749 0.010834165628822078 0.022283934278147562 0.032192176736536481 0.0050955485061901376 0.0082236462547665545 0.011248694425448775 0.007809245299547911 0.00012916140624734222 0.010113346713284652 0.01140148795786358 0.01058724670306496 0.019082294000519646 0.0033897404162322774 0.0049418734226908002 0.021757197820004962 0.017049762999469583 0.0064577083629474312
leaf_weight=74 129 24 11824 152 138 21 23 69 63 42 56 43 31 83 34 20 40 20 31 79 60 47 20 22 44 84 20 20 21 170
leaf_count=74 129 24 11824 152 138 21 23 69 63 42 56 43 31 83 34 20 40 20 31 79 60 47 20 22 44 84 20 20 21 170
internal_value=6.58942e-06 0.00977831 -0.00118421 0.0104162 0.0081719 0.0113224 0.00516044 0.0106327 0.00976249 0.0110746 0.0131874 0.013745 0.0180616 0.0115704 0.0138001 0.0214782 0.011891 0.0181474 0.00447287 0.0025251 0.00459013 0.0154748 0.00419584 0.0190422 0.0138967 0.00633792 0.0101163 0.013919 0.00905927 0.00822657
internal_weight=13504 1467 12037 1307 382 925 175 207 510 365 415 391 127 264 201 96 167 76 160 213 139 111 63 64 127 145 61 40 254 233
internal_count=13504 1467 12037 1307 382 925 175 207 510 365 415 391 127 264 201 96 167 76 160 213 139 111 63 64 127 145 61 40 254 233
is_linear=0
shrinkage=0.02


Tree=10
num_leaves=31
num_cat=0
split_feature=16 1 11 51 130 2 100 125 2 9 40 52 0 87 57 117 17 4 126 52 129 111 118 2 100 65 10 4 120 2
split_gain=377.321 10.4805 7.59901 7.3194 6.29004 6.07449 6.07384 7.69413 5.73689 6.2979 10.258 4.9293 4.90952 4.89604 4.86553 4.31384 5.67053 4.18609 4.18724 3.94287 4.37099 3.92405 3.91703 4.47562 3.80976 3.76883 3.53995 3.11425 2.9621 2.91815
threshold=49.750000000000007 1.0000000180025095e-35 114.90000000000002 3.8595049306750302 1.3697141155449675 8.1666666666666696 -0.3100961538461538 1.5065789473684212 40.500000000000007 0.58333333333333337 2.4642857142857149 0.44416129300370816 11.643333454926811 35.230060958661035 0.5590277777777779 0.69782608695652182 0.87500000000000011 221.16666666666671 0.97639024545959363 0.088671973773411364 1.0213163896100173 2.1974899033705397 0.55045128813504995 3.1666666666666674 -0.3100961538461538 1.8062500000000001 223.70000000000002 202.41666666666671 0.60141843971631215 16.166666666666668
decision_type=2 2 2 2 2 2 2 2 2 2 2 2 2 2 2 2 2 2 2 2 2 2 2 2 2 2 2 2 2 2
left_child=1 22 6 4 13 -5 12 8 9 -8 14 19 -2 17 -11 26 25 -4 28 20 -12 29 -1 -24 -20 -17 -7 -15 -19 -14
right_child=2 -3 3 5 -6 15 7 -9 -10 10 11 -13 21 27 -16 16 -18 18 24 -21 -22 -23 23 -25 -26 -27 -28 -29 -30 -31
leaf_value=-0.0012537483076254527 0.00043287553358823061 -0.0012227131358430357 0.0027536935645180783 0.0031754572075956005 0.012904750733678021 0.0049109021995378576 0.0084484465311478532 0.022462009010892927 0.0010216954892331904 0.027118157705953046 0.01367015217639962 0.014509923303356539 0.0080858547429540264 0.01670303279390702 0.015670811122372036 0.013917580584685008 0.0095450934913100267 0.0095376743376255034 0.017854362758605375 0.00025027972459793093 0.0030808253637675583 0.0037605944171894431 -0.0013475283352952256 0.0062552415704640162 0.0075453120729197633 0.026700175680496076 0.014095935463905335 0.0076492940677063805 0.0019406194626530515 0.015296131971363838
leaf_weight=59 31 11849 184 33 66 45 136 32 21 30 48 103 66 25 62 29 40 30 22 24 28 42 37 136 68 26 34 69 78 51
leaf_count=59 31 11849 184 33 66 45 136 32 21 30 48 103 66 25 62 29 40 30 22 24 28 42 37 136 68 26 34 69 78 51
internal_value=7.30773e-06 -0.0011396 0.0097453 0.00828139 0.00698717 0.0115721 0.0113426 0.0125846 0.0118153 0.0123144 0.0140284 0.0112964 0.00807701 0.00612037 0.0197626 0.0130802 0.0161436 0.00503835 0.0070867 0.00777662 0.00998937 0.00949285 0.00304952 0.00457334 0.0103437 0.0205077 0.00911574 0.0103129 0.0042108 0.0114165
internal_weight=13504 12081 1423 749 542 207 674 484 452 431 295 203 190 476 92 174 95 382 198 100 76 159 232 173 90 55 79 94 108 117
internal_count=13504 12081 1423 749 542 207 674 484 452 431 295 203 190 476 92 174 95 382 198 100 76 159 232 173 90 55 79 94 108 117
is_linear=0
shrinkage=0.02


Tree=11
num_leaves=31
num_cat=0
split_feature=27 1 125 11 125 98 3 31 45 132 106 3 114 40 115 5 72 112 132 120 100 4 4 10 75 120 106 95 57 105
split_gain=363.76 8.13497 6.64659 5.68057 5.60181 5.502 5.01966 4.9839 4.80917 5.13098 4.2015 3.90107 5.64294 3.80649 3.65848 4.43604 4.66119 3.62028 7.29957 6.94389 4.83506 6.06016 8.80055 7.95053 6.76712 4.47533 3.42143 6.53838 4.32306 5.09194
threshold=4.6250000000000009 1.8333333333333337 0.50757575757575768 112.30000000000003 1.5065789473684212 7.1698717948717965 11.987500000000002 1.8469444215297701 2.535714285714286 7.7993007100550198 -0.62499999906867731 12.759999990463259 1.0021280300015316 0.77500000000000013 1.7880614657210405 130.83333333333334 -1.4413484930992124 0.57353694753890705 -2.333995595503938 0.58372274143302194 -0.38636363636363624 215.83333333333334 282.83333333333343 197.90000000000003 1.6702158155366178 0.75050200803212863 -2.9125000445637848 -0.064583333333333312 0.39230769230769241 0.19337606837606838
decision_type=2 2 2 2 2 2 2 2 2 2 2 2 2 2 2 2 2 2 2 2 2 2 2 2 2 2 2 2 2 2
left_child=1 6 10 4 5 17 -1 -6 9 14 -2 -12 -13 -8 15 -5 -17 18 -4 -20 -21 23 24 -22 -23 -19 -18 -28 -29 -30
right_child=2 -3 3 8 7 -7 13 -9 -10 -11 11 12 -14 -15 -16 16 26 25 19 20 21 22 -24 -25 -26 -27 27 28 29 -31
leaf_value=-0.00091294377728512411 0.0034427309368760136 -0.0012025954734573405 -0.00033381144431504335 0.0061492286389524288 0.026729958199319385 0.0032596809588945831 0.0081624212024146558 0.010590661139715286 0.01518736933567086 0.016914093268328701 0.00037734694424129667 0.013581073060631752 0.0022724820300936699 0.0012993287261742264 0 0.0022827389441868839 0.017622201678252989 0.006183938313098181 0.022062395143508912 0.0049106085984433282 0.0077185382669971835 0.0040809733065489294 0.01680002357363701 0.021944629879707987 0.015316693515613163 0.018269505137029816 0.0038951683533377944 0.018698032515890459 0.012773352729291032 0.0045215445531989048
leaf_weight=94 120 11824 21 274 20 38 72 20 48 28 20 71 27 66 24 33 30 20 24 60 30 106 49 46 28 67 63 33 96 52
leaf_count=94 120 11824 21 274 20 38 72 20 48 28 20 71 27 66 24 33 30 20 24 60 30 106 49 46 28 67 63 33 96 52
internal_value=7.93967e-06 -0.00112918 0.0094767 0.0100956 0.0117327 0.0110502 0.00255872 0.0193593 0.0087939 0.00827012 0.00625925 0.00898648 0.0106209 0.00498498 0.00782632 0.00814196 0.00986228 0.0116758 0.0106446 0.0113449 0.0104408 0.0116597 0.00946114 0.0166321 0.00659888 0.0157067 0.0107272 0.00977013 0.0117274 0.00999099
internal_weight=13504 12056 1448 1210 529 489 232 40 681 633 238 118 98 138 605 581 307 451 364 343 319 259 183 76 134 87 274 244 181 148
internal_count=13504 12056 1448 1210 529 489 232 40 681 633 238 118 98 138 605 581 307 451 364 343 319 259 183 76 134 87 274 244 181 148
is_linear=0
shrinkage=0.02


Tree=12
num_leaves=31
num_cat=0
split_feature=47 116 37 115 80 19 5 114 72 116 13 34 91 98 66 99 4 13 99 76 56 87 105 99 13 2 98 100 114 51
split_gain=346.807 12.3603 5.96518 6.18581 5.94789 5.34824 5.12757 7.51761 7.29074 6.85646 11.6969 5.33953 5.12116 5.58541 4.73723 4.6471 4.63992 4.28683 4.14512 4.03029 3.80525 4.25836 3.72287 5.03585 3.50278 4.2137 3.28845 3.23106 3.19342 8.65565
threshold=4.8000000000000007 0.73510204602275631 0.86607142857142871 0.90803382663847787 3.0000714996423579 0.58333333333333337 99.166666666666671 0.99708633830138182 -1.4609300796873865 1.0677412214345356 58.372665913899745 169.18750000000003 3.7756703247154322 -3.0370879120879124 17.609285697340969 -0.047727272727272695 229.50000000000003 70.64000053405762 -0.18465909090909088 221.18557616542031 286.63888888888897 38.000250125062536 0.53055555555555567 0.089743589743589772 64.123997497558605 9.8333333333333339 6.0725524475524484 0.24166666666666717 0.95568529584084327 -2.4205139279365535
decision_type=2 2 2 2 2 2 2 2 2 2 2 2 2 2 2 2 2 2 2 2 2 2 2 2 2 2 2 2 2 2
left_child=-1 15 4 5 6 -4 11 9 -9 10 -8 -3 22 -14 -13 -2 -17 19 -5 -18 -20 -22 23 28 25 -10 27 -15 29 -6
right_child=1 2 3 18 12 -7 7 8 24 -11 -12 14 13 26 -16 16 17 -19 20 -21 21 -23 -24 -25 -26 -27 -28 -29 -30 -31
leaf_value=-0.001107744820775418 -0.00039642265687386195 0.024432909508546194 0.0032200052730398244 0.001225436887015467 0.022225715604921183 0.013644985506931941 0.021516239132199969 -0.001692984688282013 -0.00052905067153598956 0.02586980012330142 0.0062255837990526563 0.010430454966956621 0.0056194751843428002 0.013717761558515054 0.021647209167480468 0.0014537741882460458 0.0062841441375868657 0.0020203937996517529 0.0086695601427555086 0.020319225305602668 0.020832439530640842 0.0089138011201735472 0.014319314489493501 0.0017673767464501517 0.013216844247920172 0.0094251165180294603 0.0067909857063066393 0.024503446792562805 0.0066466988052459475 0.0075129509594903067
leaf_weight=12042 59 29 152 22 23 23 34 24 22 21 56 72 38 53 24 48 20 21 124 20 31 30 36 62 69 53 20 23 187 66
leaf_count=12042 59 29 152 22 23 23 34 24 22 21 56 72 38 53 24 48 20 21 124 20 31 30 36 62 69 53 20 23 187 66
internal_value=8.54616e-06 0.00920437 0.00987291 0.00763704 0.0107891 0.00471671 0.012697 0.0109882 0.00810439 0.0151523 0.0122849 0.0163142 0.00923013 0.0127453 0.013532 0.00396786 0.00640322 0.0100503 0.0100233 0.01387 0.0110036 0.0153704 0.0079134 0.00716138 0.00980667 0.00640511 0.0153758 0.0173876 0.00832622 0.0116309
internal_weight=13504 1462 1294 382 912 175 404 279 168 111 90 125 508 134 96 168 109 61 207 40 185 61 374 338 144 75 96 76 276 89
internal_count=13504 1462 1294 382 912 175 404 279 168 111 90 125 508 134 96 168 109 61 207 40 185 61 374 338 144 75 96 76 276 89
is_linear=0
shrinkage=0.02


Tree=13
num_leaves=31
num_cat=0
split_feature=27 116 1 3 40 35 17 112 70 35 0 132 4 100 31 107 116 100 3 130 77 70 16 125 14 4 18 134 126 3
split_gain=336.574 10.6714 6.65898 4.59234 4.59682 4.48269 4.20111 5.11416 8.82899 6.10597 6.53797 5.46506 5.2339 4.97251 7.39308 5.326 5.20684 4.81744 4.51392 5.87283 5.71577 4.30889 4.23909 3.99414 3.29492 3.29407 5.60011 3.07916 3.48716 4.04869
threshold=3.4166666666666674 0.73510204602275631 1.8333333333333337 13.320000267028812 0.77500000000000013 2.2916666666666674 0.87500000000000011 0.90872990579477386 34.211111111111116 1.4642857142857146 15.036666870117189 0.73911842945759043 165.16666666666671 0.6153846153846162 1.188376843929291 3.1291666666666669 0.8237492743014363 1.072916666666667 16.064000034332278 0.75953406948559132 0.44388857472325266 3.5192307692307696 306.25000000000006 1.0775240384615385 303.16666666666669 258.83333333333343 3.1250000000000004 234.50000000000003 1.0830723352810987 13.86799991130829
decision_type=2 2 2 2 2 2 2 2 2 2 2 2 2 2 2 2 2 2 2 2 2 2 2 2 2 2 2 2 2 2
left_child=2 23 3 -1 -5 6 7 11 9 10 -9 21 -13 15 -15 16 -14 27 19 -18 -21 -3 -23 -2 -7 -20 -27 28 -8 -30
right_child=1 5 -4 4 -6 24 17 8 -10 -11 -12 12 13 14 -16 -17 18 -19 25 20 -22 22 -24 -25 -26 26 -28 -29 29 -31
leaf_value=-0.00047763603173683737 0.0023413759882633502 0.00090837062132067799 -0.0011563925197966255 0.0087935859154141139 0.0001841826089050459 0.01879524432477497 0.0073346337579217628 0.030790801268556846 0.0052075661527804839 0.010641223354773089 0.014797400442116401 0.0015033660292625428 0.0020208244442939758 0.007279050634020851 0.02429285671441786 0.0025358794936362434 0.021190085274477802 -0.00044542012943161861 0.0057465491340710564 0.016983404461389934 0.0054971900291559172 0.0073107947274750349 0.016050617567130498 0.010461876755580307 0.0082284879242932353 0.020794054220120112 0.0076813738775807763 0 0.019669915425777437 0.0087616116258333303
leaf_weight=106 129 40 11824 62 45 41 276 22 38 43 33 24 24 20 30 33 47 26 64 38 40 254 27 31 26 23 42 20 24 52
leaf_count=106 129 40 11824 62 45 41 276 22 38 43 33 24 24 20 30 33 47 26 64 38 40 254 27 31 26 23 42 20 24 52
internal_value=9.17305e-06 0.009051 -0.00109262 0.00238954 0.00530063 0.00965421 0.00934419 0.0101916 0.0139606 0.0171668 0.0218089 0.0094327 0.0111088 0.0117139 0.0179596 0.0106233 0.011535 0.00750528 0.0123833 0.0152767 0.0113638 0.00736308 0.00823996 0.00403204 0.0150231 0.00940679 0.0127175 0.00808748 0.0085207 0.0125469
internal_weight=13504 1467 12037 213 107 1307 1240 842 136 98 55 706 385 361 50 311 278 398 254 125 78 321 281 160 67 129 65 372 352 76
internal_count=13504 1467 12037 213 107 1307 1240 842 136 98 55 706 385 361 50 311 278 398 254 125 78 321 281 160 67 129 65 372 352 76
is_linear=0
shrinkage=0.02


Tree=14
num_leaves=31
num_cat=0
split_feature=27 125 1 41 75 118 12 129 115 3 132 51 115 85 3 40 94 56 95 40 105 75 2 57 132 27 55 2 72 5
split_gain=323.7 6.87102 6.39926 5.36582 5.77423 6.73615 5.24993 6.89276 5.62867 5.20022 7.0474 5.642 4.81707 4.53922 4.41838 4.4125 4.06965 3.60823 6.71951 3.73659 3.42268 3.39368 4.08838 6.0552 5.51952 4.38094 3.49928 4.27898 3.20157 3.15448
threshold=3.4166666666666674 0.50757575757575768 1.8333333333333337 0.53571428571428581 1.600965945792707 1.1731313221372068 282.20000000000005 1.0004922874958979 0.40692640692640697 13.200000429153445 1.7926469397984477 -3.9760819536944223 0.85357142857142865 1.4442233533879345 13.320000267028812 0.77500000000000013 -46.385416666666664 254.94444444444449 1.0000000180025095e-35 2.4642857142857149 0.4399038461538462 1.6568232494208115 22.166666666666668 0.72077922077922085 0.99991760913725425 34.625000000000007 1.6899038461538465 17.833333333333339 0.88542839884758007 130.83333333333334
decision_type=2 2 2 2 2 2 2 2 2 2 2 2 2 2 2 2 2 2 2 2 2 2 2 2 2 2 2 2 2 2
left_child=2 16 14 4 5 6 8 -8 -3 10 11 -10 -7 -13 -1 -16 -2 18 -14 -20 -11 -6 23 26 -24 28 -23 -28 -25 -26
right_child=1 3 -4 -5 21 12 7 -9 9 20 -12 13 17 -15 15 -17 -18 -19 19 -21 -22 22 24 25 29 -27 27 -29 -30 -31
leaf_value=-0.00046817261203427183 0.00013948094654590525 0.015827253649632136 -0.0011332666074561771 0.0015317904868641416 0.019465154090832021 0.0068498682230710983 0.019449288306964768 0.0061488664398590721 0.016676903131107489 0.0046562155225089571 0.02085537846792828 0.0089662936217380015 0.026781228262445202 0 0.00862050584857426 0.00018057903517847476 0.006935371091298017 0.0086115660857070571 0.02044379385917083 0.0094974832827190176 0.010503199714422227 0.0047083969090295878 0.020242323019403093 0.0032828794632639201 0.014681908850158965 0.0012535033489649112 0.017361333324359015 0.0057523883472789415 0.015034391677379608 0.0040697515562728602
leaf_weight=106 46 29 11824 36 28 59 35 35 23 368 21 52 22 36 62 45 210 43 22 52 49 22 46 20 27 51 64 21 24 26
leaf_count=106 46 29 11824 36 28 59 35 35 23 368 21 52 22 36 62 45 210 43 22 52 49 22 46 20 27 51 64 21 24 26
internal_value=9.76346e-06 0.008877 -0.00107074 0.0095227 0.00975751 0.00881306 0.00775843 0.0131202 0.00707027 0.00656158 0.010117 0.0078281 0.012158 0.0052416 0.00234254 0.00519813 0.00575844 0.0142747 0.0165932 0.0131143 0.00539068 0.0121217 0.0113433 0.00947446 0.0149237 0.00552065 0.0128086 0.0147098 0.0101067 0.0098329
internal_weight=13504 1467 12037 1211 1175 846 648 70 578 549 132 111 198 88 213 107 256 139 96 74 417 329 301 202 99 95 107 85 44 53
internal_count=13504 1467 12037 1211 1175 846 648 70 578 549 132 111 198 88 213 107 256 139 96 74 417 329 301 202 99 95 107 85 44 53
is_linear=0
shrinkage=0.02


Tree=15
num_leaves=31
num_cat=0
split_feature=27 116 1 111 105 127 9 13 80 4 98 6 125 94 90 3 132 71 112 131 4 13 106 36 36 40 3 109 111 132
split_gain=311.363 8.976 7.17402 5.14124 6.94971 12.4815 5.65553 5.56584 15.8483 9.28222 6.07589 6.07282 8.81112 5.41384 5.30244 4.51201 4.1355 3.95495 3.7813 4.51667 3.69927 5.2118 4.10286 3.48353 3.90469 3.39048 3.22216 4.04965 3.07703 6.59455
threshold=4.6250000000000009 0.73510204602275631 1.8333333333333337 6.3283748496323833 0.49166666666666675 1.2305143603805406 0.58333333333333337 58.183999633789071 3.7523766842510877 184.50000000000003 -1.1124999999999998 296.83333333333343 0.99342105263157909 -23.031249999999996 14.000250125062532 11.987500000000002 0.55658646370267773 2.0609649880789225 -0.31772464780723708 1.4295350472748847 229.50000000000003 71.944000244140639 -0.99374994309619058 193.90000000000003 140.40000000000003 0.77500000000000013 12.642000341415406 17.025000000000009 1.2709181268389029 0.73911842945759043
decision_type=2 2 2 2 2 2 2 2 2 2 2 2 2 2 2 2 2 2 2 2 2 2 2 2 2 2 2 2 2 2
left_child=2 20 15 4 5 6 14 8 9 -8 -11 13 -13 16 26 -1 -9 -16 19 -6 -2 22 -22 24 -15 -17 -3 -28 -25 -30
right_child=1 3 -4 -5 18 -7 7 11 -10 10 -12 12 -14 23 17 25 -18 -19 -20 -21 21 -23 -24 28 -26 -27 27 -29 29 -31
leaf_value=-0.0008658783263281772 0.00048471400645417223 0.0019570255527893701 -0.0011106031877671941 0.00206885369711144 0.00099845010609853828 0.0008030377144682897 0.0060459899613934179 0.019600987722133766 0.0061935916251462447 0.011145357222933519 0.021879989185929302 0.00642820166853758 0.023980069359143576 0.0042681759595870972 0.0021276525741531736 0.0077225833763814953 0.0084327339902520188 0.0084605418796270676 0.01695113899504266 0.014927546310992468 0.003948177952658046 -0.0015687737720353262 0.014738362837921491 0.0042727223251547135 0.015871855369635989 0.0012328385350419515 0.0092998737482463609 0.019279480603608221 0.0024342921574910482 0.016281361820236328
leaf_weight=94 70 23 11824 42 20 72 30 28 91 37 99 25 26 23 104 72 39 70 81 20 32 20 32 181 34 66 169 21 29 30
leaf_count=94 70 23 11824 42 20 72 30 28 91 37 99 25 26 23 104 72 39 70 81 20 32 20 32 181 34 66 169 21 29 30
internal_value=1.03653e-05 0.00877072 -0.00104162 0.00932096 0.00955442 0.00902584 0.00957418 0.0107317 0.0131735 0.0168799 0.0191352 0.00916748 0.0158576 0.00816185 0.00751597 0.00242099 0.0134667 0.0047663 0.0142987 0.00840112 0.00405243 0.0068672 0.00964086 0.00689039 0.0115164 0.00472193 0.00968269 0.0105504 0.005707 0.00979585
internal_weight=13504 1448 12056 1294 1252 1131 1059 672 257 166 136 415 51 364 387 232 67 174 121 40 154 84 64 297 57 138 213 190 240 59
internal_count=13504 1448 12056 1294 1252 1131 1059 672 257 166 136 415 51 364 387 232 67 174 121 40 154 84 64 297 57 138 213 190 240 59
is_linear=0
shrinkage=0.02


Tree=16
num_leaves=31
num_cat=0
split_feature=27 116 1 111 105 127 68 13 13 111 52 100 80 100 2 116 0 129 130 105 2 57 115 27 115 112 2 40 12 13
split_gain=299.462 9.68703 5.89591 4.89547 6.76005 11.2128 5.7954 14.8835 6.76868 6.56968 6.03836 6.1269 6.33547 5.60206 5.51685 4.92108 4.16496 4.25752 4.10863 3.88375 4.13412 3.84579 3.75019 4.16691 4.13313 3.60696 3.50413 3.53964 3.37704 5.71034
threshold=3.4166666666666674 0.73510204602275631 1.8333333333333337 6.3283748496323833 0.49166666666666675 1.2305143603805406 3.4494949494949503 58.183999633789071 62.366000366210947 1.7258537388467172 -1.4542062263935802 -0.21428571428571422 2.2493713954203369 1.0000000180025095e-35 31.166666666666668 0.89468794245104344 24.366667270660404 0.9663996559324769 0.99972542559033506 -0.42582417582417581 32.500000000000007 0.68990384615384626 1.1970149253731346 35.125000000000007 0.88562091503267981 -0.31772464780723708 3.1666666666666674 0.77500000000000013 233.70000000000002 71.944000244140639
decision_type=2 2 2 2 2 2 2 2 2 2 2 2 2 2 2 2 2 2 2 2 2 2 2 2 2 2 2 2 2 2
left_child=2 28 26 4 5 6 7 10 -9 13 -3 12 -12 15 -13 -10 17 19 -19 -8 22 -17 23 24 -21 -6 -1 -28 -2 -30
right_child=1 3 -4 -5 25 -7 16 8 9 -11 11 14 -14 -15 -16 21 -18 18 -20 20 -22 -23 -24 -25 -26 -27 27 -29 29 -31
leaf_value=-0.0012263095787126725 0.00049951151797645969 0.0072364987805485729 -0.001088393021619093 0.0020284388578215309 0.0082457446034361684 0.001177646627551631 0.0044625601000510733 0.0035653854250907897 0.017987085138929302 0.016134020100379814 0.00061939740464800883 0.021268868715439027 0.016055753120669612 0.0025340153352688931 0.0089558573936422674 0.01125951656273433 0.015527275215302195 0.0028127801807030389 0.007865374164378389 0.01307708251334372 0.0026165392994880678 0.003983464857279244 0.004531255689534274 0.0068180657029151912 0.02574736247008497 0.016616250723600387 0.0067151549236760255 0.00010803936775458061 0.009613148610270213 -0.0016288620978593827
leaf_weight=72 75 39 11824 42 40 75 51 99 28 57 20 102 26 58 23 76 27 137 140 41 21 58 21 24 21 81 83 58 62 23
leaf_count=72 75 39 11824 42 40 75 51 99 28 57 20 102 26 58 23 76 27 137 140 41 21 58 21 24 21 81 83 58 62 23
internal_value=1.08811e-05 0.00853969 -0.00102835 0.0091145 0.00934009 0.0088244 0.00934994 0.0107446 0.0082638 0.00988818 0.0150787 0.0167567 0.00971304 0.008159 0.0191717 0.0100836 0.00761856 0.00709544 0.00542152 0.00958575 0.0114991 0.00823709 0.0131094 0.015013 0.0178679 0.0140214 0.00224732 0.00408766 0.00375465 0.00647135
internal_weight=13504 1467 12037 1307 1265 1144 1069 586 376 277 210 171 46 220 125 162 483 456 277 179 128 134 107 86 62 121 213 141 160 85
internal_count=13504 1467 12037 1307 1265 1144 1069 586 376 277 210 171 46 220 125 162 483 456 277 179 128 134 107 86 62 121 213 141 160 85
is_linear=0
shrinkage=0.02


Tree=17
num_leaves=31
num_cat=0
split_feature=27 116 37 111 35 38 11 48 72 131 29 99 6 91 114 112 5 54 132 111 132 14 100 56 36 106 111 13 6 114
split_gain=288.023 8.28109 5.54164 5.16039 5.23526 4.41341 4.81116 4.4256 7.6638 7.57479 4.15474 3.95041 4.60802 4.52436 3.89545 5.02597 5.00546 8.27415 4.95576 5.41895 4.27443 4.60949 3.96751 3.86435 5.26811 3.73926 3.58808 4.13843 3.33256 3.26196
threshold=4.6250000000000009 0.73510204602275631 0.86607142857142871 6.3283748496323833 1.9375000000000002 50.291666666666679 115.30000000000003 2.4642857142857149 0.41000534407794481 1.2546844073298711 234.41666666666671 -0.047727272727272695 229.50000000000003 -1.3282917280138893 0.95568529584084327 -0.49016579024663021 122.83333333333336 214.75000000000003 1.0000000180025095e-35 0.85589609380279252 1.4524926768826678 190.87500000000003 0.30277777777777776 284.84375000000006 258.18750000000006 -0.33480763269158537 1.849571359654268 58.183999633789071 229.50000000000003 0.98860032504741768
decision_type=2 2 2 2 2 2 2 2 2 2 2 2 2 2 2 2 2 2 2 2 2 2 2 2 2 2 2 2 2 2
left_child=-1 11 3 4 5 6 7 26 29 10 -10 -2 -13 -14 16 -16 -8 25 -17 20 21 -20 -19 24 -6 -18 27 -3 -25 -9
right_child=1 2 -4 -5 23 -7 14 8 9 -11 -12 12 13 -15 15 18 17 22 19 -21 -22 -23 -24 28 -26 -27 -28 -29 -30 -31
leaf_value=-0.001000392585325431 -0.00047093676833006058 0.021212840773621382 0.0068170447620337065 0.0015263023159720682 0.015087312273681165 0.0030104177556139356 0.0039149840088451614 0.01057015714848914 0.012963893612225851 0.023577606265361491 0.0016516896088918051 0.0012331242548922698 0.01707989761362905 0.0047713139653205875 0.0013517496391894327 0.0022220194091399511 0.001074035656452179 0.025825562429428101 0.0044926496062959939 0.016148317273367536 -0.00019618743139764537 0.01528627635911107 0.01143941437914258 0.026024192486490523 0.0045115009778075752 0.013056079393083399 0.0059973637121064332 0.011755695509222838 0.012248590290546417 0.0031592009782791136
leaf_weight=12056 51 48 382 32 55 46 33 40 56 25 20 47 22 34 62 47 24 24 41 43 22 31 20 20 35 21 20 51 22 74
leaf_count=12056 51 48 382 32 55 46 33 40 56 25 20 47 22 34 62 47 24 24 41 43 22 31 20 20 35 21 20 51 22 74
internal_value=1.13656e-05 0.00843701 0.00896578 0.0098464 0.0101355 0.00941771 0.00981846 0.0116526 0.00970816 0.0137906 0.010177 0.00390023 0.00614446 0.00999708 0.00809958 0.00650074 0.0111631 0.0136661 0.00816499 0.0101005 0.00708779 0.00942263 0.0199082 0.0140265 0.0111792 0.00704532 0.0149723 0.0166073 0.0194936 0.0059158
internal_weight=13504 1448 1294 912 880 748 702 334 215 101 76 154 103 56 368 246 122 89 184 137 94 72 44 132 90 45 119 99 42 114
internal_count=13504 1448 1294 912 880 748 702 334 215 101 76 154 103 56 368 246 122 89 184 137 94 72 44 132 90 45 119 99 42 114
is_linear=0
shrinkage=0.02


Tree=18
num_leaves=31
num_cat=0
split_feature=27 35 11 2 5 8 115 31 35 9 80 13 118 5 91 69 118 114 11 118 100 46 11 96 11 11 18 70 52 115
split_gain=277.104 6.63535 5.3146 4.72476 5.16483 6.38682 5.51249 4.72178 5.24395 6.24969 6.76222 7.79757 4.49767 4.04164 4.6395 6.40374 5.73101 4.59901 3.65297 4.092 3.27333 3.26058 3.23308 3.16886 3.05141 4.66653 3.4077 3.41426 4.60988 3.46209
threshold=3.4166666666666674 2.0625000000000004 115.30000000000003 41.500000000000007 124.50000000000001 1.1666666666666667 0.50384615384615394 -6.7173128128051749 1.4642857142857146 0.58333333333333337 3.0000714996423579 55.193999290466316 1.2145707963309187 102.83333333333336 4.2796440443147903 241.43750000000003 1.2496987951807232 1.0529433422443073 143.50000000000003 1.2145707963309187 0.065340909090909102 16.151249855756763 90.500000000000014 8.2333333333333361 153.30000000000004 163.30000000000004 1.2916666666666667 19.75961538461539 -1.241321509083112 0.33684560780834077
decision_type=2 2 2 2 2 2 2 2 2 2 2 2 2 2 2 2 2 2 2 2 2 2 2 2 2 2 2 2 2 2
left_child=-1 2 3 4 6 -6 -2 -8 9 -9 12 -12 23 -4 16 -16 20 -18 19 -3 24 -13 -10 -11 26 -26 -15 28 -28 -30
right_child=1 18 13 -5 5 -7 7 8 22 10 11 21 -14 14 15 -17 17 -19 -20 -21 -22 -23 -24 -25 25 -27 27 -29 29 -31
leaf_value=-0.0009877562504382422 0.0040237712090487009 0.0118645540328436 0.0010196239235145707 0 0.0083874293963114421 0.023474354922771452 0.0034265549510717392 0.0071823193387287425 0.011382326340233838 0.018594861605832742 0.0041857486750398369 0.010639531196969929 0.027931304488863266 0 0.017805902297432358 0.0071262102611362932 0.014568081928624049 0.0045515931397676467 0.005304745237032572 0.022768879573453558 0.0018389021384495278 0.02266977215097064 0.0049002406579776872 0.0073094366987546287 0.017403314157078666 0.0050396359137126383 -0.00044038096612150017 0.0022898028333981834 0.0017340751945972444 0.010758746631234606
leaf_weight=12037 90 92 55 23 29 24 49 81 53 42 48 32 20 45 36 79 53 35 29 21 107 20 102 20 23 34 21 74 24 106
leaf_count=12037 90 92 55 23 29 24 49 81 53 42 48 32 20 45 36 79 53 35 29 21 107 20 102 20 23 34 21 74 24 106
internal_value=1.19029e-05 0.00821618 0.00774351 0.00911861 0.00945368 0.0157126 0.00881311 0.00970418 0.0104063 0.0122002 0.0143274 0.0104185 0.0187908 0.00645989 0.0069116 0.0106803 0.00604338 0.0107925 0.0124718 0.0141607 0.00503484 0.0157957 0.00723955 0.0152869 0.00604132 0.0104149 0.00504607 0.00604683 0.00779506 0.00919494
internal_weight=13504 1467 1325 633 610 53 557 467 418 263 182 100 82 692 637 115 522 88 142 113 434 52 155 62 327 57 270 225 151 130
internal_count=13504 1467 1325 633 610 53 557 467 418 263 182 100 82 692 637 115 522 88 142 113 434 52 155 62 327 57 270 225 151 130
is_linear=0
shrinkage=0.02


Tree=19
num_leaves=31
num_cat=0
split_feature=27 1 35 61 11 51 2 4 126 38 127 128 100 4 134 117 4 57 32 3 4 117 32 71 34 11 100 89 80 80
split_gain=266.573 6.55516 6.17818 4.97813 5.345 5.53281 7.91221 4.72757 4.74545 4.56507 4.66314 5.22275 4.39288 4.27083 7.70429 5.88751 5.36498 7.57579 4.34566 4.20736 4.18644 5.73252 4.15021 3.89505 3.53548 3.49974 3.375 3.20754 3.78371 4.11309
threshold=4.6250000000000009 1.8333333333333337 2.0625000000000004 0.32291666666666669 115.30000000000003 3.8595049306750302 8.1666666666666696 221.16666666666671 0.97639024545959363 50.291666666666679 0.63972789115646267 0.60141843971631215 -0.38636363636363624 215.83333333333334 10.500000000000002 0.79772727272727295 306.16666666666669 0.32291666666666669 -0.37343657016754145 11.987500000000002 237.83333333333334 0.62132352941176483 0.68610784225165855 -2.4797431956976648 229.18750000000003 143.50000000000003 -0.18019480519480519 196.00107384305088 2.899699849926336 1.9127806021531393
decision_type=2 2 2 2 2 2 2 2 2 2 2 2 2 2 2 2 2 2 2 2 2 2 2 2 2 2 2 2 2 2
left_child=1 19 3 4 9 7 -7 27 23 10 -2 -12 22 14 15 18 17 -15 -14 -1 21 -8 -13 -9 -17 -4 -19 -6 29 -29
right_child=2 -3 25 -5 5 6 20 8 -10 -11 11 12 13 16 -16 24 -18 26 -20 -21 -22 -23 -24 -25 -26 -27 -28 28 -30 -31
leaf_value=-0.00082198794578251095 0 -0.0010268673812612167 0.013885308373392673 0.0010630881877578035 0.00088799914847249568 -0.00075651181595666071 0.0089772192537784581 0.0096479027205043366 0.010090305915900639 0.0011331122517585755 0.016625004494190215 0.0010346178194651236 0.018041110876060668 0.017650820955082223 0.0012750095129013062 0.024736584552696776 0.015970209531093901 0.012786204389163428 0.0059047428573050153 0.0045709337787233672 0.0060528159785915069 0.021002138186442223 0.0098592985475935598 0.0023307556322976655 0.012107983710973158 0.0052021867434183756 0.0049147258779924851 0.0031532985717058182 0.0023266971152122707 0.014572526793326102
leaf_weight=94 21 11824 113 48 114 20 39 44 139 29 49 51 20 26 20 34 37 27 40 138 36 37 40 101 22 29 183 27 72 30
leaf_count=94 21 11824 113 48 114 20 39 44 139 29 49 51 20 26 20 34 37 27 40 138 36 37 40 101 22 29 183 27 72 30
internal_value=1.24389e-05 -0.000960889 0.0081183 0.0076545 0.00789701 0.00657846 0.0103401 0.00559952 0.00738434 0.0093176 0.00971377 0.0100673 0.00937284 0.0102872 0.0133722 0.0153438 0.00867067 0.0074215 0.0103436 0.0023488 0.0123993 0.0151581 0.0050873 0.0046705 0.0202502 0.0122307 0.00602997 0.00345086 0.00561454 0.00948346
internal_weight=13504 12056 1448 1306 1258 659 132 527 284 599 570 549 500 409 136 116 273 236 60 232 112 76 91 145 56 142 210 243 129 57
internal_count=13504 12056 1448 1306 1258 659 132 527 284 599 570 549 500 409 136 116 273 236 60 232 112 76 91 145 56 142 210 243 129 57
is_linear=0
shrinkage=0.02


Tree=20
num_leaves=31
num_cat=0
split_feature=27 116 1 11 51 2 2 130 27 30 9 115 52 36 120 60 79 59 18 99 6 91 130 116 98 112 2 98 125 32
split_gain=256.406 7.64767 6.2945 4.6414 6.30615 5.76639 4.52108 4.34336 4.24587 6.97445 7.28115 4.33935 6.16623 4.23537 4.82279 4.06817 5.25357 4.08085 4.06252 3.77985 4.39062 4.37668 3.76991 4.689 4.60796 3.33514 3.33273 3.09774 3.07818 3.06135
threshold=4.6250000000000009 0.73510204602275631 1.8333333333333337 115.50000000000001 3.8595049306750302 7.166666666666667 41.500000000000007 1.3813566548207155 34.416666666666679 14.125000000000002 0.41666666666666669 0.72850122850122856 0.40276569959574521 315.00000000000006 1.1063760336573336 9.1937500000000014 0.37595910424167167 0.22649572649572652 11.125000000000002 -0.047727272727272695 229.50000000000003 -1.3282917280138893 1.3813566548207155 1.1067476167631398 -2.9354166666666663 -0.31772464780723708 3.1666666666666674 0.5590277777777779 0.79795918367346952 -1.8616005678971608
decision_type=2 2 2 2 2 2 2 2 2 2 2 2 2 2 2 2 2 2 2 2 2 2 2 2 2 2 2 2 2 2
left_child=2 19 26 6 7 -6 8 29 9 10 28 -11 -13 14 25 16 17 -14 -9 -2 -21 -22 23 24 -7 -10 -1 -27 -3 -5
right_child=1 3 -4 4 5 22 -8 18 13 11 -12 12 15 -15 -16 -17 -18 -19 -20 20 21 -23 -24 -25 -26 27 -28 -29 -30 -31
leaf_value=-0.00115555162401232 -0.00067245879712013099 0.0035076695432265598 -0.0010063317434480276 0 0.0011482800819255688 0.0033073558684053096 0.00075896106958389274 0.0030350426265171597 -0.0010829095840454103 0.002644521517956511 0.016742651694587298 0.0027341401812277346 0.016431824553012848 0.014636624427512289 0.011482153422427628 0.0050967052578926092 0.023046015810507994 0.0039473472595214845 0.015037923875527505 0.0010104237000147503 0.016512127570483998 0.0044285017081669396 0.0040091110931502454 0.02126483735111025 0.013346762166303747 0.0035564352282219463 0.0039164954312839858 0.012214188885688782 0.012514584826098548 0.0057068125962581985
leaf_weight=72 51 35 11824 41 26 28 24 20 34 46 139 37 24 31 52 26 25 24 38 47 22 34 26 26 84 71 160 24 35 378
leaf_count=72 51 35 11824 41 26 28 24 20 34 46 139 37 24 31 52 26 25 24 38 47 22 34 26 26 84 71 160 24 35 378
internal_value=1.2905e-05 0.0079627 -0.000941666 0.00847077 0.00722302 0.0103863 0.00976858 0.005923 0.0101088 0.0114165 0.0140037 0.00833047 0.0101473 0.00760771 0.00627511 0.0127629 0.0152524 0.0106016 0.0111901 0.00360199 0.00580074 0.00955748 0.0117745 0.0131262 0.0109769 0.00402705 0.00230129 0.00595227 0.00826481 0.00514518
internal_weight=13504 1448 12056 1294 667 190 627 477 603 391 209 182 136 212 181 99 73 48 58 154 103 56 164 138 112 129 232 95 70 419
internal_count=13504 1448 12056 1294 667 190 627 477 603 391 209 182 136 212 181 99 73 48 58 154 103 56 164 138 112 129 232 95 70 419
is_linear=0
shrinkage=0.02


Tree=21
num_leaves=31
num_cat=0
split_feature=27 116 37 115 19 111 75 118 117 132 48 109 125 36 99 6 91 81 7 3 100 48 97 3 3 7 56 72 10 79
split_gain=246.591 7.34322 5.30358 5.53096 5.02198 4.89219 5.24192 4.87356 8.19068 5.50497 4.93282 4.74983 4.78999 4.70134 3.64303 4.22198 4.20302 3.62432 3.32171 6.09182 5.58827 3.81985 3.18172 3.04579 3.37296 2.98245 2.95148 2.93547 2.90736 2.73692
threshold=4.6250000000000009 0.73510204602275631 0.86607142857142871 0.90803382663847787 0.58333333333333337 6.3283748496323833 1.600965945792707 1.1773419613111968 1.6306818181818183 1.7224850067995439 2.4642857142857149 0.46875000000000006 1.6143790849673205 289.18750000000006 -0.047727272727272695 229.50000000000003 -1.3282917280138893 0.21089282149925545 51.253332773844413 13.200000429153445 1.0000000180025095e-35 3.3541666666666674 0.050000000000000024 13.200000429153445 18.282000207901003 63.743332544962577 239.18750000000003 -0.56986577808856953 285.10000000000008 0.1901015907001625
decision_type=2 2 2 2 2 2 2 2 2 2 2 2 2 2 2 2 2 2 2 2 2 2 2 2 2 2 2 2 2 2
left_child=-1 14 5 4 -4 6 7 8 11 10 -9 18 22 -5 -2 -16 -17 29 21 -20 25 -3 23 -13 -25 -21 -11 -12 -27 -8
right_child=1 2 3 13 -6 -7 17 9 -10 26 27 12 -14 -15 15 16 -18 -19 19 20 -22 -23 -24 24 -26 28 -28 -29 -30 -31
leaf_value=-0.00092283021743626628 -0.00065926824911282614 0.0082669917990763984 0.0020291555142090993 0.006108424001031643 0.012064094183345635 0.0010861451969002233 0.015195266341599893 0.021947109818458561 0.018720472924984421 0 0.0039412240954962647 0.011995627040212804 0.013153069818561727 0.012855861646788461 0.00099063624317447343 0.016196243387201558 0.0043424624204635625 0.0042257187724113465 0.017491141301062371 0.012889572212824952 0.000943203590810299 -0.0013739065187317984 -0.00026856509639936333 0 0.0086378897469619222 0.0045445697435310909 0.009477434534775583 0.013751983365842275 0.013506703932176938 0.0089019626272576185
leaf_weight=12056 51 35 152 138 23 32 126 29 25 20 21 21 21 69 47 22 34 24 35 73 39 27 67 52 28 69 37 55 21 55
leaf_count=12056 51 35 152 138 23 32 126 29 25 20 21 21 21 69 47 22 34 24 35 73 39 27 67 52 28 69 37 55 21 55
internal_value=1.32781e-05 0.00780944 0.00830743 0.00621144 0.0034659 0.00916663 0.00944755 0.00851974 0.0074791 0.0116876 0.0144833 0.00684566 0.00422042 0.00845664 0.00353399 0.00569279 0.00937719 0.0123978 0.00845216 0.00956515 0.00806317 0.00395464 0.00297344 0.00520367 0.00317124 0.00968961 0.00620433 0.0112574 0.00687107 0.0133973
internal_weight=13504 1448 1294 382 175 912 880 675 513 162 105 488 189 207 154 103 56 205 299 237 202 62 168 101 80 163 57 76 90 181
internal_count=13504 1448 1294 382 175 912 880 675 513 162 105 488 189 207 154 103 56 205 299 237 202 62 168 101 80 163 57 76 90 181
is_linear=0
shrinkage=0.02


Tree=22
num_leaves=31
num_cat=0
split_feature=16 1 35 116 41 77 112 114 116 116 32 115 131 35 77 131 31 132 3 130 94 29 6 94 26 6 91 111 51 31
split_gain=237.131 7.14273 5.54935 5.58878 4.41592 4.50097 5.61666 5.78251 7.85683 4.62258 4.44775 4.38477 4.36152 4.34298 4.33048 4.31834 8.16201 4.19131 4.19027 4.48688 3.60926 3.4287 3.38135 3.37417 3.32657 3.14063 4.91642 3.07953 2.92639 5.46205
threshold=49.750000000000007 1.8333333333333337 2.0625000000000004 0.73510204602275631 0.53571428571428581 0.66668534131320045 0.90872990579477386 0.98115652598411229 0.96884344865851091 0.8436576732517147 -1.028895007446408 0.85357142857142865 1.2094510865249484 1.4642857142857146 0.33287440988037392 1.8312109500610745 1.3504865982880199 1.0526960049785459 11.880000019073487 0.61786379427670945 -9.6562499999999982 305.95833333333343 254.83333333333334 -9.2211538461538378 15.872499972581865 229.50000000000003 -1.3282917280138893 -2.6119522345917559 6.528563457408123 5.281919240951539
decision_type=2 2 2 2 2 2 2 2 2 2 2 2 2 2 2 2 2 2 2 2 2 2 2 2 2 2 2 2 2 2
left_child=1 18 3 25 5 6 7 8 10 12 -5 23 -7 27 22 16 -13 -10 -1 -20 -12 -4 24 -11 -9 -2 -27 -8 29 -16
right_child=2 -3 21 4 -6 9 13 14 17 11 20 15 -14 -15 28 -17 -18 -19 19 -21 -22 -23 -24 -25 -26 26 -28 -29 -30 -31
leaf_value=-0.00085734184908991054 0 -0.0009677518026080243 0.013600389151346115 0.014529428726860456 0 0.0069188161322048733 0.0086693911467279703 0.0021340660750865936 0.021275725200772286 0.0064620484431068617 0.0013287157170912801 0.006672997583113416 0.019465749345042489 0.007650352113303685 0.0042165060376419738 0.0021911317615185754 0.016671684814053914 0.0092180245083111987 -0.0015308547255239988 0.0061593062809062382 0.011091244208316009 0.0057865658937356415 0.016723775448543685 0.00083323379357655837 0.013066691539504311 0.01198362632188946 0.00092193321177833965 0.019935193632511384 -0.00015410750227815966 0.012470781463523244
leaf_weight=95 65 11824 104 27 28 34 20 29 39 76 50 190 21 41 169 58 42 25 37 125 23 38 27 107 21 31 37 46 33 42
leaf_count=95 65 11824 104 27 28 34 20 29 39 76 50 190 21 41 169 58 42 25 37 125 23 38 27 107 21 31 37 46 33 42
internal_value=1.36732e-05 -0.000895387 0.00773366 0.00728472 0.00774162 0.00793759 0.00918949 0.00818733 0.0113423 0.00650033 0.00753246 0.00579804 0.0121501 0.0135215 0.00651418 0.00735636 0.00858981 0.0169338 0.00238603 0.00434295 0.00464803 0.0116344 0.0107661 0.00324765 0.00708802 0.00323797 0.00621028 0.0168509 0.0050931 0.00595778
internal_weight=13504 12081 1423 1281 1148 1120 592 485 164 528 100 473 55 107 321 290 232 64 257 162 73 142 77 183 50 133 68 66 244 211
internal_count=13504 12081 1423 1281 1148 1120 592 485 164 528 100 473 55 107 321 290 232 64 257 162 73 142 77 183 50 133 68 66 244 211
is_linear=0
shrinkage=0.02


Tree=23
num_leaves=31
num_cat=0
split_feature=47 127 1 11 69 76 4 125 31 120 95 105 87 51 80 127 18 49 75 108 4 132 108 75 15 17 71 46 35 11
split_gain=226.106 6.29342 5.99173 5.27012 5.3169 6.04481 5.00991 4.91761 5.35026 4.83141 4.40438 6.38209 4.23561 4.14809 4.6637 3.97201 3.96598 3.34366 5.79154 4.99413 4.83738 4.4337 3.30485 4.72734 4.77504 4.14607 4.51393 4.6824 3.64523 3.56046
threshold=4.8000000000000007 0.63972789115646267 1.8333333333333337 113.22500000000001 197.96875000000003 194.28058755035457 223.16666666666671 1.5065789473684212 1.8469444215297701 0.60141843971631215 0.73214285714285732 0.5590277777777779 29.306403138313147 -3.9760819536944223 3.0896789885294287 1.2389763406192216 1.2916666666666667 172.06250000000003 0.80114992271075058 -0.38636363636363624 307.50000000000006 0.89439156865847547 -1.0000000180025095e-35 1.5946174516778731 1.4166666666666667 0.87500000000000011 2.2817753716593701 13.662499997764828 1.6904761904761907 100.7
decision_type=2 2 2 2 2 2 2 2 2 2 2 2 2 2 2 2 2 2 2 2 2 2 2 2 2 2 2 2 2 2
left_child=2 -2 -1 7 6 -6 -5 9 -9 -3 11 13 -8 14 -7 17 -15 21 -19 -20 22 -11 28 24 25 26 27 -24 -21 -25
right_child=1 3 -4 4 5 10 12 8 -10 15 -12 -13 -14 16 -16 -17 -18 18 19 20 -22 -23 23 29 -26 -27 -28 -29 -30 -31
leaf_value=0.002378400293727444 0.0012971117876578067 0.014683390124788824 -0.00094839839424945842 0.0010295536072273564 0.016954831789279808 0.019892166514288295 0.0085862712934613224 0.023674028430666242 0.0079794639867285019 0.020080498966077963 -0.00034314765461853573 0.018017906385163467 -0.00019628952328975383 0 0.0059302521347999572 0.00038124875227610273 0.0069150942361388603 0.00076595774110482676 0.0035753497213889393 0.016793906755745412 0.018345219584611744 0.0088694212475761043 0.0065656352812244051 0.014586546633106013 -0.00086891729098099936 0 0.00089448670546213793 0.019537151654561359 0.0050939626353127621 0.0049328486919403072
leaf_weight=218 68 52 11824 122 28 21 103 20 22 23 27 23 25 38 24 29 352 48 77 39 25 60 30 51 38 25 20 23 20 29
leaf_count=218 68 52 11824 122 28 21 103 20 22 23 27 23 25 38 24 29 352 48 77 39 25 60 30 51 38 25 20 23 20 29
internal_value=1.40498e-05 0.00743929 -0.000887149 0.0077306 0.00654484 0.00773493 0.00404185 0.00913596 0.0160624 0.00859872 0.00714828 0.00761149 0.00680518 0.00699826 0.012954 0.00796473 0.00625411 0.0083764 0.00756014 0.00839441 0.00958209 0.0122972 0.00868563 0.00736638 0.00490524 0.00723137 0.00961095 0.0126375 0.0131455 0.0113146
internal_weight=13504 1462 12042 1394 763 513 250 631 42 589 485 458 128 435 45 537 390 508 425 377 300 83 275 216 136 98 73 53 59 80
internal_count=13504 1462 12042 1394 763 513 250 631 42 589 485 458 128 435 45 537 390 508 425 377 300 83 275 216 136 98 73 53 59 80
is_linear=0
shrinkage=0.02


Tree=24
num_leaves=31
num_cat=0
split_feature=27 118 36 8 128 131 5 71 132 12 13 7 117 57 54 56 91 5 132 2 4 36 12 5 34 37 65 3 96 95
split_gain=219.499 5.48284 6.60898 6.37317 6.4866 5.569 5.22281 5.61709 8.76774 8.57835 6.55128 5.56965 5.5663 4.99542 4.50302 8.06262 6.5611 5.27221 3.83967 4.50557 5.31102 3.7737 5.37108 4.13309 4.26813 9.26148 4.18086 3.56771 3.54836 4.65202
threshold=3.4166666666666674 1.1731313221372068 315.00000000000006 1.4166666666666667 0.93347164591977883 -0.54773729421225925 99.166666666666671 -5.6393585979938496 0.55658646370267773 282.20000000000005 61.607999038696299 47.463333765665695 1.0317540322580647 0.82575757575757591 195.12500000000003 199.50000000000003 -2.9888000109605715 130.83333333333334 2.2669260774671547 14.16666666666667 201.83333333333334 228.61250000000004 189.70000000000002 112.50000000000001 255.37500000000003 0.61250000000000016 1.7416666666666669 14.157999897003176 6.4687500000000009 -0.14642857142857135
decision_type=2 2 2 2 2 2 2 2 2 2 2 2 2 2 2 2 2 2 2 2 2 2 2 2 2 2 2 2 2 2
left_child=-1 2 5 4 -4 -2 7 -7 -9 10 12 -8 -10 18 28 -16 17 -17 19 27 -21 -18 -23 -24 25 -25 -27 -3 29 -13
right_child=1 13 3 -5 -6 6 11 8 9 -11 -12 14 -14 -15 15 16 21 -19 -20 20 -22 22 23 24 -26 26 -28 -29 -30 -31
leaf_value=-0.00087518278685152215 0.0021745495723955559 0.013425365571052797 0.022890819966793062 0.005187408945390156 0.0082381494497430745 0.0011170091203280858 -0.00059658998250961307 0.0048764710613850796 0.010625152607612751 0.024328405237197877 0.0039257378266616301 -0.00050645557845511091 0.023582305070899784 0.003931875277649273 0.019135142217079799 0.0053387849981134583 0.0012988527204309192 0.019886959879486649 0.0056496330809134698 0.005820236263366846 0.01719722748116443 0.01681608177366711 0.00063630335173516905 0.019580996314684549 0.0035060375732810871 0.0004421716673033578 0.011030338883399963 0.0039480888247489928 -0.00034200125506946016 0.0069738397314831925
leaf_weight=12037 131 30 29 41 28 34 49 88 67 24 43 40 20 54 23 21 69 26 51 25 94 20 52 29 75 34 29 44 55 142
leaf_count=12037 131 30 29 41 28 34 49 88 67 24 43 40 20 54 23 21 69 26 51 25 94 20 52 29 75 34 29 44 55 142
internal_value=1.44418e-05 0.00731641 0.00665944 0.0117525 0.0161316 0.00617354 0.00671732 0.00910391 0.0101757 0.0130883 0.010767 0.00569807 0.0139516 0.00982925 0.00621598 0.00760343 0.00677657 0.0138417 0.0110722 0.0124171 0.0149589 0.00562478 0.0068214 0.0057909 0.00732306 0.0102561 0.00556853 0.00805134 0.00393841 0.00528139
internal_weight=13504 1467 1169 98 57 1071 940 276 242 154 130 664 87 298 615 378 355 47 244 193 119 308 239 219 167 92 63 74 237 182
internal_count=13504 1467 1169 98 57 1071 940 276 242 154 130 664 87 298 615 378 355 47 244 193 119 308 239 219 167 92 63 74 237 182
is_linear=0
shrinkage=0.02


Tree=25
num_leaves=31
num_cat=0
split_feature=87 116 1 3 111 105 107 134 79 129 9 29 132 11 5 12 51 125 9 112 38 58 3 134 4 131 126 116 28 50
split_gain=208.738 8.84449 5.08502 4.65361 4.29713 5.90608 4.53276 5.37556 6.31194 5.16088 5.10772 4.46862 3.77765 3.65058 4.51957 4.26755 4.13966 3.45017 3.29247 4.93109 3.52313 4.63968 3.24477 3.19326 4.56256 3.08205 3.1274 2.86908 2.69828 2.56402
threshold=3.3318327221112041 0.73510204602275631 1.8333333333333337 13.320000267028812 6.3283748496323833 0.49166666666666675 0.052777777777778569 10.500000000000002 0.079300709492251417 1.0370388429725292 0.58333333333333337 244.87500000000003 0.56650481608571768 115.30000000000003 125.50000000000001 227.50000000000003 -2.5744282262665883 1.0775240384615385 0.83333333333333337 0.44272043644672349 19.645833333333339 8.2583333333333346 12.759999990463259 10.500000000000002 279.16666666666669 2.6207194883560585 0.88971889132860993 1.0980175255943088 0.70833333333333337 10.937500000000002
decision_type=2 2 2 2 2 2 2 2 2 2 2 2 2 2 2 2 2 2 2 2 2 2 2 2 2 2 2 2 2 2
left_child=2 17 3 -1 5 6 10 8 9 11 25 -8 -11 15 -15 22 -17 -2 20 -20 21 -7 -12 24 -18 26 -3 -9 -5 -16
right_child=1 4 -4 28 -6 18 7 27 -10 12 13 -13 -14 14 29 16 23 -19 19 -21 -22 -23 -24 -25 -26 -27 -28 -29 -30 -31
leaf_value=-0.00058780120941353783 0.0014314569842895405 0.0011275698151439429 -0.00091192984386932025 0.0079209195716040473 0.0010632505804993384 0.011463404266998685 0.020888652364412945 0.0040359008258039307 0.0048029398924574768 0.00010754801608898023 0.010527749754661737 0.0078399178504943851 0.010580905709947859 0.0035348939820180965 0.0063481608477991011 0.0037459017465943877 0.0050479022241555725 0.008833411419764162 0.0008183903648303105 0.013759704621938557 0.0070064117556268525 0.025527967162754225 0.019773497006227804 0.018017192670592555 0.015868727597925399 0.012979847550392151 0.0065960522655284775 -0.0032187030826296126 0.00049890790792072519 0.01228657382229964
leaf_weight=101 148 63 11824 62 42 28 29 54 231 26 42 24 34 78 66 45 51 31 25 25 21 22 42 26 26 24 164 34 33 83
leaf_count=101 148 63 11824 62 42 28 29 54 231 26 42 24 34 78 66 45 51 31 25 25 21 22 42 26 26 24 164 34 33 83
internal_value=1.48626e-05 0.00708974 -0.000858293 0.00231485 0.00766639 0.00787705 0.00739618 0.00568013 0.0068121 0.0107534 0.00841679 0.0154196 0.00628255 0.00971594 0.00770463 0.0115995 0.00925988 0.00281087 0.0122357 0.00762805 0.0151906 0.0182271 0.0154465 0.0115136 0.00898649 0.00597226 0.00513383 0.00111595 0.00547897 0.00978266
internal_weight=13504 1484 12020 196 1305 1263 1142 432 344 113 710 53 60 459 227 232 148 179 121 50 71 50 84 103 77 251 227 88 95 149
internal_count=13504 1484 12020 196 1305 1263 1142 432 344 113 710 53 60 459 227 232 148 179 121 50 71 50 84 103 77 251 227 88 95 149
is_linear=0
shrinkage=0.02


Tree=26
num_leaves=31
num_cat=0
split_feature=16 35 41 77 75 112 4 35 68 51 2 26 74 94 38 39 108 71 85 134 7 106 14 10 105 4 127 111 130 72
split_gain=203.255 5.15041 4.42592 4.84774 4.99474 4.74823 5.18841 4.82003 4.32514 5.99922 5.9774 4.62023 4.2284 5.37823 4.7438 4.01009 3.42082 3.34895 3.29095 3.4744 3.28105 3.25986 3.24566 3.19906 3.3894 3.12621 3.0743 3.06624 2.95164 3.30177
threshold=49.750000000000007 2.0625000000000004 0.53571428571428581 0.66668534131320045 1.813119921365834 0.89391651375418801 279.16666666666669 1.4642857142857146 3.3875000000000006 -1.8030520398169754 7.166666666666667 8.5999997655550668 211.02701632271649 -41.343749999999993 33.208333333333336 0.58571428571428574 0.71825396825396848 5.0370578661561023 1.1246244997191728 17.500000000000004 61.103334108988456 -0.86499993950128551 240.87500000000003 257.90000000000003 0.10714285714285719 213.50000000000003 0.9988004062815613 1.1650002504743286 0.83344939647168081 -0.48754827678203577
decision_type=2 2 2 2 2 2 2 2 2 2 2 2 2 2 2 2 2 2 2 2 2 2 2 2 2 2 2 2 2 2
left_child=26 2 3 4 5 6 8 -7 9 11 -11 -2 15 -14 18 28 17 21 22 23 -3 -12 -15 -20 -25 -23 -1 -8 -5 -30
right_child=1 20 -4 12 -6 7 27 -9 -10 10 16 -13 13 14 -16 -17 -18 -19 19 -21 -22 25 -24 24 -26 -27 -28 -29 29 -31
leaf_value=-0.00085176722084999478 0.0070625869700541863 0.01460608548588223 -0.00042395101860165596 -8.2628507363168811e-06 0.016243909746408464 0.014673698101494763 0.0087432982921600341 0.0051202371167509177 0.003648512300305766 -0.0017012243252247572 0.0016356537130571181 0.020554054653644564 0.015913428609017972 0.017664773567863133 -0.0027516303885550724 0.011598356716010883 0.014618358887158907 0 0.0082187471412262826 -0.00082841923603644749 0.0077889679096363211 0.014151935027195858 0.0052841793781235108 -0.00032988609208001028 0.0092340718280701402 0.0054239260015033547 0.0032383920701399243 0.018998414221264068 0.01036286796292951 0.0026771152344616978
leaf_weight=12009 25 62 31 94 31 73 54 37 202 31 30 24 26 22 20 22 25 29 158 25 80 38 20 44 20 41 72 20 30 109
leaf_count=12009 25 62 31 94 31 73 54 37 202 31 30 24 26 22 20 22 25 29 158 25 80 38 20 44 20 41 72 20 30 109
internal_value=1.52728e-05 0.00716263 0.00673049 0.00691611 0.00813449 0.0076938 0.00682052 0.0116254 0.00593458 0.00777122 0.00604461 0.0141496 0.0055248 0.00703407 0.00620576 0.00348324 0.00758011 0.00613712 0.00686748 0.00586416 0.0109167 0.00773123 0.0122618 0.00666301 0.00260109 0.00987163 -0.000826297 0.0118646 0.00262798 0.00446951
internal_weight=13504 1423 1281 1250 660 629 519 110 445 243 194 49 590 335 309 255 163 138 289 247 142 109 42 222 64 79 12081 74 233 139
internal_count=13504 1423 1281 1250 660 629 519 110 445 243 194 49 590 335 309 255 163 138 289 247 142 109 42 222 64 79 12081 74 233 139
is_linear=0
shrinkage=0.02


Tree=27
num_leaves=31
num_cat=0
split_feature=27 116 1 37 111 35 76 80 98 130 114 94 126 32 30 117 11 96 87 76 11 118 99 4 9 111 7 2 37 39
split_gain=195.464 6.14795 5.22077 4.90292 4.41237 4.24038 4.33275 4.2212 6.31269 7.2995 9.87512 5.43669 4.11184 4.0634 6.22076 3.82425 3.81326 3.66108 3.50117 3.40565 3.5106 5.52403 3.38797 3.93048 4.18565 3.23566 3.1235 2.97004 2.91425 3.31866
threshold=4.6250000000000009 0.73510204602275631 1.8333333333333337 0.86607142857142871 6.3283748496323833 1.9375000000000002 289.3558272500498 3.0000714996423579 -2.6180555555555549 1.2147389695698281 1.121746650754428 17.137500000000006 1.0866204424553192 0.27541022095829254 39.583333333333336 0.90312500000000007 129.10000000000002 48.85096153846154 37.500166748567182 278.86044828525888 115.30000000000003 0.65636927480916041 -0.047727272727272695 229.50000000000003 0.83333333333333337 0.42776621722926694 62.880000432332359 3.1666666666666674 0.58571428571428574 0.13392857142857145
decision_type=2 2 2 2 2 2 2 2 2 2 2 2 2 2 2 2 2 2 2 2 2 2 2 2 2 2 2 2 2 2
left_child=2 22 27 4 5 7 -7 8 -3 11 -11 18 -5 25 15 -15 -14 -12 19 20 21 -10 -2 -24 -25 28 -22 -1 29 -9
right_child=1 3 -4 12 -6 6 -8 13 9 10 17 -13 16 14 -16 -17 -18 -19 -20 -21 26 -23 23 24 -26 -27 -28 -29 -30 -31
leaf_value=-0.0011231099803970285 -0.0010030980551472078 0.019734797477722169 -0.00087677647596811888 0.0042152995110355494 0.00057827744520071774 0.0098860907609815956 0.019928740859031676 0.0051319555141205011 0.0051720386826329756 0.023230756944225682 0.0012562460355136707 0 0.012104400103209449 0.012782055934270222 0.0033383447594112822 0.0056317362676967277 0.0020365092992782594 0.013571342613015855 0.016299151710488579 0.00036770396191498331 0.00072668460011482232 0.016817075416445733 0.00060103706394632665 0.0033496403332912562 0.014958803868293763 0.00042032387894643864 0.0090131593719124797 0.0036610857471360927 0.0016496804498490833 0.015710885993071966
leaf_weight=72 51 24 11824 298 32 107 25 42 35 30 22 40 60 104 80 54 24 20 21 28 39 39 47 32 24 70 39 160 41 20
leaf_count=72 51 24 11824 298 32 107 25 42 35 30 22 40 60 104 80 54 24 20 21 28 39 39 47 32 24 70 39 160 41 20
internal_value=1.55349e-05 0.00695668 -0.000817818 0.00741238 0.0082359 0.00850204 0.0119988 0.00785641 0.00959305 0.00872319 0.014439 0.00692164 0.0054038 0.00638835 0.00812664 0.010452 0.00940331 0.00753237 0.00825601 0.00717753 0.00835601 0.011585 0.00303998 0.00512844 0.00867558 0.00390651 0.00505815 0.00213497 0.00615278 0.00889846
internal_weight=13504 1448 12056 1294 912 880 132 748 337 313 72 241 382 411 238 158 84 42 201 180 152 74 154 103 56 173 78 232 103 62
internal_count=13504 1448 12056 1294 912 880 132 748 337 313 72 241 382 411 238 158 84 42 201 180 152 74 154 103 56 173 78 232 103 62
is_linear=0
shrinkage=0.02


Tree=28
num_leaves=31
num_cat=0
split_feature=16 1 35 116 17 108 38 112 39 2 125 65 18 112 32 94 3 108 46 46 3 130 32 32 13 14 54 117 134 34
split_gain=188.101 5.85498 4.81395 4.67732 4.04646 5.00681 6.84704 8.11821 4.1845 4.01172 4.46713 5.88419 4.43008 5.4551 4.17309 3.90827 7.98962 3.75549 3.7262 4.51735 3.71029 4.18544 3.41387 3.38784 3.35148 4.26466 3.8901 4.23182 3.3195 3.45577
threshold=49.750000000000007 1.8333333333333337 2.0625000000000004 0.73510204602275631 0.87500000000000011 1.2403846153846156 39.062500000000007 0.90872990579477386 0.13392857142857145 39.166666666666679 1.409406565656566 1.7817460317460319 15.875000000000002 0.35358602423351132 -1.9428005100538333 -16.491477272727263 17.160000038146975 1.072916666666667 15.428749918937685 17.253749728202823 11.880000019073487 0.61786379427670945 0.4759189877659083 1.2668046653270724 70.183999633789071 303.16666666666669 248.84375000000003 0.73746867167919816 24.500000000000004 262.64583333333343
decision_type=2 2 2 2 2 2 2 2 2 2 2 2 2 2 2 2 2 2 2 2 2 2 2 2 2 2 2 2 2 2
left_child=1 20 3 -2 5 6 7 9 -7 10 11 12 13 14 -5 -13 -17 28 -9 -20 -1 -22 -14 -8 25 26 -4 -28 29 -6
right_child=2 -3 24 4 17 8 23 18 -10 -11 -12 15 22 -15 -16 16 -18 -19 19 -21 21 -23 -24 -25 -26 -27 27 -29 -30 -31
leaf_value=-0.00087129751453176143 0.0027662256949428305 -0.00085924242051282852 0.0066063269324924635 0.0034787862234645418 0.0073632763386253389 0.0063531145453453062 0.0072529637429022019 0.018913037424024785 0.019561503678560258 0.00079635180706201601 0.0014944026827812195 0.005602132013210883 0 0.00098317324351041751 0.010787132390153904 0.023035653065890074 0.006995995298579887 -0.0020596265907470994 0.0035807805260022478 0.015814672410488128 -0.0016490570063653746 0.0057763564007149801 0.0071263967702786127 -0.00080750395685939467 0.0046094368519009775 0.005056465268135071 0.0098425968239704772 0.022863701870947172 -0.00012360248933820163 0.0020124835164650628
leaf_weight=95 133 11824 22 44 247 21 30 37 27 42 49 25 55 38 191 31 26 25 29 25 37 125 47 58 36 29 23 32 33 68
leaf_count=95 133 11824 22 44 247 21 30 37 27 42 49 25 55 38 191 31 26 25 29 25 37 125 47 58 36 29 23 32 33 68
internal_value=1.59002e-05 -0.000793662 0.00689169 0.00647336 0.00689136 0.0077461 0.007285 0.00800982 0.0142345 0.00702911 0.00752414 0.00814415 0.00699024 0.00834313 0.00948167 0.0131529 0.0161385 0.00507273 0.0136663 0.009611 0.0021764 0.00401937 0.00322634 0.00187864 0.0105239 0.0123772 0.014906 0.0178701 0.0056182 0.00624985
internal_weight=13504 12081 1423 1281 1148 775 727 639 48 548 506 457 375 273 235 82 57 373 91 54 257 162 102 88 142 106 77 55 348 315
internal_count=13504 12081 1423 1281 1148 775 727 639 48 548 506 457 375 273 235 82 57 373 91 54 257 162 102 88 142 106 77 55 348 315
is_linear=0
shrinkage=0.02


Tree=29
num_leaves=31
num_cat=0
split_feature=16 11 51 132 108 125 6 74 131 40 0 10 13 6 0 52 6 6 126 114 9 71 52 111 115 126 112 31 114 125
split_gain=180.902 5.09957 5.13468 5.66422 4.66525 6.19402 4.07102 5.01744 4.34205 3.93683 7.29793 7.2538 6.82996 5.63201 3.86921 3.768 5.41456 4.56297 3.75261 5.1256 3.74506 6.988 3.69688 3.52577 3.35736 3.30806 3.28318 3.26369 3.15065 3.18792
threshold=49.750000000000007 114.90000000000002 3.8595049306750302 4.0223389264071256 -0.3100961538461538 1.5065789473684212 221.16666666666671 252.11285019165868 -0.23486158376090349 2.3875000000000006 19.066665967305507 195.30000000000004 57.721999549865728 237.83333333333334 11.643333454926811 0.56769728288054477 210.16666666666671 286.00000000000006 1.0228674458624278 0.9431182535703283 0.83333333333333337 -2.1164379703642964 0.043538048366705585 2.1974899033705397 1.1970149253731346 1.0830723352810987 0.62202552348996221 -1.5696029867976902 0.99987751102400801 0.59761904761904772
decision_type=2 2 2 2 2 2 2 2 2 2 2 2 2 2 2 2 2 2 2 2 2 2 2 2 2 2 2 2 2 2
left_child=-1 4 6 18 14 9 7 28 -8 10 11 -6 -13 -14 -2 22 -17 -18 19 -4 24 -22 25 -16 26 27 -10 -11 29 -3
right_child=1 2 3 -5 5 -7 8 -9 20 15 -12 12 13 -15 23 16 17 -19 -20 -21 21 -23 -24 -25 -26 -27 -28 -29 -30 -31
leaf_value=-0.00077780177466172968 -0.00092975256033241745 -0.0012907213261050563 0.0036558306289882193 0.018051181357839834 0.0033321832989652951 0.017903383753516459 0.00069618066703831707 0.009053960718214512 0.0051460071575073971 0.0033162714822872266 0.0038250608200376683 0.022558380561796102 0.0017417194162096298 0.016983916914981346 0.0082846478132878321 0.016377554477916823 0.0044902079460326207 0.014205540439912252 0.0036541041662526688 0.013412065134673823 0.017149510184923809 0.005164492525616471 -0.00022938313872315164 0.0012024876821872801 0.011528883463349834 0 -0.0030049805278363436 0.011863506418101641 -0.00099849838071164841 0.0062388545015583862
leaf_weight=12081 31 30 40 22 23 32 53 39 104 36 43 43 20 22 117 35 88 27 85 60 38 48 42 42 28 25 22 48 112 68
leaf_count=12081 31 30 40 22 23 32 53 39 104 36 43 43 20 22 117 35 88 27 85 60 38 48 42 42 28 25 22 48 112 68
internal_value=1.61043e-05 0.00675905 0.00556305 0.00830507 0.00806311 0.00914032 0.00448404 0.00251919 0.00610557 0.0084597 0.0112372 0.0140344 0.0167416 0.0101676 0.00523321 0.00700064 0.00931772 0.0069602 0.00700149 0.00968342 0.00725081 0.0107114 0.00458697 0.0064956 0.00519712 0.00651893 0.00363162 0.00840016 0.00122103 0.00384312
internal_weight=13504 1423 749 207 674 484 542 249 293 452 151 108 85 42 190 301 150 115 185 100 240 86 151 159 154 109 126 84 210 98
internal_count=13504 1423 749 207 674 484 542 249 293 452 151 108 85 42 190 301 150 115 185 100 240 86 151 159 154 109 126 84 210 98
is_linear=0
shrinkage=0.02


Tree=30
num_leaves=31
num_cat=0
split_feature=27 116 37 114 120 2 95 117 80 120 74 126 55 59 59 125 94 11 127 37 127 31 125 31 3 0 107 91 100 10
split_gain=174.021 6.37219 4.53725 4.13312 5.0279 6.25325 5.46654 4.36599 9.01366 4.18289 3.99277 3.94 3.631 5.6145 6.09207 4.72336 3.94946 3.60785 3.3635 5.46678 3.27459 3.05737 3.05512 2.96649 2.83923 2.76591 3.60553 3.75601 2.67445 3.41072
threshold=3.4166666666666674 0.73510204602275631 0.86607142857142871 0.99456790698917596 0.61567709856683261 35.833333333333336 -0.4861111111111111 0.8798076923076924 3.2000771161798105 1.1824570921286253 178.39182782854417 1.0866204424553192 1.7303030303030307 0.18465909090909094 0.080128205128205135 1.5527777777777778 3.9801136363636407 129.10000000000002 1.2305143603805406 0.38750000000000007 0.89093704592302247 0.36243111640214926 1.0775240384615385 7.5587891936302194 14.436666631698611 11.980000019073488 2.0138888888888897 2.9462176267591089 -0.41666666666666652 245.50000000000003
decision_type=2 2 2 2 2 2 2 2 2 2 2 2 2 2 2 2 2 2 2 2 2 2 2 2 2 2 2 2 2 2
left_child=-1 22 3 4 20 6 -6 9 -9 10 -8 25 15 14 16 18 -14 -13 19 28 -3 -17 -2 -21 -10 -4 27 -27 -5 -30
right_child=1 2 11 12 5 -7 7 8 24 -11 -12 17 13 -15 -16 21 -18 -19 -20 23 -22 -23 -24 -25 -26 26 -28 -29 29 -31
leaf_value=-0.00077568729353774961 0.0011544280166809375 0.0082006419924172489 -0.00026391620635986328 0.0015313831539381117 0.0021559460933615522 0 0.013867701372274985 0.024126094707420897 0.014504388031505404 0.014488922387361528 0.0046680433393638827 0.011581600112993209 0.013472498963619102 0.0018484323113052933 0.022462127831849185 0.017987431812854039 0.0012391494853155954 0.0017951345205307007 0.00011473203698794047 0.0045061677461717192 0.020293759326140085 0.0068879072684230229 0.0082160148024559027 -0.0027328206722935038 0.0036872024337450664 0.0040267072559187289 -0.00037614824466927109 0.010338703048856635 0.0068975351815638332 0.0146717209401338
leaf_weight=12037 129 21 49 20 40 32 25 27 20 39 106 60 28 26 21 20 20 24 53 204 29 32 31 23 26 151 42 56 68 45
leaf_count=12037 129 21 49 20 40 32 25 27 20 39 106 60 28 26 21 20 20 24 53 204 29 32 31 23 26 151 42 56 68 45
internal_value=1.63533e-05 0.0065181 0.00698439 0.00776699 0.00950557 0.00844877 0.0093932 0.0105298 0.0148605 0.00853566 0.00659122 0.00504791 0.00660106 0.0103208 0.0132984 0.00579914 0.00870867 0.00895713 0.00501778 0.0057096 0.0156711 0.0116045 0.00262726 0.00372007 0.00881163 0.00388627 0.00474076 0.00582387 0.00897752 0.0101827
internal_weight=13504 1467 1307 925 365 315 283 243 73 170 131 382 560 95 69 465 48 84 413 360 50 52 160 227 46 298 249 207 133 113
internal_count=13504 1467 1307 925 365 315 283 243 73 170 131 382 560 95 69 465 48 84 413 360 50 52 160 227 46 298 249 207 133 113
is_linear=0
shrinkage=0.02


Tree=31
num_leaves=31
num_cat=0
split_feature=16 1 11 54 76 4 5 54 125 2 95 98 5 118 76 71 34 118 100 118 56 17 11 128 115 98 72 106 27 130
split_gain=167.47 5.54396 4.81519 5.62651 6.48899 5.81053 5.75461 5.10804 4.97687 4.61957 4.35897 4.03015 3.97748 3.91089 4.89278 4.73378 6.92713 3.99359 3.89421 5.49988 3.61746 3.5517 5.54411 4.40998 3.53024 3.38436 3.18716 3.12699 3.1238 3.10078
threshold=49.750000000000007 1.8333333333333337 112.30000000000003 196.96875000000003 201.77527430957068 221.83333333333334 119.41666666666667 104.09375000000001 1.5065789473684212 39.166666666666679 0.73214285714285732 7.1698717948717965 124.50000000000001 0.98057203967371942 241.99313100556586 -5.6393585979938496 182.06250000000003 0.074868451155342033 -0.69337606837606836 0.40058139534883724 273.19196428571433 0.87500000000000011 135.90000000000003 0.99919484702093408 0.89927536231884075 3.1319444444444451 -0.41945120630164939 -0.97499996186234028 33.375000000000007 0.9213607086146941
decision_type=2 2 2 2 2 2 2 2 2 2 2 2 2 2 2 2 2 2 2 2 2 2 2 2 2 2 2 2 2 2
left_child=1 29 8 5 -5 -4 24 -7 9 11 18 12 13 14 -2 -15 -17 -16 20 -20 -8 22 23 -21 -6 -9 -23 -28 -24 -1
right_child=2 -3 3 4 6 7 10 25 -10 -11 -12 -13 -14 15 17 16 -18 -19 19 21 -22 26 28 -25 -26 -27 27 -29 -30 -31
leaf_value=-0.00093589221703864272 0.0029476164071820677 -0.00081099192264468174 0 0.01484714650009808 -0.0012515990734100341 0.013983400292121447 0.0071074377059936527 0.0018934786446551059 0.014943405636926976 -0.001623424972806658 -0.00092465408470319673 0.0010594474657987937 0.015546348094940186 0.0011113211035728454 0.015316590468088786 0.019427327837262837 0.0088571364644670133 0.0067121674997586735 0.00094453210809401094 0.021843789553642273 0.019816525388847699 0.010587667773167293 0.0017844240176372039 0.0098812674505766047 0.0052662319753851205 0.010191363592942555 -0.00383127959001632 0.0051506731315301016 0.010188651557375746 0.0036657028019428249
leaf_weight=83 127 11824 130 37 59 25 24 93 40 20 22 38 30 24 29 34 136 140 55 24 21 29 38 42 69 26 20 51 40 174
leaf_count=83 127 11824 130 37 59 25 24 93 40 20 22 38 30 24 29 34 136 140 55 24 21 29 38 42 69 26 20 51 40 174
internal_value=1.66819e-05 -0.000747152 0.00650448 0.00542949 0.00664724 0.00301758 0.00598412 0.0057705 0.00787757 0.00734635 0.00727139 0.00768807 0.00815031 0.00764639 0.00607141 0.0099547 0.0111309 0.0083289 0.0078257 0.00688739 0.0135576 0.00817684 0.0102643 0.0146416 0.00219799 0.00385962 0.00500008 0.00246359 0.00629528 0.00214296
internal_weight=13504 12081 1423 805 531 274 494 144 618 578 366 558 520 490 296 194 170 169 344 299 45 244 144 66 128 119 100 71 78 257
internal_count=13504 12081 1423 805 531 274 494 144 618 578 366 558 520 490 296 194 170 169 344 299 45 244 144 66 128 119 100 71 78 257
is_linear=0
shrinkage=0.02


Tree=32
num_leaves=31
num_cat=0
split_feature=16 11 25 16 100 125 98 127 115 9 83 80 13 4 13 127 0 91 69 75 130 75 130 111 40 80 26 2 78 38
split_gain=161.083 4.62584 4.9364 6.87515 4.42961 5.67777 5.13366 5.4889 5.01151 4.07878 4.9603 4.32465 12.5892 4.817 4.28038 3.73251 3.63917 3.6306 9.89484 4.39041 4.23129 3.89838 3.40533 3.36181 3.16561 3.12308 3.11829 2.66511 4.10538 4.10375
threshold=49.750000000000007 114.90000000000002 2.2916666666666674 253.62500000000003 -0.3100961538461538 1.5065789473684212 -0.77350427350427331 1.2389763406192216 0.69790661778892549 0.58333333333333337 0.033000295783594216 3.4986660836532706 57.721999549865728 271.50000000000006 52.118000221252451 1.2131832705694399 11.643333454926811 4.2796440443147903 241.43750000000003 1.7340424408762456 1.3697141155449675 2.0307332558457718 0.85530453492221137 2.1974899033705397 4.9375000000000009 3.3343337222777039 24.234999775886539 16.166666666666668 15.641330352601079 15.267857142857144
decision_type=2 2 2 2 2 2 2 2 2 2 2 2 2 2 2 2 2 2 2 2 2 2 2 2 2 2 2 2 2 2
left_child=-1 4 15 -4 16 6 8 9 -6 -8 11 12 14 24 -11 17 -2 20 -19 -20 -3 -21 -14 27 -13 -10 -5 28 -18 -29
right_child=1 2 3 26 5 -7 7 -9 25 10 -12 13 22 -15 -16 -17 23 18 19 21 -22 -23 -24 -25 -26 -27 -28 29 -30 -31
leaf_value=-0.0007322062682338827 -0.0011038733273744583 0.0035865283184062504 0.001872765807544484 0.017294801993247792 0.0044361414588414702 0.017067945436997849 0.0042698616604519707 -0.0021305551504095395 0.020687178662046789 0.013691732863585153 0.00046913796001010473 -0.00073726424016058451 0 0.014927037547935139 0.027583605102870778 0 0 0.018177680988465585 -0.0003191450002946352 0.013648268812232547 0.010031731091439724 0.0013059011953217641 0.0098424641433216276 0.00093476124974184254 0.0074948926419019703 0.0095528686046600347 0.0064614122976427496 0.016586147053488369 0.0099754828028380867 0.0042717578634619714
leaf_weight=12081 31 433 33 38 25 32 116 23 31 29 26 31 22 21 22 63 35 30 37 26 47 20 41 42 39 26 22 28 31 23
leaf_count=12081 31 433 33 38 25 32 116 23 31 29 26 31 22 21 22 63 35 30 37 26 47 20 41 42 39 26 22 28 31 23
internal_value=1.69063e-05 0.0063798 0.00523923 0.00964664 0.00762283 0.00867129 0.0080184 0.00691935 0.0127139 0.00755233 0.00913206 0.0101746 0.0128815 0.00657172 0.0202918 0.00458545 0.00486824 0.0050764 0.00839744 0.00456904 0.00425796 0.00863675 0.0065031 0.00609474 0.00374934 0.0160331 0.0136575 0.00783867 0.00479766 0.0114139
internal_weight=13504 1423 749 93 674 484 452 370 82 347 231 205 114 91 51 656 190 593 113 83 480 46 63 159 70 57 60 117 66 51
internal_count=13504 1423 749 93 674 484 452 370 82 347 231 205 114 91 51 656 190 593 113 83 480 46 63 159 70 57 60 117 66 51
is_linear=0
shrinkage=0.02


Tree=33
num_leaves=31
num_cat=0
split_feature=27 116 1 17 108 70 112 66 48 117 35 14 132 106 115 13 29 75 3 48 29 79 30 118 99 125 97 38 116 47
split_gain=155.05 5.9117 4.0191 3.80232 5.02719 5.44573 6.00566 9.59387 7.3127 8.22588 6.24325 5.23832 4.13688 3.62877 3.38938 3.9932 3.49134 3.3499 3.31718 3.669 3.29432 3.24829 3.23069 5.04609 3.05323 3.52 3.02039 2.91414 7.13901 3.98213
threshold=3.4166666666666674 0.73510204602275631 1.8333333333333337 0.87500000000000011 1.5113636363636365 34.211111111111116 0.90872990579477386 17.303124930709604 2.1339285714285716 1.0425724637681162 1.4642857142857146 245.12500000000003 -1.7673971937465602 2.5249999850722302 1.0048076923076925 76.405999247233083 146.58333333333334 0.8084607779011157 13.320000267028812 0.77500000000000013 296.62500000000006 0.076346124504848831 15.875000000000002 1.200649350649351 -0.047727272727272695 0.62593283582089565 0.050000000000000024 10.267857142857144 1.0385375649203623 32.937500000000007
decision_type=2 2 2 2 2 2 2 2 2 2 2 2 2 2 2 2 2 2 2 2 2 2 2 2 2 2 2 2 2 2
left_child=2 24 18 4 5 6 7 11 -9 -10 21 12 -3 22 15 16 -5 -16 -1 -20 -19 -8 23 27 -2 -26 -7 29 -29 -14
right_child=1 3 -4 14 -6 26 10 8 9 -11 -12 -13 13 -15 17 -17 -18 20 19 -21 -22 -23 -24 -25 25 -27 -28 28 -30 -31
leaf_value=-0.00045124293069973172 -0.0013615702975679328 -0.0014795306054028597 -0.0007801305759658774 0.0092065502007802318 0.01552516644820571 0.0049340623477909049 0.0096369643644853079 0.021699672089173245 0.0062809444089298658 0.020184506592543228 0.0064418887098630275 0.0014741265291259404 0.0046164645915640927 0.00054778228787814864 0.00076113834425255102 0.0099177795245840739 0.0017924917319364715 0.011026837077251701 0.0075655540871241737 0 0.0016834508076958036 0.021817052289843559 0.0038115009461363704 0.018390388540599659 0.0010456237882848769 0.0085876189237055565 -0.0017510111454655142 0.017558965476022825 0.0019308118309293474 0.012186619803309441
