tree
version=v4
num_class=1
num_tree_per_iteration=1
label_index=0
max_feature_idx=136
objective=regression
feature_names=dvp_fp_avg_3 dvp_rec_yds_avg_3 dvp_rush_yds_avg_3 dvp_fp_avg_5 def_pass_yds_allowed_avg_3 def_rush_yds_allowed_avg_3 def_rec_yds_allowed_avg_3 def_fp_allowed_avg_3 def_pass_td_allowed_avg_3 def_int_made_avg_3 def_pass_yds_allowed_avg_5 def_rush_yds_allowed_avg_5 def_rec_yds_allowed_avg_5 def_fp_allowed_avg_5 passing_yards_avg_4 passing_tds_avg_4 passing_air_yards_avg_4 interceptions_avg_4 rushing_yards_avg_4 rushing_tds_avg_4 carries_avg_4 receiving_yards_avg_4 receiving_tds_avg_4 receptions_avg_4 targets_avg_4 touchdowns_avg_4 fantasy_points_avg_4 pass_attempts_avg_4 rush_attempts_avg_4 pass_yds+td_avg_4 rush+rec_yds_avg_4 passing_epa_avg_4 rushing_epa_avg_4 receiving_epa_avg_4 passing_yards_avg_8 passing_tds_avg_8 passing_air_yards_avg_8 interceptions_avg_8 rushing_yards_avg_8 rushing_tds_avg_8 carries_avg_8 receiving_yards_avg_8 receiving_tds_avg_8 receptions_avg_8 targets_avg_8 touchdowns_avg_8 fantasy_points_avg_8 pass_attempts_avg_8 rush_attempts_avg_8 pass_yds+td_avg_8 rush+rec_yds_avg_8 passing_epa_avg_8 rushing_epa_avg_8 receiving_epa_avg_8 passing_yards_avg_16 passing_tds_avg_16 passing_air_yards_avg_16 interceptions_avg_16 rushing_yards_avg_16 rushing_tds_avg_16 carries_avg_16 receiving_yards_avg_16 receiving_tds_avg_16 receptions_avg_16 targets_avg_16 touchdowns_avg_16 fantasy_points_avg_16 pass_attempts_avg_16 rush_attempts_avg_16 pass_yds+td_avg_16 rush+rec_yds_avg_16 passing_epa_avg_16 rushing_epa_avg_16 receiving_epa_avg_16 passing_yards_ewm passing_tds_ewm passing_air_yards_ewm interceptions_ewm rushing_yards_ewm rushing_tds_ewm carries_ewm receiving_yards_ewm receiving_tds_ewm receptions_ewm targets_ewm touchdowns_ewm fantasy_points_ewm pass_attempts_ewm rush_attempts_ewm pass_yds+td_ewm rush+rec_yds_ewm passing_epa_ewm rushing_epa_ewm receiving_epa_ewm passing_yards_streak passing_tds_streak passing_air_yards_streak interceptions_streak rushing_yards_streak rushing_tds_streak carries_streak receiving_yards_streak receiving_tds_streak receptions_streak targets_streak touchdowns_streak fantasy_points_streak pass_attempts_streak rush_attempts_streak pass_yds+td_streak rush+rec_yds_streak passing_epa_streak rushing_epa_streak receiving_epa_streak passing_yards_consistency passing_tds_consistency passing_air_yards_consistency interceptions_consistency rushing_yards_consistency rushing_tds_consistency carries_consistency receiving_yards_consistency receiving_tds_consistency receptions_consistency targets_consistency touchdowns_consistency fantasy_points_consistency pass_attempts_consistency rush_attempts_consistency pass_yds+td_consistency rush+rec_yds_consistency passing_epa_consistency rushing_epa_consistency receiving_epa_consistency days_rest b2b four_in_six
feature_infos=[-1.1266666452089946:48.333333333333336] [-2.6666666666666665:293.5] [-13:228.33333333333334] [-1.0333333015441895:44.349998474121094] [98.666666666666671:389] [38:251.66666666666666] [98.666666666666671:389] [26.240000406901043:118.56666564941406] [0:5] [0:4] [121:389] [50.799999999999997:238] [121:389] [32.819999694824219:117.20000457763672] [-3:384.5] [0:5] [-13.5:486] [0:4] [-11.5:164] [0:2] [0:31] [-7:184] [0:2] [0:13] [0:17.5] [0:5] [-2.880000114440918:34.900001525878906] [0:59] [0:31] [-3:387] [-8:194] [-32.769081115722656:33.188526153564453] [-10.677238464355469:10.26837158203125] [-9.9687585830688477:14.492033958435059] [-3:369.5] [0:5] [-13.5:486] [0:4] [-11.5:164] [0:2] [0:31] [-7:184] [0:2] [0:13] [0:17.5] [0:5] [-2.880000114440918:34.900001525878906] [0:59] [0:31] [-3:373] [-8:194] [-27.361719131469727:33.188526153564453] [-10.677238464355469:10.26837158203125] [-9.9687585830688477:14.492033958435059] [-3:369.5] [0:5] [-13.5:486] [0:4] [-11.5:164] [0:2] [0:31] [-7:184] [0:2] [0:13] [0:17.5] [0:5] [-2.880000114440918:34.900001525878906] [0:59] [0:31] [-3:373] [-8:194] [-27.361719131469727:33.188526153564453] [-10.677238464355469:10.26837158203125] [-9.9687585830688477:14.492033958435059] [-3:369.54977488744373] [0:5] [-13.501750875437716:486] [0:4] [-11.507253626813407:164] [0:2] [0:31] [-7:184] [0:2.0005002501250626] [0:13] [0:17.501250625312654] [0:5] [-2.880000114440918:34.900001525878906] [0:59] [0:31] [-3:373.05102551275638] [-8:194] [-27.361719131469727:33.188526153564453] [-10.677238464355469:10.26837158203125] [-9.9687585830688477:14.492033958435059] [-151.13333333333333:135.75] [-1.125:1.75] [-188.31666666666666:159.75] [-0.88888888888888884:1.1499999999999999] [-54.1875:70] [-0.9375:1.375] [-8.3125:14.1875] [-51.88333333333334:58.25] [-0.80000000000000004:1.05] [-4.3499999999999996:4.75] [-4.125:4.9375] [-1.3928571428571428:1.6875] [-10.268750093877316:12.429000520706175] [-22.516666666666666:15.875] [-8.3125:14.1875] [-151.56666666666666:136.61111111111111] [-56.625:78.875] [-16.407784104347229:10.571348384022713] [-4.8075815119913647:4.4804327236488461] [-7.132437027990818:6.5142585914582014] [0:2.0558823529411763] [0:2.625] [-0.021148036253776436:2.1012931034482758] [0:3.5555555555555554] [-35:24] [0:5.75] [0:6.75] [-0.59999999999999998:3.6699029126213589] [0:10] [0:4] [0:3.7894736842105265] [0:7] [-0.44615382922471641:6.0000004470348625] [0:4.666666666666667] [0:6.75] [0:2.0568920676202862] [-35:24] [-164.70809802173125:2847.8627049180327] [-673.2594717716496:4144.8770602949471] [-744.44406904859397:2923.8584008732196] [7:721] none [0:1]
tree_sizes=2647 2752 2751 2752 2729 2737 2735 2721 2745 2717 2726 2725 2756 2734 2719 2724 2712 2757 2755 2711 2698 2730 2696 2719 2766 2702 2774 2720 2712 2754 2752 2705 2753 2731 2711 2712 2751 2709 2692 2727 2699 2709 2717 2736 2717 2704 2721 2698 2731 2698 2706 2734 2714 2720 2722 2730 2725 2723 2716 2712 2721 2722 2731 2708 2725 2712 2748 2745 2735 2733 2742 2730 2721 2746 2716 2739 2752 2763 2706 2743 2743 2746 2740 2741 2752 2761 2752 2744 2730 2720 2755 2763 2739 2732 2763 2765 2740 2769 2746 2761 2758 2764 2733 2761 2761 2768 2776 2746 2741 2772 2777 2764 2771 2768 2736 2776 2764 2759 2775 2782 2770 2785 2784 2766 2789 2783 2788 2773 2766 2781 2783 2766 2771 2780 2774 2766 2773 2770 2793 2794 2773 2782 2773 2790 2795 2782 2750 2782 2777 2782 2793 2789 2785 2769 2764 2795 2770 2806 2770 2807 2792 2780 2797 2768

Tree=0
num_leaves=31
num_cat=0
split_feature=14 1 47 134 0 69 59 89 18 12 26 4 134 18 0 9 55 48 51 11 72 136 124 1 1 1 67 11 7 7
split_gain=1.10996e+06 21373.7 18087.5 8405.66 5396.04 3917.79 2613.59 2377.67 1914.68 1755.84 1238.67 1140.97 1035.83 896.259 837.392 1320.89 702.561 698.245 656.505 574.57 516.197 403.361 662.533 676.294 1493.92 734.344 371.592 366.895 361.134 328.648
threshold=59.250000000000007 1.0000000180025095e-35 30.450000000000003 10.500000000000002 8.0000000794728603 172.70000000000002 0.13809523809523813 240.726345040967 -0.70833333333333315 223.30000000000004 6.1499999240040788 243.50000000000003 17.500000000000004 13.125000000000002 16.166667143503826 0.83333333333333337 0.47727272727272735 10.29166666666667 -1.207903786562383 133.90000000000003 0.046173054192747399 1.0000000180025095e-35 0.9546596619460942 55.500000000000007 55.166666666666679 7.416666666666667 25.677083333333339 112.50000000000001 62.190000534057624 62.286666234334312
decision_type=2 2 2 2 2 2 2 2 2 2 2 2 2 2 2 2 2 2 2 2 2 2 2 2 2 2 2 2 2 2
left_child=1 4 3 10 -1 11 8 16 -6 -7 -2 18 -9 14 15 27 -4 26 -5 -16 -11 22 23 24 25 -3 -12 -10 -26 -30
right_child=2 21 7 5 6 9 -8 12 13 20 17 -13 -14 -15 19 -17 -18 -19 -20 -21 -22 -23 -24 -25 28 -27 -28 -29 29 -31
leaf_value=3.3352242357165198 3.7548499423756709 3.4351383635887385 3.7721514579615403 3.5981301815053452 3.4298154309735343 3.6587809464884344 3.3767119833553787 4.0284567747961475 3.7131038398221827 3.7862776925667392 3.8551174644476376 3.6896110257609949 3.8719564128522341 3.4902596131567427 3.7500901227825558 3.4589845170451698 3.9453777828218679 3.7388181247701229 3.4381301832392985 3.6050344319390382 3.9714151002548661 3.323832170552155 3.3238003439789945 3.3239130425103629 3.3289684710208842 3.3257183151792811 3.9262937867603114 3.5731542330220045 3.3955004296991174 3.3300901265692042
leaf_weight=56 40 25 20 21 28 28 28 472 20 29 123 29 35 23 33 25 281 20 21 27 22 8720 1690 512 44 509 251 22 317 33
leaf_count=56 40 25 20 21 28 28 28 472 20 29 123 29 35 23 33 25 281 20 21 27 22 8720 1690 512 44 509 251 22 317 33
internal_value=3.39151 3.33003 3.92617 3.83934 3.50839 3.70605 3.55556 3.98828 3.58367 3.80341 3.88455 3.59338 4.01864 3.61188 3.63289 3.57836 3.9352 3.89674 3.52131 3.68955 3.87595 3.32607 3.33234 3.34242 3.3527 3.33093 3.90421 3.64596 3.38231 3.3892
internal_weight=13504 12112 1392 584 262 150 206 808 178 79 434 71 507 150 127 67 301 394 42 60 51 11850 3130 1440 928 534 374 42 394 350
internal_count=13504 12112 1392 584 262 150 206 808 178 79 434 71 507 150 127 67 301 394 42 60 51 11850 3130 1440 928 534 374 42 394 350
is_linear=0
shrinkage=1


Tree=1
num_leaves=31
num_cat=0
split_feature=14 54 27 134 46 98 134 27 136 124 124 2 2 118 30 36 2 3 2 7 9 55 87 127 4 115 7 115 80 6
split_gain=1.0663e+06 16955 12572.8 9681.29 4532.11 1593.73 1668.5 1401.65 1296.48 2001.08 1826.41 1196.17 2075.43 1121.41 2001.46 1074.93 979.128 870.344 1763.58 926.756 1451.32 814.34 793.795 687.837 654.8 592.917 589.846 464.231 458.163 398.678
threshold=59.250000000000007 230.42222222222225 1.2916666666666667 10.500000000000002 8.6999999731779116 -3.190972222222221 255.50000000000003 25.125000000000004 1.0000000180025095e-35 0.9546596619460942 0.95266106442577037 60.166666666666679 6.166666666666667 0.12935403426916584 14.125000000000002 23.000000000000004 5.166666666666667 18.819999980926514 34.166666666666679 61.180000305175788 0.58333333333333337 0.88194444444444453 37.000500500333509 0.70116731517509734 227.16666666666671 0.75235849056603787 67.760000864664718 1.1970149253731346 9.8864564399488533 269.58333333333343
decision_type=2 2 2 2 2 2 2 2 2 2 2 2 2 2 2 2 2 2 2 2 2 2 2 2 2 2 2 2 2 2
left_child=2 3 8 7 24 -6 25 23 9 10 -1 12 16 -4 15 -15 -12 18 19 20 -14 -3 -23 -2 -5 -7 -19 -27 29 -9
right_child=1 21 13 4 5 6 -8 28 -10 -11 11 -13 17 14 -16 -17 -18 26 -20 -21 -22 22 -24 -25 -26 27 -28 -29 -30 -31
leaf_value=-0.066095907877738155 0.30127101773801057 0.4192993984903608 0.041047146599739792 0.081119536801620762 0.53959069178654595 0.28760842238153733 0.1814136183510224 0.50988370132726313 -0.06627327382387635 -0.066362130061317887 -0.056672781364571663 -0.062103578324001554 0.19258399205548421 0.12499648812142285 0.038761243224143982 0.31361768266088086 -0.0060179320812225349 -0.064231025190914379 -0.0373542569622849 0.24582994448102038 -0.010378684237085541 0.57993926222502334 0.64997463960043134 0.4560427620605374 0.23183156544963521 0.49286276557228781 0.049725266236525317 0.32094882688352039 0.39548208992396083 0.59511887428088073
leaf_weight=502 22 20 31 26 25 27 23 297 8759 1699 247 210 27 21 27 37 399 33 32 22 28 421 212 140 23 32 38 20 27 77
leaf_count=502 22 20 31 26 25 27 23 297 8759 1699 247 210 27 21 27 37 399 33 32 22 28 421 212 140 23 32 38 20 27 77
internal_value=8.98415e-06 0.524041 -0.060254 0.456722 0.323474 0.386568 0.344091 0.497712 -0.0622625 -0.0513896 -0.0348109 -0.0195927 -0.00871079 0.146122 0.183404 0.248769 -0.0254591 0.0511503 0.0863888 0.137762 0.0907387 0.599395 0.604399 0.437063 0.155284 0.388468 -0.00325791 0.434234 0.52104 0.528999
internal_weight=13504 1392 12112 739 176 127 102 563 11996 3237 1538 1036 826 116 85 58 646 180 109 77 55 653 633 162 49 79 71 52 401 374
internal_count=13504 1392 12112 739 176 127 102 563 11996 3237 1538 1036 826 116 85 58 646 180 109 77 55 653 633 162 49 79 71 52 401 374
is_linear=0
shrinkage=0.02


Tree=2
num_leaves=31
num_cat=0
split_feature=14 1 47 134 0 47 28 75 4 27 118 18 78 26 115 2 65 51 7 48 55 134 136 62 1 1 1 5 46 47
split_gain=1.02439e+06 19930.3 16756 7725.47 5042.52 3366.76 2495.43 2226.83 1472.25 1425.78 2049.79 1335.05 1204.62 1163.85 1104.68 838.609 773.149 788.521 731.422 670.214 543.36 619.011 365.972 506.381 927.544 1272.47 552.638 279.317 272.661 266.614
threshold=59.250000000000007 1.0000000180025095e-35 30.450000000000003 10.500000000000002 8.0000000794728603 26.450000000000003 0.29166666666666669 0.99933475196925459 259.50000000000006 2.1250000000000004 0.12935403426916584 13.125000000000002 1.0000000180025095e-35 6.1499999240040788 0.85357142857142865 13.16666666666667 1.1180555555555558 -1.207903786562383 59.869999567667655 10.29166666666667 1.8229166666666667 10.500000000000002 1.0000000180025095e-35 0.069047619047619066 55.500000000000007 55.166666666666679 9.1666666666666696 115.00000000000001 1.525000012945384 18.187500000000004
decision_type=2 2 2 2 2 2 2 2 2 2 2 2 2 2 2 2 2 2 2 2 2 2 2 2 2 2 2 2 2 2
left_child=1 4 3 13 -1 8 15 -4 16 28 -11 -12 -9 29 -7 -6 17 -5 -17 -15 21 -14 23 -3 25 26 -25 -27 -8 -2
right_child=2 22 7 5 6 14 9 12 -10 10 11 -13 20 19 -16 18 -18 -19 -20 -21 -22 -23 -24 24 -26 27 -28 -29 -30 -31
leaf_value=-0.05421046994234386 0.41382886886596681 -0.064224845439576378 0.47171077062970113 0.19411970311687107 0.3139165626168251 0.32089479220880046 0.059857747934081343 0.77907219539989125 0.34872973928451539 0.0033207134405771892 0.30113750768430303 0.095893154044946041 0.57538194718842317 0.49248370280901593 0.51585852211919325 0.080773215549332755 0.26099865487643653 0.021120900770892268 0.25308622329131419 0.33193175930352442 0.62574466151894681 0.48140144123659506 -0.065002907851245087 0.036839474802431854 -0.065145084573852166 -0.061201863429125619 -0.064884845508847919 -0.0010651172732197962 -0.037575254340966542 0.26527622881389801
leaf_weight=56 20 1721 104 20 39 36 21 21 24 26 32 23 415 374 28 20 20 22 22 20 192 76 8720 22 662 33 349 343 23 20
leaf_count=56 20 1721 104 20 39 36 21 21 24 26 32 23 415 374 28 20 20 22 22 20 192 76 8720 22 662 33 349 343 23 20
internal_value=1.87793e-05 -0.059048 0.513649 0.430081 0.113185 0.302282 0.158781 0.57343 0.215994 0.101299 0.150593 0.218732 0.587752 0.473433 0.412969 0.245047 0.159734 0.106332 0.175052 0.48522 0.580724 0.561863 -0.0628661 -0.0568911 -0.0478871 -0.0325129 -0.058743 -0.00651794 0.00900143 0.348078
internal_weight=13504 12112 1392 584 262 150 206 808 86 125 81 55 704 434 64 81 62 42 42 394 683 491 11850 3130 1409 747 371 376 44 40
internal_count=13504 12112 1392 584 262 150 206 808 86 125 81 55 704 434 64 81 62 42 42 394 683 491 11850 3130 1409 747 371 376 44 40
is_linear=0
shrinkage=0.02


Tree=3
num_leaves=31
num_cat=0
split_feature=29 1 47 134 3 47 20 89 27 118 6 18 10 26 134 65 51 75 40 6 67 136 130 1 1 1 11 87 11 46
split_gain=984134 19159.1 16082.8 7404.2 4809.71 3235.09 2246.88 2156.49 1449.41 1880.75 1415.54 1283.24 1111.62 1109.8 1002.13 743.788 758.686 656.248 638.567 541.735 374.068 351.285 512.983 714.947 1308.14 660.677 328.046 320.96 287.159 264.647
threshold=59.500000000000007 1.0000000180025095e-35 30.450000000000003 10.500000000000002 8.8825000286102309 26.450000000000003 0.29166666666666669 240.726345040967 2.1250000000000004 0.12935403426916584 259.50000000000006 13.125000000000002 223.30000000000004 6.1499999240040788 17.500000000000004 1.1180555555555558 -1.207903786562383 0.49962481246879697 10.29166666666667 222.50000000000003 25.677083333333339 1.0000000180025095e-35 0.92312616960504301 55.500000000000007 55.166666666666679 5.416666666666667 115.90000000000002 37.000500500333509 117.50000000000001 1.525000012945384
decision_type=2 2 2 2 2 2 2 2 2 2 2 2 2 2 2 2 2 2 2 2 2 2 2 2 2 2 2 2 2 2
left_child=1 4 3 13 -1 10 19 17 29 -10 15 -11 -7 -2 27 16 -5 -4 20 -6 -15 22 23 24 25 -3 -26 -9 -28 -8
right_child=2 21 7 5 6 12 8 14 9 11 -12 -13 -14 18 -16 -17 -18 -19 -20 -21 -22 -23 -24 -25 26 -27 28 -29 -30 -31
leaf_value=-0.056225822643800216 0.34145280698450597 0.053213766642979214 0.35612890879313147 0.19042218355905441 0.16238731524961836 0.2622635830532421 0.058715008524331182 0.57180077786068273 0.0052443883739984954 0.29529726512504345 0.34203412575721742 0.094055203013122091 0.46689274647019124 0.43534402838637754 0.4495277882946862 0.25602725522858755 0.020716848762139032 0.52136125662225363 0.32560924504484445 0.27869028580247185 0.50398790048464892 -0.063702998558543528 -0.063538180244194442 -0.063921871961731658 -0.060196098061495049 -0.061866541953456727 0.0040485320451124655 0.63775464067653742 -0.059712257539072347 -0.036352652025222781
leaf_weight=54 40 20 20 20 33 21 21 277 25 32 24 23 43 123 35 20 22 281 20 50 251 8720 1638 607 42 476 317 195 30 24
leaf_count=54 40 20 20 20 33 21 21 277 25 32 24 23 43 123 35 20 22 281 20 50 251 8720 1638 607 42 476 317 195 30 24
internal_value=2.87253e-05 -0.0578658 0.503465 0.421591 0.111001 0.296463 0.154525 0.562035 0.0995349 0.150105 0.211871 0.214502 0.40497 0.464034 0.590873 0.156697 0.104311 0.511631 0.475558 0.235052 0.48266 -0.0616093 -0.0557549 -0.0471664 -0.0356038 -0.0571084 -0.00808225 0.600361 -0.00159094 0.00810682
internal_weight=13504 12112 1392 584 262 150 208 808 125 80 86 55 64 434 507 62 42 301 394 83 374 11850 3130 1492 885 496 389 472 347 45
internal_count=13504 12112 1392 584 262 150 208 808 125 80 86 55 64 434 507 62 42 301 394 83 374 11850 3130 1492 885 496 389 472 347 45
is_linear=0
shrinkage=0.02


Tree=4
num_leaves=31
num_cat=0
split_feature=14 1 47 134 0 69 20 75 10 16 90 11 46 4 49 71 2 16 7 116 51 54 55 134 54 1 45 27 1 1
split_gain=945446 18414.3 15434.2 7097.92 4672.03 3463.86 2309.96 2090.1 1611.75 1322.86 1194.58 1140.42 1347.27 997.381 932.21 826.791 809.132 781.479 694.637 592.333 588.16 581.944 532.302 593.084 261.864 234.405 201.263 163.48 108.745 2341.44
threshold=59.250000000000007 1.0000000180025095e-35 30.450000000000003 10.500000000000002 8.0000000794728603 172.70000000000002 0.29166666666666669 0.99933475196925459 223.30000000000004 19.541666666666668 1.0000000180025095e-35 121.10000000000001 2.7625000216066842 243.50000000000003 168.35416666666671 -0.99270814160505927 13.16666666666667 311.12500000000006 59.869999567667655 0.8436576732517147 -1.207903786562383 138.33333333333334 1.8229166666666667 10.500000000000002 8.7750000000000021 1.8333333333333337 0.15476190476190479 26.875000000000004 55.500000000000007 55.166666666666679
decision_type=2 2 2 2 2 2 2 2 2 2 2 2 2 2 2 2 2 2 2 2 2 2 2 2 2 2 2 2 2 2
left_child=1 4 3 14 -1 13 16 17 -7 26 -9 12 -11 20 15 19 -6 -4 -18 -2 -5 -21 23 -12 25 -3 -8 -10 29 -27
right_child=2 24 7 5 6 8 9 10 27 11 22 -13 -14 -15 -16 -17 18 -19 -20 21 -22 -23 -24 -25 -26 28 -28 -29 -30 -31
leaf_value=-0.052277587401239493 0.22792134107578371 0.0014718022346496581 0.48312258877473718 0.19031254326755348 0.30322600275278094 0.24459598056201276 0.059650205033166072 0.75247515591708092 0.52488271112027374 0.33525395018713816 0.55260296975190826 0.054026191884341337 0.1033849865457286 0.27480611819028855 0.47783759997711805 0.47062252173056968 0.075587762665180927 0.30665436949048724 0.2432165072275245 0.43556822149377122 0.039227446669881996 0.27216599194899849 0.60161036140560487 0.46156716616896837 0.0093612250414761636 -0.062355867302800412 -0.016199804629598344 0.37975531407197316 -0.062459931181507139 -0.013970203897724414
leaf_weight=56 20 24 84 21 39 28 27 21 22 20 415 29 22 29 304 51 20 20 22 37 21 22 192 76 21 4890 27 29 6478 437
leaf_count=56 20 24 84 21 39 28 27 21 22 20 415 29 22 29 304 51 20 20 22 37 21 22 192 76 21 4890 27 29 6478 437
internal_value=3.74902e-05 -0.0567077 0.493479 0.41327 0.108845 0.290744 0.152734 0.550858 0.382228 0.0974253 0.564707 0.153597 0.21926 0.184918 0.454829 0.397711 0.235736 0.452525 0.16724 0.345222 0.117672 0.380357 0.557828 0.539499 -0.0603777 -0.0605032 0.0219384 0.451442 -0.0606301 -0.0583918
internal_weight=13504 12112 1392 584 262 150 206 808 79 125 704 71 42 71 434 130 81 104 42 79 42 59 683 491 11850 11829 54 51 11805 5327
internal_count=13504 12112 1392 584 262 150 206 808 79 125 704 71 42 71 434 130 81 104 42 79 42 59 683 491 11850 11829 54 51 11805 5327
is_linear=0
shrinkage=0.02


Tree=5
num_leaves=31
num_cat=0
split_feature=14 69 27 34 90 26 56 127 8 20 55 132 132 115 97 87 76 4 127 40 83 83 2 2 2 3 3 5 2 97
split_gain=908333 14836.1 10815.1 5395.6 1189.04 1041.51 1513.04 1069.89 1013.44 1153.13 882.271 797.029 827.331 930.571 772.502 762.915 914.419 542.256 484.724 528.275 458.222 4267.22 1289.83 1082.76 2158.09 1491.13 932.09 461.681 833.96 438.306
threshold=59.250000000000007 225.10476190476194 1.2916666666666667 166.93750000000003 1.0000000180025095e-35 7.050000101327897 166.25000000000003 0.8660882140274766 1.5833333333333337 1.8750000000000002 1.8229166666666667 -0.33179118458233942 1.0000767466881053 0.85357142857142865 0.21291208791208796 30.691712770082898 300.20744723316983 221.16666666666671 0.94156611645781696 7.9375000000000009 1.9163681426056376 1.9158016718923931 5.166666666666667 34.166666666666679 21.166666666666668 15.659999859333039 13.036666615804039 130.50000000000003 8.8333333333333339 0.30384615384615393
decision_type=2 2 2 2 2 2 2 2 2 2 2 2 2 2 2 2 2 2 2 2 2 2 2 2 2 2 2 2 2 2
left_child=2 3 20 5 -3 6 7 -2 17 -10 15 -7 13 -13 18 -6 -17 -4 -5 -20 21 -1 -23 24 25 26 -24 28 -27 -16
right_child=1 4 8 14 10 11 -8 -9 9 -11 -12 12 -14 -15 29 16 -18 -19 19 -21 -22 22 23 -25 -26 27 -28 -29 -30 -31
leaf_value=-0.060644873882614435 0.19387164789697398 0.73945606504167827 0.020112764004505044 0.4135782418932234 0.42989687112069902 0.22884905896403573 0.11108054492784585 0.39327419426292182 0.28689987423091101 0.095072029978036876 0.58986287060350484 0.28485525835128062 0.28784222960472106 0.47779033634397722 0.27346364300698045 0.54871213681770092 0.43373784471174764 0.13770964576862751 0.50244888503610352 0.40162509961561726 -0.061180351589683567 -0.053447081681929139 0.022241691521235875 -0.04851430198881361 0.20449912123058153 -0.0042810372017525336 0.21488432475498745 -0.057481838820273419 0.11289150769893941 0.41353592719061899
leaf_weight=4807 22 20 32 111 61 21 22 31 28 25 201 20 35 53 22 362 57 31 242 54 6316 227 20 134 22 369 20 56 25 58
leaf_count=4807 22 20 32 111 61 21 22 31 28 25 201 20 35 53 22 362 57 31 242 54 6316 227 20 134 22 369 20 56 25 58
internal_value=4.84012e-05 0.483708 -0.0555719 0.416303 0.54945 0.326041 0.25814 0.315812 0.135832 0.200036 0.542779 0.363151 0.386834 0.42963 0.453347 0.521856 0.534165 0.0793817 0.466974 0.485503 -0.0574347 -0.0532579 -0.0125486 0.00186774 0.015142 0.00622073 0.121699 -0.00426889 0.00339543 0.378991
internal_weight=13504 1392 12112 691 701 204 75 53 116 53 681 129 108 73 487 480 419 63 407 296 11996 5680 873 646 512 490 40 450 394 80
internal_count=13504 1392 12112 691 701 204 75 53 116 53 681 129 108 73 487 480 419 63 407 296 11996 5680 873 646 512 490 40 450 394 80
is_linear=0
shrinkage=0.02


Tree=6
num_leaves=31
num_cat=0
split_feature=29 1 47 134 3 56 20 55 16 10 118 18 90 26 16 47 74 2 7 10 40 72 67 136 130 2 2 1 13 47
split_gain=872684 17199.6 14260.2 6711.2 4337.75 3042.62 2068.86 1984.81 1308.79 1303.14 1258.5 2167.58 1194.98 982.2 883.327 812.98 774.442 712.475 673.697 663.527 623.24 436.61 355.714 308.809 451.914 654.289 1156.51 907.888 313.482 273.332
threshold=59.500000000000007 1.0000000180025095e-35 30.450000000000003 10.500000000000002 8.8825000286102309 187.07142857142858 0.29166666666666669 0.81534090909090928 19.541666666666668 221.90000000000003 0.14506871778853667 13.583333333333334 1.0000000180025095e-35 6.1499999240040788 292.87500000000006 26.535714285714288 241.43475790105916 13.16666666666667 59.869999567667655 217.70000000000002 10.29166666666667 0.046173054192747399 25.677083333333339 1.0000000180025095e-35 0.92312616960504301 5.8333333333333348 6.166666666666667 12.500000000000002 61.967000198364268 18.187500000000004
decision_type=2 2 2 2 2 2 2 2 2 2 2 2 2 2 2 2 2 2 2 2 2 2 2 2 2 2 2 2 2 2
left_child=1 4 3 13 -1 19 17 14 -8 -7 -10 -12 -9 29 -4 -11 -14 -6 -19 -5 22 -17 -15 24 25 -3 28 -28 -27 -2
right_child=2 23 7 5 6 9 8 12 10 15 11 -13 16 20 -16 21 -18 18 -20 -21 -22 -23 -24 -25 -26 26 27 -29 -30 -31
leaf_value=-0.053266638127240265 0.38592158590044295 -0.060215064156439999 0.46137993197970922 0.062804775231558349 0.28680735562269283 0.2342941196428405 0.020275189908487454 0.7242082933946089 0.015106266442508925 0.2745536233213815 0.33195971754881048 0.067137113299507362 0.49503609032703505 0.4099472003213821 0.27315050601620566 0.35088039940311794 0.55473280623522292 0.073450523018836977 0.2361829906442891 0.21025154463946819 0.30330011560803366 0.54130210963162517 0.47558009121626144 -0.059969724759146817 -0.059821376499422735 -0.059355971472603936 0.059048123624589714 -0.06061904126471216 -0.0015076102886253985 0.24222313245137531
leaf_weight=54 20 619 44 22 40 35 55 21 20 21 25 25 270 123 21 20 452 21 22 31 20 21 251 8720 1638 41 26 454 352 20
leaf_count=54 20 619 44 22 40 35 55 21 20 21 25 25 270 123 21 20 452 21 22 31 20 21 251 8720 1638 41 26 454 352 20
internal_value=5.88553e-05 -0.054459 0.474133 0.397033 0.105539 0.277977 0.146873 0.529286 0.0941203 0.344713 0.150898 0.203657 0.539518 0.437425 0.405779 0.40218 0.533138 0.224134 0.160412 0.151529 0.448276 0.459217 0.455172 -0.058006 -0.0525146 -0.0444513 -0.0332065 -0.054007 -0.00770339 0.321977
internal_weight=13504 12112 1392 584 262 150 208 808 125 97 70 50 743 434 65 62 722 83 43 53 394 41 374 11850 3130 1492 873 480 393 40
internal_count=13504 12112 1392 584 262 150 208 808 125 97 70 50 743 434 65 62 722 83 43 53 394 41 374 11850 3130 1492 873 480 393 40
is_linear=0
shrinkage=0.02


Tree=7
num_leaves=31
num_cat=0
split_feature=27 1 69 134 3 86 134 110 28 114 75 78 126 3 115 16 114 49 116 69 2 11 87 69 2 1 49 50 1 1
split_gain=837542 19311.1 12410.1 6876.49 4506.41 3067 1981.83 1790.2 1778.34 1612.78 1171.86 1000.79 887.92 885.105 835.575 739.03 707.216 695.092 654.084 599.502 425.07 557.395 421.111 362.049 227.219 218.463 185.824 188.437 96.8892 2078.56
threshold=12.625000000000002 1.0000000180025095e-35 225.10476190476194 10.500000000000002 9.100000119209291 8.7581289955110382 10.500000000000002 -3.2321428571428572 2.8750000000000004 0.99987751102400801 0.85696390877521744 1.0000000180025095e-35 0.266841181706513 13.764000129699708 0.7477272727272728 21.625000000000004 1.1080775611359448 168.35416666666671 0.77222443521880657 138.06250000000003 13.16666666666667 116.7 30.691712770082898 8.7750000000000021 7.416666666666667 1.8333333333333337 222.06250000000003 52.562500000000007 55.500000000000007 55.166666666666679
decision_type=2 2 2 2 2 2 2 2 2 2 2 2 2 2 2 2 2 2 2 2 2 2 2 2 2 2 2 2 2 2
left_child=1 4 3 17 -1 -5 8 -7 20 14 -4 -12 -8 -14 -9 -15 -11 18 -2 -20 24 -22 -13 25 -6 -3 27 -19 29 -27
right_child=2 23 10 5 6 7 12 9 -10 16 11 22 13 15 -16 -17 -18 26 19 -21 21 -23 -24 -25 -26 28 -28 -29 -30 -31
leaf_value=-0.050463087196860996 0.26220240447832188 0.0028034430503845217 0.352515140324831 0.12289231018016214 0.20987623018297283 0.49212249865898722 -0.003915725713313529 0.10148887878114528 0.033263072222471241 0.44770995567584865 0.7115767306373233 0.45310614441570485 0.0099594414677648315 0.070317733401343938 0.27226546421647074 0.23413950505441633 0.25998016824324927 0.47532000546331532 0.46649996989539694 0.34176781626308667 0.098070278848920542 0.23939214134216308 0.53545622405124038 0.023031878056733505 0.32734894871711734 -0.058710890491177913 0.38808918044252216 0.36080604543685918 -0.058817927674721715 -0.013120641036120723
leaf_weight=55 22 24 23 37 21 25 32 21 21 28 20 75 20 20 31 28 20 307 55 50 20 34 583 22 29 4890 52 24 6478 437
leaf_count=55 22 24 23 37 21 25 32 21 21 28 20 75 20 20 31 28 20 307 55 50 20 34 583 22 29 4890 52 24 6478 437
internal_value=6.78898e-05 -0.052934 0.468065 0.404957 0.110955 0.287752 0.150506 0.335108 0.203553 0.291272 0.527886 0.533293 0.0827391 0.123128 0.206703 0.168913 0.376595 0.441531 0.387538 0.410983 0.237199 0.189967 0.526787 -0.056816 0.283289 -0.0569673 0.458353 0.468159 -0.0570899 -0.0549759
internal_weight=13504 12131 1373 672 280 162 225 125 125 100 701 678 100 68 52 48 48 510 127 105 104 54 658 11851 50 11829 383 331 11805 5327
internal_count=13504 12131 1373 672 280 162 225 125 125 100 701 678 100 68 52 48 48 510 127 105 104 54 658 11851 50 11829 383 331 11805 5327
is_linear=0
shrinkage=0.02


Tree=8
num_leaves=31
num_cat=0
split_feature=14 1 47 49 0 20 55 97 78 130 47 91 96 114 51 2 89 57 71 97 6 51 6 20 57 48 136 130 2 2
split_gain=805491 15900.9 13198.8 4170.91 4060.92 2055.65 1831.99 1246.84 1124.97 1081.24 1829.56 988.651 1495.19 1017.02 911.71 736.903 726.747 668.51 632.146 909.027 605.64 586.345 394.777 340.061 325.253 314.868 286.892 420.549 609.142 1067.2
threshold=59.250000000000007 1.0000000180025095e-35 30.450000000000003 168.35416666666671 8.0000000794728603 0.29166666666666669 0.81534090909090928 0.14642857142857149 1.0000000180025095e-35 0.13843135465620296 3.4166666666666674 0.30347622785644573 -21.208333333333325 1.232549009108338 -1.2901262640953062 13.16666666666667 242.00429856920582 0.74166666666666681 3.5808216184377675 0.30384615384615393 233.16666666666671 -4.2907914372626683 200.83333333333334 2.8750000000000004 0.82575757575757591 3.1339285714285716 1.0000000180025095e-35 0.92312616960504301 5.8333333333333348 6.166666666666667
decision_type=2 2 2 2 2 2 2 2 2 2 2 2 2 2 2 2 2 2 2 2 2 2 2 2 2 2 2 2 2 2
left_child=1 4 3 11 -1 15 17 22 -8 -7 23 12 -2 14 24 -6 -10 -4 19 -9 -17 -12 25 -11 -14 -5 27 28 -3 -30
right_child=2 26 6 7 5 9 8 18 16 10 21 -13 13 -15 -16 20 -18 -19 -20 -21 -22 -23 -24 -25 -26 -27 -28 -29 29 -31
leaf_value=-0.048668747847540335 0.11818453512191773 -0.057848401354205228 0.46476664427554965 0.30355416327714918 0.28503217642195522 -0.0020091671740787255 0.69701260436664925 0.19964132622912012 0.47417653292762729 0.085348640265672099 0.12191255743127494 0.38019195652433802 0.40165205411612986 0.15631055150713238 0.19337127070535315 0.077112246972063314 0.53235190551511702 0.30548879581339217 0.44459944566090903 0.36732547173628938 0.23363897537901288 0.27681543058819241 0.45947028343019819 -0.024788486659526824 0.28176259533564252 0.42775981140136721 -0.057602936522346368 -0.057465547153759178 -0.0072887552177845526 -0.051769363116821482
leaf_weight=56 24 619 32 31 39 36 21 28 258 22 20 55 47 20 21 22 464 33 23 36 20 26 231 21 29 39 8720 1638 393 480
leaf_count=56 24 619 32 31 39 36 21 28 258 22 20 55 47 20 21 22 464 33 23 36 20 26 231 21 29 39 8720 1638 393 480
internal_value=7.73521e-05 -0.0522996 0.455535 0.381362 0.101539 0.142458 0.508595 0.420366 0.518427 0.0902977 0.127354 0.302356 0.269461 0.299143 0.326595 0.220747 0.512262 0.389908 0.341716 0.298318 0.155581 0.213706 0.441858 0.0319925 0.360288 0.377945 -0.0557101 -0.0504168 -0.0426382 -0.0317881
internal_weight=13504 12112 1392 584 262 206 808 388 743 125 89 196 141 117 97 81 722 65 87 64 42 46 301 43 76 70 11850 3130 1492 873
internal_count=13504 12112 1392 584 262 206 808 388 743 125 89 196 141 117 97 81 722 65 87 64 42 46 301 43 76 70 11850 3130 1492 873
is_linear=0
shrinkage=0.02


Tree=9
num_leaves=31
num_cat=0
split_feature=14 1 47 134 0 69 59 55 18 10 78 4 16 127 18 0 9 13 89 96 51 40 2 57 54 1 60 60 67 134
split_gain=773874 15286.8 12660.8 6112.4 3905.27 2997.41 2033.26 1751.54 1543.1 1467.3 1091.52 945.638 869.592 754.515 705.576 768.13 1247.99 712.619 696.744 575.414 560.9 558.806 547.283 250.319 230.493 209.944 165.371 212.631 367.239 156.859
threshold=59.250000000000007 1.0000000180025095e-35 30.450000000000003 10.500000000000002 8.0000000794728603 172.70000000000002 0.13809523809523813 0.81534090909090928 -0.70833333333333315 223.30000000000004 1.0000000180025095e-35 243.50000000000003 292.87500000000006 0.70116731517509734 13.125000000000002 16.166667143503826 0.58333333333333337 70.506000518798842 242.00429856920582 8.0166666666666675 -1.207903786562383 10.29166666666667 13.16666666666667 0.74166666666666681 8.7750000000000021 1.8333333333333337 1.1742424242424245 1.8153409090909094 26.881944444444446 66.500000000000014
decision_type=2 2 2 2 2 2 2 2 2 2 2 2 2 2 2 2 2 2 2 2 2 2 2 2 2 2 2 2 2 2
left_child=1 4 3 13 -1 11 8 12 -6 -7 -9 20 23 -2 15 16 -10 -17 -12 -11 -5 26 -18 -4 25 -3 -15 -28 -29 -20
right_child=2 24 7 5 6 9 -8 10 14 19 18 -13 -14 21 -16 17 22 -19 29 -21 -22 -23 -24 -25 -26 -27 27 28 -30 -31
leaf_value=-0.047712447789677405 0.27086674265239546 0.0038372714996337894 0.51083465229381209 0.16811179767616771 0.026694524267624163 0.21542839164877758 -0.017845576765208409 0.68370602260936397 0.26363116695925043 0.47941676934560146 0.46472961677087321 0.24922211746374767 0.25301754089919004 0.31710207780202232 0.082253551371395589 0.32014666028924893 0.15350038788535378 0.16528723487854005 0.52719872158223935 0.30328029497810033 0.021783903891390021 0.28253879297347295 0.0079677915236070034 0.35042069117228186 0.010742660327391192 -0.054834269377188861 0.5080599631071091 0.38229906842216027 0.44578970859188061 0.40869132005251374
leaf_weight=56 22 24 21 21 28 28 28 21 26 29 258 29 21 20 23 36 21 24 439 22 21 20 20 23 21 11805 39 143 190 25
leaf_count=56 22 24 21 21 28 28 28 21 26 29 258 29 21 20 23 36 21 24 439 22 21 20 20 23 21 11805 39 143 190 25
internal_value=8.635e-05 -0.0512524 0.446516 0.373866 0.0995858 0.260329 0.139713 0.498485 0.164515 0.345317 0.508105 0.162144 0.382346 0.412395 0.189828 0.208437 0.157094 0.262092 0.502045 0.410922 0.0973885 0.419254 0.084627 0.436855 -0.0545963 -0.0547141 0.425467 0.4304 0.419781 0.521728
internal_weight=13504 12112 1392 584 262 150 206 808 178 79 743 71 65 434 150 127 67 60 722 51 42 412 41 44 11850 11829 392 372 333 464
internal_count=13504 12112 1392 584 262 150 206 808 178 79 743 71 65 434 150 127 67 60 722 51 42 412 41 44 11850 11829 392 372 333 464
is_linear=0
shrinkage=0.02


Tree=10
num_leaves=31
num_cat=0
split_feature=14 1 69 134 0 86 59 97 18 49 75 26 40 78 18 0 9 11 13 114 55 87 80 10 54 1 78 67 4 49
split_gain=743530 14696.2 12119.7 6890.9 3755.54 3405.72 1955.78 1711.38 1484.06 1183.69 1076.91 934.658 997.886 914.581 678.316 737.873 1199.95 750.783 684.396 589.199 586.499 577.345 526.435 492.497 221.488 201.707 189.414 160.018 137.978 147.955
threshold=59.250000000000007 1.0000000180025095e-35 225.10476190476194 10.500000000000002 8.0000000794728603 8.7581289955110382 0.13809523809523813 0.21291208791208796 -0.70833333333333315 163.87500000000003 0.85696390877521744 6.1499999240040788 8.0625000000000018 1.0000000180025095e-35 13.125000000000002 16.166667143503826 0.58333333333333337 117.90000000000002 70.506000518798842 0.97436785283045679 1.8229166666666667 30.691712770082898 1.556358521011753 227.50000000000003 8.7750000000000021 1.8333333333333337 46.197330386567373 25.677083333333339 228.16666666666671 201.75000000000003
decision_type=2 2 2 2 2 2 2 2 2 2 2 2 2 2 2 2 2 2 2 2 2 2 2 2 2 2 2 2 2 2
left_child=1 4 3 11 -1 23 8 9 -6 -7 -4 22 27 -12 15 16 -10 -18 -17 -11 21 -15 -2 -5 25 -3 -14 -13 29 -29
right_child=2 24 10 5 6 7 -8 -9 14 19 13 12 26 20 -16 18 17 -19 -20 -21 -22 -23 -24 -25 -26 -27 -28 28 -30 -31
leaf_value=-0.04677494203835203 0.3813716386712116 0.0037635972976684572 0.33005866577227916 0.029759922935849142 0.026179042458534241 0.20274405934593895 -0.017500973374679173 0.16055854808401179 0.25855382399426569 0.30293933307423315 0.67172347386678055 0.39369449218114222 0.25286730913888839 0.39139129153469154 0.080677024088799953 0.31391677959545239 0.16757943883128021 -0.0010224205797368829 0.16211372127532958 0.44416235720857666 0.53636401525818478 0.48818433009569917 0.21761450498000437 0.1666597331315279 0.010537573966113004 -0.053737676931744249 0.36678668966999761 0.45055013955907619 0.48090509019579208 0.37057003490626811
leaf_weight=56 22 24 23 20 28 21 28 26 26 33 20 110 20 56 23 36 20 21 24 46 201 401 22 23 21 11805 53 93 139 63
leaf_count=56 22 24 23 20 28 21 28 26 26 33 20 110 20 56 23 36 20 21 24 46 201 401 22 23 21 11805 53 93 139 63
internal_value=9.64646e-05 -0.0502257 0.437686 0.376755 0.0976697 0.262622 0.137021 0.314969 0.161345 0.353029 0.497112 0.413114 0.422258 0.50227 0.18617 0.204417 0.154083 0.0830161 0.257013 0.38982 0.496092 0.477226 0.306371 0.105336 -0.0535044 -0.0536199 0.33955 0.436268 0.450726 0.42088
internal_weight=13504 12112 1392 691 262 169 206 126 178 100 701 522 478 678 150 127 67 41 60 79 658 457 44 43 11850 11829 73 405 295 156
internal_count=13504 12112 1392 691 262 169 206 126 178 100 701 522 478 678 150 127 67 41 60 79 658 457 44 43 11850 11829 73 405 295 156
is_linear=0
shrinkage=0.02


Tree=11
num_leaves=31
num_cat=0
split_feature=29 1 47 49 3 59 75 18 78 132 132 11 132 57 10 13 3 4 72 57 11 98 89 107 127 1 96 47 56 3
split_gain=714374 14128.3 11700.6 3724.28 3590.09 1753.27 1620.46 1462.45 1001.24 985.639 929.604 1983.02 1090.06 774.805 681.402 971.766 716.607 629.255 959.344 625.828 595.535 552.428 498.477 227.754 217.022 191.418 147.937 265.888 323.743 141.815
threshold=59.500000000000007 1.0000000180025095e-35 30.450000000000003 168.35416666666671 8.8825000286102309 0.13809523809523813 0.87493759392189829 -0.70833333333333315 1.0000000180025095e-35 -1.014986808595012 1.0000767466881053 142.50000000000003 1.2973276875281785 0.70714285714285718 269.30000000000001 58.073999404907234 13.200000429153445 202.16666666666671 0.46379514286915463 0.88194444444444453 119.10000000000001 0.43095238095238103 240.726345040967 1.2678571428571426 0.9988004062815613 1.8333333333333337 37.699999999999996 26.450000000000003 215.61250000000004 16.419999790191657
decision_type=2 2 2 2 2 2 2 2 2 2 2 2 2 2 2 2 2 2 2 2 2 2 2 2 2 2 2 2 2 2
left_child=1 4 3 9 -1 7 13 -6 -8 -2 11 19 -12 -4 15 16 -9 18 21 23 -17 -5 -10 -11 25 -3 27 28 -19 -22
right_child=2 24 6 17 5 -7 8 14 22 10 12 -13 -14 -15 -16 20 -18 26 -20 -21 29 -23 -24 -25 -26 -27 -28 -29 -30 -31
leaf_value=-0.04866832022233443 0.14004317306336903 0.0057365935781727665 0.44310060853543493 0.34608747694227432 0.024191955089569093 -0.016099369015012469 0.65810341228138314 0.12973705151081086 0.44699430687602976 0.35467037531794332 0.098014225278581904 0.15201402427061744 0.28835520311405782 0.29434746428539876 0.27849068399590371 0.17994574404188565 0.28417391415346754 0.40751162158406301 0.42025025701522828 0.25432091547095259 0.017863031682514012 0.20188464818462248 0.50034056645481528 0.47550439357757568 0.010938634438948198 -0.05265857572871737 0.33080551162362098 0.44087341142197456 0.28178092285438822 0.091156738386303185
leaf_weight=54 20 22 45 26 29 27 21 24 230 48 20 22 37 37 25 27 32 45 39 22 20 30 475 27 21 11807 31 191 26 24
leaf_count=54 20 22 45 26 29 27 21 24 230 48 20 22 37 37 25 27 32 45 39 22 20 30 475 27 21 11807 31 191 26 24
internal_value=0.000106032 -0.0492196 0.42903 0.359188 0.0957896 0.133394 0.478991 0.155715 0.489568 0.284545 0.300025 0.333906 0.224583 0.380456 0.180421 0.159013 0.221599 0.396041 0.337842 0.373085 0.107118 0.273909 0.483609 0.403986 -0.0524344 -0.0525486 0.413664 0.422134 0.366161 0.0592009
internal_weight=13504 12112 1392 584 262 208 808 181 726 196 176 119 57 82 152 127 56 388 95 97 71 56 705 75 11850 11829 293 262 71 44
internal_count=13504 12112 1392 584 262 208 808 181 726 196 176 119 57 82 152 127 56 388 95 97 71 56 705 75 11850 11829 293 262 71 44
is_linear=0
shrinkage=0.02


Tree=12
num_leaves=31
num_cat=0
split_feature=14 47 67 49 75 97 57 78 91 96 114 136 123 62 2 2 2 0 126 11 51 78 11 5 46 14 18 35 8 116
split_gain=686363 11219 8094.12 3572.1 1553.72 1157.27 1025.15 940.147 909.937 1403.17 973.882 897.865 1218.56 1062.78 1269.85 908.649 1343.58 938.454 885.189 1214.76 882.198 838.283 775.2 774.856 703.839 569.377 545.187 526.669 479.343 392.981
threshold=59.250000000000007 30.450000000000003 1.3038461538461541 168.35416666666671 0.99933475196925459 0.14642857142857149 0.70714285714285718 1.0000000180025095e-35 0.30347622785644573 -21.208333333333325 1.232549009108338 1.0000000180025095e-35 0.94690760059612533 0.069047619047619066 5.166666666666667 34.166666666666679 21.166666666666668 16.006666819254558 0.28483860224246405 121.10000000000001 -1.2901262640953062 15.057760730647097 102.63333333333334 133.83333333333334 10.031000244617465 206.12500000000003 -1.0000000180025095e-35 1.8166666666666669 1.1666666666666667 1.2226336401526352
decision_type=2 2 2 2 2 2 2 2 2 2 2 2 2 2 2 2 2 2 2 2 2 2 2 2 2 2 2 2 2 2
left_child=2 3 11 8 6 29 -3 -6 9 -2 20 12 13 -1 -15 16 17 23 26 22 -11 24 -20 -16 -7 -8 -4 -9 -19 -5
right_child=1 4 18 5 7 21 25 27 -10 10 -12 -13 -14 14 15 -17 -18 28 19 -21 -22 -23 -24 -25 -26 -27 -28 -29 -30 -31
leaf_value=-0.049881347702983206 0.10206474294662476 0.44145004423837814 -0.019994605836959986 0.418558007579516 0.64553961537101046 0.23527411330829967 0.36709679831629216 0.45624462742275662 0.35324002388332576 0.33599882511349471 0.13813627822058541 -0.05322599780608564 -0.053310085342969264 -0.048820652864490749 0.1452399368584156 -0.043898069053698495 0.14560057290962763 -0.052242665886878967 0.13235038703138177 0.064028096705675122 0.17385897528041494 0.19414755935470265 0.31673435165768576 -0.010228185003454036 0.40261840874498539 0.19708753994532996 0.11398796097739883 0.50998342611434611 0.00310351178969866 0.30935202967736031
leaf_weight=601 24 62 25 271 21 21 22 449 55 76 20 8753 1594 330 31 156 27 73 21 34 21 23 20 21 43 20 22 234 404 30
leaf_count=601 24 62 25 271 21 21 22 449 55 76 20 8753 1594 330 31 156 27 73 21 34 21 23 20 21 43 20 22 234 404 30
internal_value=0.000115285 0.420546 -0.0482336 0.352152 0.46947 0.388248 0.38489 0.481387 0.279039 0.247741 0.276421 -0.0498866 -0.0408398 -0.0287103 -0.0164537 -0.00139068 0.0105753 0.00340306 0.113219 0.15558 0.303131 0.313304 0.227932 0.0832577 0.352327 0.292839 0.0435805 0.475389 -0.00543731 0.408767
internal_weight=13504 1392 12112 584 808 388 104 704 196 141 117 11990 3237 1643 1042 712 556 529 122 75 97 87 41 52 64 42 47 683 477 301
internal_count=13504 1392 12112 584 808 388 104 704 196 141 117 11990 3237 1643 1042 712 556 529 122 75 97 87 41 52 64 42 47 683 477 301
is_linear=0
shrinkage=0.02


Tree=13
num_leaves=31
num_cat=0
split_feature=14 1 47 134 0 66 20 17 55 4 16 118 18 87 16 12 127 40 91 9 4 134 136 130 1 1 1 13 13 118
split_gain=659404 13213.2 10768.6 5508.41 3398.06 2584.03 1804.17 1774.75 1499.18 1208.85 1032.84 1198.2 1834 863.357 861.702 724.434 689.12 559.207 510.706 354.967 806.266 302.117 258.741 381.959 574.685 988.158 579.213 306.274 258.847 206.014
threshold=59.250000000000007 1.0000000180025095e-35 30.450000000000003 10.500000000000002 8.0000000794728603 9.6645834135512541 0.29166666666666669 0.70833333333333337 0.81534090909090928 240.16666666666671 19.541666666666668 0.12935403426916584 13.583333333333334 37.000500500333509 292.87500000000006 227.50000000000003 0.70116731517509734 10.29166666666667 -0.44551566337095966 1.0000000180025095e-35 222.50000000000003 10.500000000000002 1.0000000180025095e-35 0.92312616960504301 55.500000000000007 55.166666666666679 5.416666666666667 61.967000198364268 62.317999649047856 0.65132581002492396
decision_type=2 2 2 2 2 2 2 2 2 2 2 2 2 2 2 2 2 2 2 2 2 2 2 2 2 2 2 2 2 2
left_child=1 4 3 16 -1 15 19 -7 14 -9 29 -12 -13 18 -4 -5 -2 -18 -10 -6 -21 -15 23 24 25 26 -3 -27 -29 -8
right_child=2 22 8 5 6 7 10 9 13 -11 11 12 -14 21 -16 -17 17 -19 -20 20 -22 -23 -24 -25 -26 27 -28 28 -30 -31
leaf_value=-0.044426904310259911 0.24797494991965915 0.056857872236342664 0.40612630558013918 0.030305150548617044 0.282704670996893 0.37980177530875575 -0.023489308905388629 0.10945057770301557 0.3993345914284388 0.31234969906184984 0 0.29641715826811615 0.05537164451984259 0.52683909086470904 0.22698652224107221 0.18522290658067775 0.39430131664409585 0.2559093888600667 0.46525399441082471 0.068049333583224902 0.22563536324152134 0.41310184955596924 -0.052172510496534735 -0.052068934724271258 -0.052963215038180356 -0.0540412219735079 -0.050746414311526954 0.0079212504850243622 -0.052609642551791284 0.053196297873343734
leaf_weight=56 22 20 44 23 20 51 27 28 125 22 20 26 25 187 21 26 392 20 396 21 40 35 8720 1638 607 42 476 317 30 27
leaf_count=56 22 20 44 23 20 51 27 28 125 22 20 26 25 187 21 26 392 20 396 21 40 35 8720 1638 607 42 476 317 30 27
internal_value=0.00012188 -0.047268 0.412213 0.345204 0.0929655 0.23759 0.130397 0.295371 0.460147 0.203296 0.0815661 0.131188 0.181787 0.469045 0.352718 0.114767 0.381742 0.388243 0.450253 0.203719 0.173518 0.510885 -0.0503769 -0.0453562 -0.03795 -0.0275934 -0.0462817 -0.00368132 0.00252316 0.0149417
internal_weight=13504 12112 1392 584 262 150 206 101 808 50 125 71 51 743 65 49 434 412 521 81 61 222 11850 3130 1492 885 496 389 347 54
internal_count=13504 12112 1392 584 262 150 206 101 808 50 125 71 51 743 65 49 434 412 521 81 61 222 11850 3130 1492 885 496 389 347 54
is_linear=0
shrinkage=0.02


Tree=14
num_leaves=31
num_cat=0
split_feature=14 1 69 34 3 20 16 118 30 75 132 132 132 78 97 66 115 2 7 38 78 55 127 20 2 87 16 2 72 136
split_gain=633469 12702.9 10355.1 3841.13 3245.62 1623.2 1059.95 1068.31 1689.54 958.947 945.16 962.989 863.347 852.511 675.283 642.396 1266.71 641.653 620.366 612.172 907.959 572.462 551.67 648.83 701.843 527.507 380.339 374.492 323.937 248.348
threshold=59.250000000000007 1.0000000180025095e-35 225.10476190476194 166.93750000000003 8.8825000286102309 0.29166666666666669 21.625000000000004 0.1753481642249955 13.583333333333334 0.85696390877521744 -1.014986808595012 1.0000767466881053 1.3463686109408435 1.0000000180025095e-35 0.21291208791208796 5.2624999936670074 0.70106382978723414 13.16666666666667 59.869999567667655 5.6904761904761916 15.057760730647097 1.8229166666666667 0.93490955252300867 8.1250000000000018 10.833333333333334 30.691712770082898 353.87500000000006 14.16666666666667 -0.472911879935834 1.0000000180025095e-35
decision_type=2 2 2 2 2 2 2 2 2 2 2 2 2 2 2 2 2 2 2 2 2 2 2 2 2 2 2 2 2 2
left_child=1 4 3 10 -1 17 -7 -8 -9 -4 -2 15 -13 -11 22 -12 -17 -6 -19 -16 -21 25 28 24 -24 -15 -27 -26 -5 -3
right_child=2 29 9 14 5 6 7 8 -10 13 11 12 -14 21 19 16 -18 18 -20 20 -22 -23 23 -25 27 26 -28 -29 -30 -31
leaf_value=-0.04617013348232616 0.13402624867179178 -0.044450495476846083 0.3025050469239553 0.26590210091854849 0.25429494886863524 0.018862303842897301 0.012382040591466994 0.31038492886916452 0.063761133799950284 0.624589566276187 0.22359469857066872 0.096202477387019578 0.2673587751710737 0.35932411762706018 0.19744627680097307 0.22200720882415773 0.39631175307666555 0.053487783968448638 0.20810595662697501 0.41375485317127125 0.23286597805023193 0.49646182869920635 0.48523559820652012 0.32165943152308468 0.30774683972199757 0.45616986546840971 0.32106227738516674 0.41191641056368539 0.36909615449502431 -0.051129180736845754
leaf_weight=54 21 3130 23 34 40 60 20 22 23 20 31 20 36 56 20 29 67 21 22 36 24 201 79 49 35 381 20 140 70 8720
leaf_count=54 21 3130 23 34 40 60 20 22 23 20 31 20 36 56 20 29 67 21 22 36 24 201 79 49 35 381 20 140 70 8720
internal_value=0.000127053 -0.0463215 0.404033 0.347711 0.0911774 0.126933 0.0802361 0.135593 0.188677 0.458964 0.271588 0.286505 0.209167 0.463803 0.378955 0.318628 0.346592 0.195348 0.135754 0.312308 0.346567 0.45796 0.391234 0.408194 0.423521 0.439958 0.450272 0.393006 0.338309 -0.0493698
internal_weight=13504 12112 1392 691 262 208 125 65 45 701 204 183 56 678 487 127 96 83 43 80 60 658 407 303 254 457 401 175 104 11850
internal_count=13504 12112 1392 691 262 208 125 65 45 701 204 183 56 678 487 127 96 83 43 80 60 658 407 303 254 457 401 175 104 11850
is_linear=0
shrinkage=0.02


Tree=15
num_leaves=31
num_cat=0
split_feature=14 1 47 49 3 59 89 18 97 132 132 132 78 115 47 5 46 56 18 3 90 8 4 8 78 85 4 80 136 1
split_gain=608661 12212.4 9948.15 3225.28 3121.25 1568.69 1397.69 1301.36 1071.54 893.759 851.443 1002.6 791.889 740.764 729.14 1222.31 673.196 608.663 579.183 803.913 588.056 597.579 569.069 531.101 414.057 412.83 408.775 461.877 238.452 361.096
threshold=59.250000000000007 1.0000000180025095e-35 30.450000000000003 168.35416666666671 8.8825000286102309 0.13809523809523813 240.726345040967 -0.70833333333333315 0.14642857142857149 -1.014986808595012 1.0000767466881053 1.2973276875281785 15.057760730647097 0.37668918918918926 22.866071428571434 121.83333333333336 10.031000244617465 306.23333333333341 13.125000000000002 13.036666615804039 5.4015989485241311 1.8333333333333337 264.16666666666669 1.5833333333333337 0.49840589440626704 0.80093236012107605 200.83333333333334 2.9985267371106086 1.0000000180025095e-35 55.500000000000007
decision_type=2 2 2 2 2 2 2 2 2 2 2 2 2 2 2 2 2 2 2 2 2 2 2 2 2 2 2 2 2 2
left_child=1 4 3 9 -1 7 17 -6 26 -2 14 -12 16 -8 15 -11 -10 22 19 -9 23 -22 -4 -21 -15 -17 27 -5 29 -3
right_child=2 28 6 8 5 -7 13 18 12 10 11 -13 -14 24 -16 25 -18 -19 -20 20 21 -23 -24 -25 -26 -27 -28 -29 -30 -31
leaf_value=-0.045263519265434961 0.12537237553369432 -0.03685762253580064 0.38777627223375299 0.24510816105206806 0.021565195957819625 -0.016849454444433962 0.32039529363314306 0.073426398833592726 0.21881082984534178 0.42340969562530517 0.084573727335248677 0.26626185621085918 0.17931263367335004 0.60489169870104109 0.21541634447434369 0.17294293369565691 0.38068346679210663 0.27462099956969421 0.071498015536150594 0.070511532736861185 0.2909059900244077 0.14502875316710701 0.47553352982657293 0.21697880381629581 0.46435968248305787 0.316312357711792 0.40224668813933584 0.37509989307040259 -0.050106713220677015 -0.050573292826232213
leaf_weight=54 20 1604 209 29 29 27 23 23 21 42 20 37 23 20 33 20 43 23 23 22 44 20 69 20 464 24 231 41 8720 1526
leaf_count=54 20 1604 209 29 29 27 23 23 21 42 20 37 23 20 33 20 43 23 23 22 44 20 69 20 464 24 231 41 8720 1526
internal_value=0.000136248 -0.0453937 0.396055 0.331647 0.0894242 0.124488 0.442127 0.145603 0.365928 0.262219 0.276917 0.205241 0.294175 0.465235 0.30917 0.342141 0.331906 0.401759 0.168908 0.185515 0.208829 0.248406 0.41122 0.143914 0.471423 0.256658 0.385592 0.325598 -0.0483826 -0.0435618
internal_weight=13504 12112 1392 584 262 208 808 181 388 196 176 57 87 507 119 86 64 301 152 129 106 64 278 42 484 44 301 70 11850 3130
internal_count=13504 12112 1392 584 262 208 808 181 388 196 176 57 87 507 119 86 64 301 152 129 106 64 278 42 484 44 301 70 11850 3130
is_linear=0
shrinkage=0.02


Tree=16
num_leaves=31
num_cat=0
split_feature=14 1 69 134 0 66 79 98 134 97 12 78 55 68 26 2 76 2 114 67 0 51 80 65 127 67 116 78 76 16
split_gain=584792 11740.4 9560.63 6098.86 3036.87 2825.24 1622.03 1490.56 1285.57 1127.53 982.548 895.479 819.842 791.054 1018.75 768.675 745.867 717.975 691.844 578.827 520.899 634.586 517.755 451.313 367.971 736.477 410.951 303.861 289.537 511.841
threshold=59.250000000000007 1.0000000180025095e-35 225.10476190476194 10.500000000000002 8.0000000794728603 9.6645834135512541 0.13751404152497446 -3.190972222222221 10.500000000000002 0.21291208791208796 219.70000000000002 1.0000000180025095e-35 1.8229166666666667 8.3229166666666696 6.1499999240040788 15.16666666666667 263.38889520912329 24.166666666666668 0.99987751102400801 37.261363636363647 13.09666665395101 -1.9836990709106124 1.556358521011753 1.310096153846154 0.96433870284018652 25.093750000000004 1.1844913756351403 54.307702067137789 235.21207584910402 271.29166666666669
decision_type=2 2 2 2 2 2 2 2 2 2 2 2 2 2 2 2 2 2 2 2 2 2 2 2 2 2 2 2 2 2
left_child=1 4 3 13 -1 10 8 -7 17 18 -5 -4 15 14 22 16 -13 -6 -9 28 -10 -22 -2 -18 25 -16 -26 -15 -17 -30
right_child=2 -3 11 5 6 7 -8 9 20 -11 -12 12 -14 27 24 19 23 -19 -20 -21 21 -23 -24 -25 26 -27 -28 -29 29 -31
leaf_value=-0.042174388734917898 0.34490566834159514 -0.047415244491047399 0.60137765952519018 -0.0022638104991479354 0.22046906313486397 0.41981219892148619 -0.017555485488525754 0.2010109532220023 -0.0017398625341328708 0.099011206399826773 0.1711609172119814 0.41907640971308169 0.4775730007709843 0.21084686689078808 0.22695037990808486 0.3188899139121727 0.21816898345947267 0.080043403144393649 0.34301873538229205 0.51142136167077457 0.037646070939523206 0.17218144666064869 0.18748593995104668 0.35194928116994362 0.43123279752938642 0.37288058911931926 0.35667795186514384 0.32685711076524521 0.46513498364324157 0.36855017507777499
leaf_weight=56 22 11850 20 21 79 26 28 34 21 20 33 114 201 23 23 26 20 20 35 67 26 32 22 72 183 115 90 44 114 67
leaf_count=56 22 11850 20 21 79 26 28 34 21 20 33 114 201 23 23 26 20 20 35 67 26 32 22 72 183 115 90 44 114 67
internal_value=0.000143627 -0.0444846 0.388221 0.3341 0.0877017 0.227046 0.123089 0.283002 0.145244 0.238703 0.104721 0.441004 0.435405 0.36824 0.378948 0.41677 0.379167 0.193284 0.277058 0.443522 0.0832519 0.113702 0.272333 0.325633 0.389649 0.350439 0.408082 0.290866 0.419144 0.431659
internal_weight=13504 12112 1392 691 262 169 206 115 178 89 54 701 681 522 455 480 206 99 69 274 79 58 44 92 411 138 273 67 207 181
internal_count=13504 12112 1392 691 262 169 206 115 178 89 54 701 681 522 455 480 206 99 69 274 79 58 44 92 411 138 273 67 207 181
is_linear=0
shrinkage=0.02


Tree=17
num_leaves=31
num_cat=0
split_feature=14 47 27 134 56 17 56 89 16 134 0 136 124 124 3 114 48 29 48 56 47 11 5 67 3 3 13 6 3 5
split_gain=561923 9208.46 7040.81 4954.77 2341.42 1454.15 1718.68 1288.06 1057.93 983.637 885.344 744.893 1215.1 1123.64 664.087 606.976 540.72 528.571 564.916 492.161 474.451 430.936 441.442 398.625 335.018 715.698 376.37 288.616 224.314 424.265
threshold=59.250000000000007 30.450000000000003 1.2916666666666667 10.500000000000002 187.07142857142858 0.70833333333333337 228.04166666666671 240.726345040967 312.87500000000006 17.500000000000004 16.283333301544193 1.0000000180025095e-35 0.9546596619460942 0.95266106442577037 15.184000205993653 0.86204699082620939 5.2678571428571432 98.750000000000014 10.29166666666667 290.43750000000006 4.8000000000000007 100.90000000000002 133.83333333333334 37.225000000000009 10.395999956130984 13.939999723434449 61.852000427246104 238.50000000000003 25.059999656677249 123.83333333333336
decision_type=2 2 2 2 2 2 2 2 2 2 2 2 2 2 2 2 2 2 2 2 2 2 2 2 2 2 2 2 2 2
left_child=2 3 11 17 14 -6 -7 8 16 23 15 12 13 -1 -5 -4 27 -2 -19 -10 -12 -15 24 -9 -23 -26 -27 -3 29 -28
right_child=1 7 10 4 5 6 -8 9 19 -11 20 -13 -14 21 -16 -17 -18 18 -20 -21 -22 22 -24 -25 25 26 28 -29 -30 -31
leaf_value=-0.048475318860344105 0.25595025707693664 0.38046765797788445 -0.011972034851024891 0.1604529113629285 0.3617238875495063 0.28424730861888209 0.047170700572785877 0.43383100514318429 0.34850760051182345 0.32154421183798049 0.10071031882294587 -0.048137591193408866 -0.048522001553984249 -0.040340863891531908 0.013882920742034913 0.11395064875935063 0.32054699408764742 0.36666073664657151 0.23165184202648345 0.18648286331267586 0.22415193212032317 -0.049377518124050564 -0.028314029946628766 0.49269109425090607 0.088864128708839404 -0.033402439075357775 0.007941833687081578 0.45499865672701878 -0.047501586217146653 0.096534120932869297
leaf_weight=502 33 109 28 33 44 33 20 305 20 35 27 8759 1699 177 20 32 48 381 20 20 29 44 252 167 39 101 376 104 25 22
leaf_count=502 33 109 28 33 44 33 20 305 20 35 27 8759 1699 177 20 32 48 381 20 20 29 44 252 167 39 101 376 104 25 22
internal_value=0.000152637 0.380566 -0.0435943 0.3186 0.216685 0.275026 0.1975 0.424892 0.386119 0.447087 0.110834 -0.0450975 -0.036856 -0.0239392 0.10661 0.0557899 0.402111 0.353222 0.360545 0.274263 0.167622 -0.0120051 -0.00611466 0.455675 0.00311652 0.00731708 0.00107098 0.418861 0.00938518 0.0130936
internal_weight=13504 1392 12112 584 150 97 53 808 301 507 116 11996 3237 1538 53 60 261 434 401 40 56 1036 859 472 607 563 524 213 423 398
internal_count=13504 1392 12112 584 150 97 53 808 301 507 116 11996 3237 1538 53 60 261 434 401 40 56 1036 859 472 607 563 524 213 423 398
is_linear=0
shrinkage=0.02


Tree=18
num_leaves=31
num_cat=0
split_feature=14 69 27 134 86 98 114 52 8 5 60 27 87 87 136 124 124 2 2 114 35 134 3 3 2 11 126 87 16 87
split_gain=539849 8856.06 6768.68 5642.47 2739.29 1548.64 1415.45 908.968 852.234 1002.76 751.581 778.882 877.986 746.724 715.258 1166.91 1079.22 727.525 1295.06 655.185 620.811 609.405 564.301 946.53 837.668 482.659 482.112 398.59 459.317 429.639
threshold=59.250000000000007 225.10476190476194 1.2916666666666667 10.500000000000002 8.7581289955110382 -3.190972222222221 0.99987751102400801 -0.32804478837975432 1.5833333333333337 117.50000000000001 8.3229166666666696 21.625000000000004 17.324719610176803 37.000500500333509 1.0000000180025095e-35 0.9546596619460942 0.95266106442577037 60.166666666666679 5.166666666666667 1.1080775611359448 1.8166666666666669 10.500000000000002 16.640000295639041 13.036666615804039 19.500000000000004 115.30000000000003 0.64086314193668514 30.691712770082898 325.12500000000006 35.149867555926143
decision_type=2 2 2 2 2 2 2 2 2 2 2 2 2 2 2 2 2 2 2 2 2 2 2 2 2 2 2 2 2 2
left_child=2 3 14 10 -5 -6 7 -7 26 -10 11 12 -2 20 15 16 -1 18 -18 -8 27 -15 23 -20 -24 -25 -4 -3 29 -29
right_child=1 13 8 4 5 6 19 -9 9 -11 -12 -13 -14 21 -16 -17 17 -19 22 -21 -22 -23 24 25 -26 -27 -28 28 -30 -31
leaf_value=-0.047507740287610123 0.3730018846612228 0.30184389136558354 -0.0044249354559799722 0.077474748184057807 0.40514525802047169 0.05313745479583741 0.36920471191406251 0.22308688258302625 0.26486675520737968 0.086183014444766504 0.27867325651295044 0.37815834095611928 0.22692950409391655 0.48029746672913837 -0.047174947815344426 -0.04755213243680842 -0.041538961077890083 -0.044914299786373339 -0.011287182241678238 0.19770136889957246 0.44341085450123935 0.35599735101064051 -0.0024943428324616474 0.19062066023999993 0.096410282173672229 0.05664089479446411 0.10574613915549386 0.42146528051307164 0.28914609530876423 0.32449312877655034
leaf_weight=502 37 42 28 43 26 24 28 28 23 30 67 373 45 184 8759 1699 247 210 39 20 176 35 459 21 36 24 35 192 28 44
leaf_count=502 37 42 28 43 26 24 28 28 23 30 67 373 45 184 8759 1699 247 210 39 20 176 35 459 21 36 24 35 192 28 44
internal_value=0.000157074 0.373024 -0.042722 0.320937 0.217967 0.264847 0.22462 0.14732 0.108692 0.167379 0.353774 0.364176 0.296661 0.423824 -0.0441959 -0.0361197 -0.0234613 -0.0117653 -0.00328137 0.303442 0.405452 0.462186 0.0130655 0.0606846 0.00485843 0.122167 0.0573209 0.382213 0.393774 0.404873
internal_weight=13504 1392 12112 691 169 126 100 52 116 53 522 455 82 701 11996 3237 1538 1036 826 48 482 219 579 84 495 45 63 306 264 236
internal_count=13504 1392 12112 691 169 126 100 52 116 53 522 455 82 701 11996 3237 1538 1036 826 48 482 219 579 84 495 45 63 306 264 236
is_linear=0
shrinkage=0.02


Tree=19
num_leaves=31
num_cat=0
split_feature=27 1 69 134 0 98 10 134 28 32 75 60 78 46 126 8 40 127 67 55 10 2 5 67 3 46 34 127 30 96
split_gain=518694 12266.7 7644.46 4937.4 2939.35 2456.81 1562.42 1476.86 1245.51 1144.81 893.61 807.445 800.127 657.798 647.226 738.561 579.486 524.185 821.017 521.037 401.641 1024.2 403.152 396.97 370.542 323.658 299.58 298.91 497.198 342.917
threshold=12.625000000000002 1.0000000180025095e-35 225.10476190476194 10.500000000000002 8.0000000794728603 -3.3944444444444435 205.70000000000002 10.500000000000002 2.8750000000000004 -0.44252500683069224 0.85696390877521744 8.3229166666666696 1.0000000180025095e-35 5.262500014156104 0.266841181706513 1.5833333333333337 2.4642857142857149 0.9752534617085703 25.093750000000004 1.8229166666666667 262.50000000000006 13.16666666666667 138.83333333333334 31.281250000000004 11.880000019073487 16.694999843835834 220.81250000000003 1.0044223959584377 29.125000000000004 -42.562499999999993
decision_type=2 2 2 2 2 2 2 2 2 2 2 2 2 2 2 2 2 2 2 2 2 2 2 2 2 2 2 2 2 2
left_child=1 4 3 11 -1 -5 -7 8 20 -8 -4 13 -12 -2 -9 -16 -11 18 -15 23 21 -6 -23 -14 -20 -13 -19 28 29 -25
right_child=2 -3 10 5 7 6 9 14 -10 16 12 25 19 17 15 -17 -18 26 24 -21 -22 22 -24 27 -26 -27 -28 -29 -30 -31
leaf_value=-0.039832490473462823 0.22841716549613261 -0.044641651487253908 0.26766437629858653 0.40162600297194262 0.24703662187625203 0.061404100586386297 0.13059775388240813 -0.012663506396347658 0.024577778256074951 0.35003454359514374 0.57198568446295606 0.19382574856281282 0.33256051967393108 0.20339290208816529 0.041155000052281787 0.17623632103204728 0.21188413992906227 0.3978251934424043 0.24416446035558526 0.45040262235273232 0.27856333878907291 0.045342697569957145 0.16755583592823572 0.34247478031343032 0.36731256580352784 0.30921202891568345 0.3026160271220974 0.37258078431771474 0.31581401024545946 0.45570667636850493
leaf_weight=56 21 11851 23 25 38 33 39 31 21 27 20 23 66 24 41 27 38 239 21 201 21 25 20 30 104 44 34 152 27 182
leaf_count=56 21 11851 23 25 38 33 39 31 21 27 20 23 66 24 41 27 38 239 21 201 21 25 20 30 104 44 34 152 27 182
internal_value=0.000162659 -0.0415475 0.368458 0.318906 0.0890696 0.21999 0.184102 0.121373 0.166993 0.221984 0.415423 0.349815 0.42002 0.360741 0.0625789 0.096712 0.273855 0.366747 0.326962 0.414524 0.195147 0.170857 0.102339 0.397773 0.348805 0.273182 0.387152 0.407879 0.428641 0.441413
internal_weight=13504 12131 1373 672 280 162 137 224 125 104 701 510 678 443 99 68 65 422 149 658 104 83 45 457 125 67 273 391 239 212
internal_count=13504 12131 1373 672 280 162 137 224 125 104 701 510 678 443 99 68 65 422 149 658 104 83 45 457 125 67 273 391 239 212
is_linear=0
shrinkage=0.02


Tree=20
num_leaves=31
num_cat=0
split_feature=27 1 89 134 98 0 10 134 20 34 134 116 46 27 91 0 66 79 11 57 80 127 7 10 2 5 80 87 38 54
split_gain=498392 11793.4 7350.57 4864.74 2840.3 2826.77 1707.87 1420.67 1197.81 981.833 768.615 622.984 613.396 577.121 541.984 587.782 871.806 530.011 603.168 492.595 458.462 438.617 397.339 386.68 983.82 387.905 310.758 291.843 280.113 272.832
threshold=12.625000000000002 1.0000000180025095e-35 240.726345040967 10.500000000000002 -3.3944444444444435 8.0000000794728603 205.70000000000002 10.500000000000002 2.8750000000000004 187.06250000000003 17.500000000000004 1.041931549917209 12.659999877214434 25.125000000000004 -3.2782549554619451 13.899999777475996 3.5911538639893901 0.57899829047176754 121.7 0.65476190476190488 7.9979989994997505 0.99476080754882601 63.056667327880866 262.50000000000006 13.16666666666667 138.83333333333334 3.0019447184585601 36.621275572982022 15.267857142857144 8.7750000000000021
decision_type=2 2 2 2 2 2 2 2 2 2 2 2 2 2 2 2 2 2 2 2 2 2 2 2 2 2 2 2 2 2
left_child=1 5 3 13 -5 -1 -6 8 23 11 17 21 -11 19 -9 -16 -17 18 -4 -2 22 -8 -15 24 -7 -26 -21 -20 -24 -3
right_child=2 29 10 4 6 7 9 14 -10 12 -12 -13 -14 20 15 16 -18 -19 27 26 -22 -23 28 -25 25 -27 -28 -29 -30 -31
leaf_value=-0.03904981619433353 0.34195611420719102 -0.043880475698188509 0.46060662010289505 0.41206320254007978 0.068422219066156281 0.24222257210658146 0.14533500765951782 -0.010826122999191284 0.024108566714620052 0.37145009013322688 0.31079446548070666 0.072355238028935023 0.22079395083820116 0.34689430416120914 0.004583543759325277 0.20932101781551654 0.037660301591580118 0.33021029627323151 0.36063162776402069 0.17498282432556153 0.29805099695920945 0.2840718124026344 0.36929338239133358 0.27324530980803752 0.044470723042121296 0.16436429545992898 0.28823438455892164 0.43571252101411423 0.44954877881442801 0.025397180992624033
leaf_weight=56 86 11829 263 29 35 38 25 29 21 25 38 20 33 242 22 25 23 39 104 22 69 20 119 21 25 20 42 95 67 22
leaf_count=56 86 11829 263 29 35 38 25 29 21 25 38 20 33 242 22 25 23 39 104 22 69 20 119 21 25 20 42 95 67 22
internal_value=0.000170712 -0.040715 0.361186 0.322869 0.230391 0.0873571 0.194601 0.119036 0.163781 0.229584 0.419749 0.170965 0.291097 0.349186 0.0613683 0.0911495 0.129718 0.427357 0.434805 0.305887 0.361593 0.212048 0.371095 0.19139 0.167554 0.100389 0.252749 0.398524 0.400505 -0.0437489
internal_weight=13504 12131 1373 834 187 280 158 224 125 123 539 65 58 647 99 70 48 501 462 150 497 45 428 104 83 45 64 199 186 11851
internal_count=13504 12131 1373 834 187 280 158 224 125 123 539 65 58 647 99 70 48 501 462 150 497 45 428 104 83 45 64 199 186 11851
is_linear=0
shrinkage=0.02


Tree=21
num_leaves=31
num_cat=0
split_feature=27 27 89 134 46 10 131 111 134 97 57 46 67 30 134 79 10 27 16 16 65 51 78 67 3 63 63 2 2 2
split_gain=478861 7795.19 7055.33 4662.98 2496.07 1394.15 1159.31 1010.28 735.654 722.42 682.213 556.885 513.589 914.948 798.898 506.393 428.813 376.279 736.145 526.625 474.342 423.021 464.028 316.422 291.823 274.641 2689.38 921.866 770.022 1477.44
threshold=12.625000000000002 1.2916666666666667 240.726345040967 10.500000000000002 8.6999999731779116 217.10000000000002 0.83994076836038567 0.92131715038170425 17.500000000000004 0.19722222222222222 0.59166666666666679 5.262500014156104 12.250000000000002 14.125000000000002 17.500000000000004 0.57899829047176754 227.50000000000003 25.125000000000004 161.12500000000003 309.87500000000006 1.2264957264957268 6.528563457408123 38.795931161468296 42.045454545454554 13.764000129699708 1.8944444444444446 1.8819444444444446 5.166666666666667 34.166666666666679 21.166666666666668
decision_type=2 2 2 2 2 2 2 2 2 2 2 2 2 2 2 2 2 2 2 2 2 2 2 2 2 2 2 2 2 2
left_child=1 25 3 11 16 6 -6 12 15 10 -7 -2 13 14 -3 23 -5 18 -13 21 -20 22 24 -4 -19 26 -1 -28 29 -29
right_child=2 7 8 4 5 9 -8 -9 -10 -11 -12 17 -14 -15 -16 -17 -18 19 20 -21 -22 -23 -24 -25 -26 -27 27 28 -30 -31
leaf_value=-0.044298072786638575 0.21836683750152588 0.22280128794908524 0.41742650297605932 0.024924998944220334 0.051208366552988695 0.23607083854675293 0.25165935949484508 0.23970199562254407 0.30473795878581511 0.1942572587987651 0.39023803625106807 0.36085257172584534 -0.0026291178837378869 0.0043990544367719583 0.081372424513101574 0.32377119717001918 0.15181226220997898 0.33884934133575079 0.1822516317665577 0.27242264726426868 0.30090551398521248 0.26710439035969397 0.30753656627426684 0.51264265411778509 0.39954835955007573 -0.044499761993911056 -0.039974621230089519 0.00979574375534638 -0.036181583787402966 0.17387570194576096
leaf_weight=4787 21 29 425 22 20 24 29 20 38 22 49 63 21 26 39 39 21 104 31 44 42 30 70 37 242 6321 238 492 136 22
leaf_count=4787 21 29 425 22 20 24 29 20 38 22 49 63 21 26 39 39 21 104 31 44 42 30 70 37 242 6321 238 492 136 22
internal_value=0.000177535 -0.0398991 0.354049 0.316507 0.225957 0.26584 0.172703 0.110688 0.411425 0.311475 0.343563 0.342274 0.086292 0.106081 0.144187 0.418874 0.0891624 0.34606 0.305734 0.356586 0.253797 0.364239 0.370562 0.426164 0.382361 -0.0416037 -0.0383688 -0.00638062 0.00594711 0.017162
internal_weight=13504 12131 1373 834 187 144 49 135 539 95 73 647 115 94 68 501 43 626 136 490 73 446 416 462 346 11996 5675 888 650 514
internal_count=13504 12131 1373 834 187 144 49 135 539 95 73 647 115 94 68 501 43 626 136 490 73 446 416 462 346 11996 5675 888 650 514
is_linear=0
shrinkage=0.02


Tree=22
num_leaves=31
num_cat=0
split_feature=14 1 47 134 89 3 20 6 46 16 130 18 115 97 77 127 2 7 5 3 17 79 134 87 40 76 98 70 47 2
split_gain=460094 9650.42 7683.53 4187.82 2899.59 2489.69 1388.87 1123.03 1012.61 896.328 977.403 1513.78 710.538 592.175 588.5 1076 574.02 574.134 547.49 478.295 473.943 391.938 233.509 339.136 232.053 404.621 956.171 480.036 357.887 338.128
threshold=59.250000000000007 1.0000000180025095e-35 26.450000000000003 10.500000000000002 240.726345040967 8.8825000286102309 0.29166666666666669 259.50000000000006 8.0708332906166742 21.625000000000004 0.15655637254901963 13.583333333333334 0.37668918918918926 0.056623931623931652 0.66495572492276056 0.9159103197319346 13.16666666666667 59.869999567667655 102.16666666666667 19.619999599456794 1.0000000180025095e-35 0.57899829047176754 17.500000000000004 42.047402849216873 9.6458333333333339 259.66022371033034 1.6770833333333337 7.0500000000000007 31.866071428571434 11.833333333333334
decision_type=2 2 2 2 2 2 2 2 2 2 2 2 2 2 2 2 2 2 2 2 2 2 2 2 2 2 2 2 2 2
left_child=1 5 3 14 8 -1 16 13 -4 -8 -11 -12 -6 -5 -2 -16 -7 -18 -17 20 -10 22 23 -14 25 27 29 28 -22 -27
right_child=2 -3 4 7 12 6 9 -9 19 10 11 -13 21 -15 15 18 17 -19 -20 -21 24 -23 -24 -25 -26 26 -28 -29 -30 -31
leaf_value=-0.039843984495509757 0.32951958002537252 -0.042058925308257597 0.17916461188168753 0.13445434702409281 0.26795354098081592 0.23048024535179137 0.012281926097195656 0.24484156312942507 0.21751379430294038 0.00217992332963539 0.28538072959236477 0.05245182190090418 0.41176857057569088 0.0090982557226110383 0.11981987300126448 0.38430347851344515 0.040647702704776412 0.18851235679958175 0.2255657748381297 0.38745770594395629 0.23296259315390339 0.32045536991953855 0.32501047253608706 0.50896752859289585 0.24691549685266281 0.42176426932925271 0.18962258179982502 0.3675944775231183 0.35502283719869759 0.28646020464780853
leaf_weight=54 126 11850 20 36 23 40 60 24 23 20 22 23 410 26 22 20 21 22 29 108 37 39 31 36 26 20 32 239 25 40
leaf_count=54 126 11850 20 36 23 40 60 24 23 20 22 23 410 26 22 20 21 22 29 108 37 39 31 36 26 20 32 239 25 40
internal_value=0.000183271 -0.0394018 0.344407 0.24945 0.368384 0.0804406 0.111757 0.130592 0.334742 0.0686316 0.119521 0.170274 0.403256 0.0830232 0.300365 0.244628 0.174997 0.119092 0.296947 0.340046 0.32759 0.408737 0.415249 0.420758 0.333076 0.33811 0.289026 0.352072 0.287193 0.3379
internal_weight=13504 12112 1392 283 1109 262 208 86 570 125 65 45 539 62 197 71 83 43 49 550 442 516 477 446 419 393 92 301 62 60
internal_count=13504 12112 1392 283 1109 262 208 86 570 125 65 45 539 62 197 71 83 43 49 550 442 516 477 446 419 393 92 301 62 60
is_linear=0
shrinkage=0.02


Tree=23
num_leaves=31
num_cat=0
split_feature=14 1 47 134 89 118 38 4 118 77 46 10 7 134 97 76 46 38 69 87 4 75 118 11 68 131 38 118 76 11
split_gain=442087 9277.97 7376.31 4022.42 2781 1397.28 1265.74 1080.46 992.582 1978.6 970.898 761.986 1083.86 681.347 569.255 511.541 1047.26 476.812 534.161 473.294 465.097 938.196 477.117 411.086 410.867 391.948 383.678 362.149 284.541 280.898
threshold=59.250000000000007 1.0000000180025095e-35 26.450000000000003 10.500000000000002 240.726345040967 0.12935403426916584 22.550000000000004 259.50000000000006 0.74676416970500503 0.66633058042130155 8.0708332906166742 268.10000000000008 68.73000017801921 17.500000000000004 0.056623931623931652 12.27133093975498 5.0562500506639489 27.062500000000004 99.833333333333357 37.000500500333509 214.16666666666671 0.61300901125959706 1.2969091157205244 117.50000000000001 2.4833333333333338 0.92453532080101075 52.645833333333336 0.55045128813504995 259.66022371033034 108.67500000000001
decision_type=2 2 2 2 2 2 2 2 2 2 2 2 2 2 2 2 2 2 2 2 2 2 2 2 2 2 2 2 2 2
left_child=1 5 3 8 10 25 11 14 9 27 -4 12 15 19 -5 16 -7 18 -10 23 22 -22 24 -6 -12 -1 28 -2 -23 -20
right_child=2 -3 4 7 13 6 -8 -9 17 -11 20 -13 -14 -15 -16 -17 -18 -19 29 -21 21 26 -24 -25 -26 -27 -28 -29 -30 -31
leaf_value=0.060855563403595062 0.34481344493230182 -0.041217817394489605 0.17575195170584182 0.13183793849236256 0.40965684736892582 0.004388796956308426 -0.045721742744956703 0.24014061255455019 0.24297706785656156 0.054363134474981402 0.23653040315423693 0.21755013773483889 0.0027099054389529758 0.29261690677740637 0.0089230313124480081 0.19451629137827289 0.15002074055752512 0.2538082194920534 0.46055258546556743 0.43490188290019932 0.21425376786635472 0.37973987822629968 0.21206466838717461 0.34542592836886038 0.33622266512025484 -0.046774430627992844 0.24676918723366478 0.21062854290008545 0.31355638342468367 0.33375079643158684
leaf_weight=20 29 11850 20 36 159 30 20 24 20 20 34 27 35 38 26 35 58 38 27 196 25 244 31 146 120 37 21 22 75 41
leaf_count=20 29 11850 20 36 159 30 20 24 20 20 34 27 35 38 26 35 58 38 27 196 25 244 31 146 120 37 21 22 75 41
internal_value=0.000190204 -0.0386125 0.337611 0.244567 0.361103 0.0788943 0.103149 0.128074 0.294467 0.22709 0.328151 0.119456 0.101367 0.39526 0.0814115 0.129112 0.101093 0.330268 0.35995 0.402427 0.333346 0.349443 0.299826 0.380172 0.315945 -0.00843899 0.358696 0.292286 0.365239 0.390188
internal_weight=13504 12112 1392 283 1109 262 205 86 197 71 570 185 158 539 62 123 88 126 88 501 550 365 185 305 154 57 340 51 319 68
internal_count=13504 12112 1392 283 1109 262 205 86 197 71 570 185 158 539 62 123 88 126 88 501 550 365 185 305 154 57 340 51 319 68
is_linear=0
shrinkage=0.02


Tree=24
num_leaves=31
num_cat=0
split_feature=27 27 69 134 86 97 49 111 78 55 56 40 118 74 80 32 5 136 124 124 2 2 2 0 136 134 4 2 93 0
split_gain=424908 6935.4 6313.22 4093.3 1887.83 1305.67 935.914 931.506 863.753 717.853 896.918 664.618 820.7 1690.97 758.794 632.377 731.733 612.533 1002.92 928.444 649.143 1189.51 1090.98 740.915 580.525 673.032 629.219 551.79 619.073 500.514
threshold=12.625000000000002 1.2916666666666667 225.10476190476194 10.500000000000002 8.7581289955110382 0.21291208791208796 163.87500000000003 0.92131715038170425 1.0000000180025095e-35 1.8229166666666667 300.21590909090918 8.0625000000000018 0.9980146722459734 167.77321751357184 2.4613831926194227 -0.33651105314493174 123.83333333333336 1.0000000180025095e-35 0.9546596619460942 0.95266106442577037 5.166666666666667 37.833333333333336 21.166666666666668 16.283333301544193 1.0000000180025095e-35 31.500000000000004 253.16666666666671 15.16666666666667 -0.39859945837221183 14.433333555857343
decision_type=2 2 2 2 2 2 2 2 2 2 2 2 2 2 2 2 2 2 2 2 2 2 2 2 2 2 2 2 2 2
left_child=1 17 3 11 -5 6 -6 24 -4 10 27 12 13 14 -2 -8 -17 18 19 -1 -21 22 23 -22 25 -3 -26 -10 -29 -15
right_child=2 7 8 4 5 -7 15 -9 9 -11 -12 -13 -14 29 -16 16 -18 -19 -20 20 21 -23 -24 -25 26 -27 -28 28 -30 -31
leaf_value=-0.042259511013865235 0.26449632133756362 0.16677856182982756 0.52678630681264971 0.070151426392166233 0.13553056932630994 0.1032933004476406 0.21316622907115565 0.22832276003701346 0.32890055477105334 0.40926351496931357 0.26447088198228313 0.25041113047583685 0.36020870272706196 0.27299550625342356 0.090963139434655518 0.41674974695841471 0.23274432454790389 -0.041919379424652486 -0.042288742430069866 -0.037335858931464537 0.077598881019013272 -0.037069892113100848 0.12760510253183768 0.00052573675576621693 -0.044796283292770384 0.037110520292605677 0.10018804923347804 0.49362035320651149 0.3716189565935305 0.35468794699791262
leaf_weight=502 20 42 20 37 20 26 30 20 173 201 54 73 204 78 23 29 20 8759 1699 247 55 242 32 460 24 27 22 30 223 112
leaf_count=502 20 42 20 37 20 26 30 20 173 201 54 73 204 78 23 29 20 8759 1699 247 55 242 32 460 24 27 22 30 223 112
internal_value=0.000196197 -0.0375552 0.333537 0.288508 0.198461 0.235503 0.268744 0.104484 0.376215 0.371013 0.354157 0.316648 0.327093 0.296641 0.17608 0.300228 0.348002 -0.0391631 -0.0316911 -0.0199577 -0.00911129 -0.000226726 0.0160928 0.00891066 0.0810775 0.117437 0.0249876 0.364856 0.388011 0.322808
internal_weight=13504 12131 1373 672 162 125 99 135 701 681 480 510 437 233 43 79 49 11996 3237 1538 1036 789 547 515 115 69 46 426 253 190
internal_count=13504 12131 1373 672 162 125 99 135 701 681 480 510 437 233 43 79 49 11996 3237 1538 1036 789 547 515 115 69 46 426 253 190
is_linear=0
shrinkage=0.02


Tree=25
num_leaves=31
num_cat=0
split_feature=29 1 34 89 134 3 28 134 118 77 77 4 3 118 36 134 2 18 36 92 111 4 79 11 45 3 60 87 52 111
split_gain=408126 8660.47 6761.49 3133.86 2771.96 2295.33 1342.88 1147.54 1047.74 1625.84 975.832 971.345 863.718 770.259 1301.56 653.128 600.778 598.847 594.708 568.842 537.172 514.458 465.732 620.092 459.682 673.3 439.352 291.977 244.242 221.95
threshold=59.500000000000007 1.0000000180025095e-35 166.93750000000003 240.726345040967 10.500000000000002 9.100000119209291 0.29166666666666669 24.500000000000004 0.93434506775386483 0.70508595538269236 0.75040560848146776 243.50000000000003 13.764000129699708 0.12935403426916584 23.000000000000004 17.500000000000004 13.16666666666667 12.875000000000002 311.20833333333343 -0.29941246454505538 -3.4001340682928758 233.16666666666671 0.57899829047176754 121.7 1.1547619047619049 12.422000098228457 6.2264957264957275 36.621275572982022 -0.24579091928899285 -1.7409435696899889
decision_type=2 2 2 2 2 2 2 2 2 2 2 2 2 2 2 2 2 2 2 2 2 2 2 2 2 2 2 2 2 2
left_child=1 5 4 7 8 -1 16 12 9 -2 19 28 24 -8 -15 22 -7 -16 20 -9 -14 -18 23 -5 25 -4 -10 -25 -6 -22
right_child=2 -3 3 15 11 6 13 10 26 -11 -12 -13 18 14 17 -17 21 -19 -20 -21 29 -23 -24 27 -26 -27 -28 -29 -30 -31
leaf_value=-0.037725358009338378 0.27206489306229814 -0.039598735688346494 0.28281150355129631 0.41875248515470459 -0.0056424012070610411 0.22710074925795198 -0.01295776768109283 0.18602005385339174 0.34915270304275775 0.046867446218218117 0.10686831409516541 0.19755669187882852 0.26974474029107526 0.012222990947110313 0.22712616511753628 0.28002944665077406 0.044931796739498778 0.079186349084431479 0.20957678597597848 0.35569913549856708 0.41950528795068914 0.18524777242115564 0.29716173809766772 0.32299747762225922 0.30582205740305091 0.14178685969319837 0.21426783537580854 0.3938766654084126 0.091311709710529862 0.34365749751970709
leaf_weight=55 38 11850 36 263 20 39 36 20 58 20 22 28 54 41 27 38 23 21 20 21 43 20 39 104 103 28 20 95 20 302
leaf_count=55 38 11850 36 263 20 39 36 20 58 20 22 28 54 41 27 38 23 21 20 21 43 20 39 104 103 28 20 95 20 302
internal_value=0.000200911 -0.0370816 0.324402 0.342826 0.215915 0.0764469 0.106866 0.311515 0.268061 0.196691 0.222028 0.109104 0.320724 0.0646473 0.0959444 0.379861 0.169549 0.165544 0.337746 0.279567 0.343606 0.113149 0.386841 0.393731 0.276198 0.224398 0.317843 0.358684 0.0436355 0.354325
internal_weight=13504 12112 1392 1188 204 262 207 649 136 58 63 68 586 125 89 539 82 48 419 41 399 43 501 462 167 64 78 199 40 345
internal_count=13504 12112 1392 1188 204 262 207 649 136 58 63 68 586 125 89 539 82 48 419 41 399 43 501 462 167 64 78 199 40 345
is_linear=0
shrinkage=0.02


Tree=26
num_leaves=31
num_cat=0
split_feature=27 27 47 134 85 10 75 97 54 111 78 118 136 124 124 2 2 2 136 134 4 5 2 77 16 110 75 71 132 129
split_gain=392327 6411.42 5858.89 3518.28 2133.01 1578.81 1251.36 1027 1273.81 884.025 721.644 617.28 578.025 946.703 876.828 618.585 1125.54 1026.63 544.309 641.323 595.411 466.563 485.387 454.786 421.843 618.445 448.629 420.09 499.674 377.689
threshold=12.625000000000002 1.2916666666666667 31.291666666666668 10.500000000000002 1.5004167082986775 207.10000000000002 0.87493759392189829 0.14642857142857149 171.16666666666671 0.92131715038170425 1.0000000180025095e-35 0.9980146722459734 1.0000000180025095e-35 0.9546596619460942 0.95266106442577037 5.166666666666667 37.833333333333336 21.166666666666668 1.0000000180025095e-35 31.500000000000004 253.16666666666671 137.50000000000003 10.833333333333334 0.54436439642345857 253.62500000000003 0.76388888888888895 2.0626762346865188 -6.7612550258636466 -1.1322906383784297 1.3833454594781238
decision_type=2 2 2 2 2 2 2 2 2 2 2 2 2 2 2 2 2 2 2 2 2 2 2 2 2 2 2 2 2 2
left_child=1 12 3 23 5 -5 11 8 -7 18 -8 -4 13 14 -1 -16 17 21 19 -3 -20 22 -17 29 26 -26 -12 -25 -29 -2
right_child=2 9 6 4 -6 7 10 -9 -10 -11 24 -13 -14 -15 15 16 -18 -19 20 -21 -22 -23 -24 27 25 -27 -28 28 -30 -31
leaf_value=-0.040629721555273765 0.34295382143469416 0.16106745754563531 0.20216727772041371 0.011622507933141858 0.31489474040705984 0.12271230024720232 0.50912828195662729 0.069134831377863887 0.30968981415884839 0.22110892840794155 0.37550452637058473 0.33375937082074786 -0.04029215231323062 -0.040652742125006282 -0.035969033606590761 0.0099431580132332397 -0.035583781352259009 0.12430648527362131 -0.044440050476789478 0.034576216816369978 0.096584452597991283 -0.040926116063044624 0.083861747093689751 0.18419202415943148 0.36795027223168592 0.30395672351738501 0.49184976577758788 0.20632972775278866 0.3017081584903929 0.23431131179516132
leaf_weight=502 169 42 37 28 40 29 20 24 34 20 232 36 8759 1699 247 413 242 32 24 27 22 64 38 24 244 144 27 36 224 25
leaf_count=502 169 42 37 28 40 29 20 24 34 20 232 36 8759 1699 247 413 242 32 24 27 22 64 38 24 244 144 27 36 224 25
internal_value=0.000206379 -0.0360688 0.320512 0.274612 0.189337 0.143241 0.359337 0.184874 0.227039 0.100498 0.368589 0.27083 -0.0376147 -0.0303566 -0.0189571 -0.00841677 0.000230548 0.0161295 0.077711 0.112915 0.0234136 0.00916062 0.0163652 0.30179 0.36345 0.345068 0.389517 0.281205 0.289381 0.330278
internal_weight=13504 12131 1373 633 155 115 740 87 63 135 667 73 11996 3237 1538 1036 789 547 115 69 46 515 451 478 647 388 259 284 260 194
internal_count=13504 12131 1373 633 155 115 740 87 63 135 667 73 11996 3237 1538 1036 789 547 115 69 46 515 451 478 647 388 259 284 260 194
is_linear=0
shrinkage=0.02


Tree=27
num_leaves=31
num_cat=0
split_feature=27 1 47 0 49 118 21 35 34 11 36 111 90 127 11 91 14 9 120 4 65 37 120 35 118 11 36 96 118 90
split_gain=376941 9180.58 5626.78 2281.11 2040.32 1249.22 1078.99 959.828 916.296 1063.64 897.557 781.065 730.899 680.684 1161.31 709.297 787.719 671.223 575.052 592.206 648.71 528.891 402.956 377.549 707.864 500.554 493.406 608.489 544.633 367.818
threshold=12.625000000000002 1.0000000180025095e-35 31.291666666666668 8.0000000794728603 168.35416666666671 0.9980146722459734 17.125000000000004 0.84523809523809534 151.68750000000003 137.45000000000002 253.33035714285717 0.92131715038170425 1.0000000180025095e-35 0.9988004062815613 121.10000000000001 -1.3959828649994532 21.416666666666668 0.58333333333333337 1.0841666666666667 202.16666666666671 1.2264957264957268 0.35416666666666669 0.92873015873015896 1.8166666666666669 0.41209133830210537 112.50000000000001 323.58750000000003 -23.68465909090909 1.0473713134273679 39.599368757819512
decision_type=2 2 2 2 2 2 2 2 2 2 2 2 2 2 2 2 2 2 2 2 2 2 2 2 2 2 2 2 2 2
left_child=1 3 4 -1 5 21 11 10 9 -7 -4 13 -9 15 -15 -5 -17 -8 -6 -20 -21 -2 -23 24 -14 -25 27 28 -26 -29
right_child=2 -3 7 6 18 8 17 12 -10 -11 -12 -13 23 14 -16 16 -18 -19 19 20 -22 22 -24 25 26 -27 -28 29 -30 -31
leaf_value=-0.035880319486584579 0.22904042133918176 -0.038023509209745517 0.3659994473782453 -0.05411529626697302 0.30871326001274513 0.34551483472952477 0.23846551362205953 0.49943060874938966 0.13411583623425527 0.16259316812862051 0.18838312044739725 0.18126521358489991 0.39309732094551758 0.17598774593127403 -0.0059111751413539705 -0.0064749462902545935 0.15554495757276363 0.10187688715996281 0.16979353891478646 0.18942426726222039 0.31491884124812797 0.068933371188672807 0.17645473608603843 0.42416604834852872 0.21098985666578468 0.34489363285322344 0.21614519504400398 0.35395453246790248 0.35175921353426842 0.23486489318666004
leaf_weight=56 25 11851 21 31 322 51 33 20 21 21 35 24 102 37 22 26 21 30 35 31 66 36 25 102 43 123 25 228 21 20
leaf_count=56 25 11851 21 31 322 51 33 20 21 21 35 24 102 37 22 26 21 30 35 31 66 36 25 102 43 123 25 228 21 20
internal_value=0.000210092 -0.0353466 0.314172 0.0776495 0.269189 0.209099 0.10611 0.352222 0.260791 0.295258 0.260417 0.0777079 0.359332 0.058312 0.109026 0.0189301 0.0674409 0.176188 0.292347 0.250329 0.277257 0.150729 0.115296 0.354353 0.33902 0.382593 0.321508 0.329201 0.262035 0.345372
internal_weight=13504 12131 1373 280 633 179 224 740 93 72 56 161 684 137 59 78 47 63 454 132 97 86 61 664 439 225 337 312 64 248
internal_count=13504 12131 1373 280 633 179 224 740 93 72 56 161 684 137 59 78 47 63 454 132 97 86 61 664 439 225 337 312 64 248
is_linear=0
shrinkage=0.02


Tree=28
num_leaves=31
num_cat=0
split_feature=27 1 47 134 3 98 45 116 126 134 55 20 16 26 90 126 3 65 16 16 77 34 118 80 116 2 12 13 18 76
split_gain=362192 8825.38 5408.5 3056.69 2165.59 1940.7 1445.25 1337.97 1380.93 1293.4 1188.98 968.933 816.658 812.246 736.067 523.663 656.098 503.856 505.811 455.295 407.05 500.951 1218.51 434.476 390.496 438.666 357.39 939.02 331.511 733.733
threshold=12.625000000000002 1.0000000180025095e-35 30.690476190476193 10.500000000000002 8.8825000286102309 -3.3944444444444435 1.2250000000000003 1.0844755095684102 0.91525772071212341 10.500000000000002 0.81534090909090928 2.8750000000000004 254.87500000000003 15.652499914169313 1.0000000180025095e-35 0.266841181706513 13.764000129699708 1.8062500000000001 253.62500000000003 21.625000000000004 0.59050299943311324 168.18750000000003 0.93434506775386483 7.1637575457277682 1.1344417916533442 14.16666666666667 262.50000000000006 58.073999404907234 3.2916666666666674 287.98711735097771
decision_type=2 2 2 2 2 2 2 2 2 2 2 2 2 2 2 2 2 2 2 2 2 2 2 2 2 2 2 2 2 2
left_child=1 4 3 20 -1 -5 7 8 -7 11 12 26 -4 -8 -12 -11 -17 28 -19 -18 24 22 -22 -23 -2 -26 27 -6 -16 -30
right_child=2 -3 10 5 9 6 13 -9 -10 15 14 -13 -14 -15 17 16 19 18 -20 -21 21 23 -24 -25 25 -27 -28 -29 29 -31
leaf_value=-0.036957598339427598 0.33534474787952234 -0.037263102223710043 0.34243256888389589 0.34596080183982852 0.21139093172219064 0.059089460600824921 0.13788603495467794 -0.031077656722068789 0.26143459180990858 -0.017422129321899828 0.48991764227549234 0.020082547664642333 0.18193520973890256 0.32290424056675121 0.37231035126580131 -0.0155967705262204 0.042604182163874314 0.41549226027443298 0.34410588632902334 0.17022574671383564 0.085321055452028907 0.30137053518635887 0.27476905657694889 0.20619760208659701 0.17132657776708191 0.29870956071217852 0.24820614527572285 0.074807174641911584 0.32667847278757373 0.22718777215227168
leaf_weight=54 138 11851 24 23 44 33 21 24 23 32 20 21 38 22 89 20 20 104 192 28 23 139 38 35 22 44 21 40 275 46
leaf_count=54 138 11851 24 23 44 33 21 24 23 32 20 21 38 22 89 20 20 104 192 28 23 139 38 35 22 44 21 40 275 46
internal_value=0.000215659 -0.0346385 0.307974 0.260655 0.07615 0.178911 0.145055 0.0926732 0.1455 0.103263 0.342716 0.145764 0.248671 0.237961 0.35038 0.0487007 0.0797638 0.345726 0.370536 0.119209 0.28735 0.264444 0.206027 0.283571 0.31227 0.259589 0.170379 0.148114 0.326932 0.313202
internal_weight=13504 12131 1373 585 280 146 123 80 56 226 788 126 62 43 726 100 68 706 296 48 439 235 61 174 204 66 105 84 410 321
internal_count=13504 12131 1373 585 280 146 123 80 56 226 788 126 62 43 726 100 68 706 296 48 439 235 61 174 204 66 105 84 410 321
is_linear=0
shrinkage=0.02


Tree=29
num_leaves=31
num_cat=0
split_feature=27 27 47 134 66 17 134 75 29 36 111 90 132 136 124 124 66 11 16 77 34 40 36 134 67 90 10 6 6 11
split_gain=348018 5752.31 5203.82 3200.44 1949.42 1238.1 1190.5 1112.56 971.01 928.579 811.921 653.594 549.93 534.882 876.949 812.839 527.559 1110.95 795.526 430.761 493.496 432.389 425.758 472.343 470.829 408.055 403.788 575.369 397.384 340.14
threshold=12.625000000000002 1.2916666666666667 31.291666666666668 10.500000000000002 15.679999911691995 0.70833333333333337 38.500000000000007 0.87493759392189829 151.37500000000003 253.33035714285717 0.92131715038170425 1.0000000180025095e-35 0.99178298909540819 1.0000000180025095e-35 0.9546596619460942 0.95266106442577037 3.618465911046687 121.10000000000001 25.250000000000004 0.54436439642345857 168.18750000000003 2.0625000000000004 267.61250000000007 10.500000000000002 31.440972222222225 16.113940842420856 234.00000000000003 218.50000000000003 269.58333333333343 128.90000000000003
decision_type=2 2 2 2 2 2 2 2 2 2 2 2 2 2 2 2 2 2 2 2 2 2 2 2 2 2 2 2 2 2
left_child=1 13 3 19 5 8 12 9 -5 -4 16 -9 -7 14 15 -1 17 18 -3 28 21 -21 24 -24 -13 -11 27 -17 -2 -26
right_child=2 10 7 4 -6 6 -8 11 -10 25 -12 22 -14 -15 -16 26 -18 -19 -20 20 -22 -23 23 -25 29 -27 -28 -29 -30 -31
leaf_value=-0.038323073090900252 0.29213897910847025 0.079431125436510361 0.33796214507384731 0.10060643522512346 0.30821499009927111 0.074198979098688472 -0.011008762307465076 0.48058587551116944 0.29022966364334368 0.11246343823996456 0.21098294212704613 0.24101907366798039 0.22533949511391776 -0.037984327527281904 -0.038336859691143033 -0.022044924610921186 0.017285235022110018 0.017137630779409049 0.26243397902874721 0.28978277195067637 0.28084082205682043 0.16676306719475606 0.33134581144604325 0.24283790994774213 0.38985114863313342 0.248800748643421 -0.025297553882400785 0.015360800929384515 0.38372013361026081 0.32585403491468989
leaf_weight=502 156 20 32 20 35 21 31 20 28 21 20 20 20 8759 1699 262 43 32 20 20 218 46 277 43 206 20 336 438 38 101
leaf_count=502 156 20 32 20 35 21 31 20 28 21 20 20 20 8759 1699 262 43 32 20 20 218 46 277 43 206 20 336 438 38 101
internal_value=0.000220719 -0.0339446 0.301897 0.258637 0.177355 0.136873 0.0823593 0.33849 0.21509 0.255024 0.095411 0.347214 0.151774 -0.035409 -0.0284277 -0.0174569 0.0735798 0.106366 0.175346 0.284548 0.264728 0.20796 0.342341 0.320277 0.362859 0.183548 -0.00730926 0.00133463 0.312005 0.369956
internal_weight=13504 12131 1373 633 155 120 72 740 48 73 135 667 41 11996 3237 1538 115 72 40 478 284 66 647 320 327 41 1036 700 194 307
internal_count=13504 12131 1373 633 155 120 72 740 48 73 135 667 41 11996 3237 1538 115 72 40 478 284 66 647 320 327 41 1036 700 194 307
is_linear=0
shrinkage=0.02


Tree=30
num_leaves=31
num_cat=0
split_feature=27 27 69 34 118 34 78 0 55 56 77 3 37 58 90 98 2 67 11 126 2 136 124 124 2 2 2 0 112 56
split_gain=334391 5532.53 5010.05 1812.6 1377.65 831.155 735.001 661.073 660.895 840.432 617.947 593.637 839.728 730.79 649.887 594.401 585.952 586.712 584.682 569.654 569.443 513.588 842.145 780.68 573.637 1032.7 927.229 610.332 509.901 501.654
threshold=12.625000000000002 1.2916666666666667 225.10476190476194 166.93750000000003 0.9980146722459734 151.68750000000003 1.0000000180025095e-35 16.283333301544193 1.8229166666666667 300.21590909090918 0.66640047876691078 13.764000129699708 0.69047619047619058 7.2613636363636376 15.31734472293733 1.8693181818181837 15.16666666666667 37.468750000000007 127.30000000000003 0.63687305910263459 14.16666666666667 1.0000000180025095e-35 0.9546596619460942 0.95266106442577037 5.166666666666667 37.833333333333336 21.166666666666668 16.283333301544193 -1.0000000180025095e-35 268.51923076923083
decision_type=2 2 2 2 2 2 2 2 2 2 2 2 2 2 2 2 2 2 2 2 2 2 2 2 2 2 2 2 2 2
left_child=1 21 3 4 10 18 -4 19 9 16 20 12 14 -14 -5 -13 -8 -18 -6 -3 -2 22 23 -1 -25 26 27 -26 -16 -10
right_child=2 7 6 11 5 -7 8 -9 29 -11 -12 15 13 -15 28 -17 17 -19 -20 -21 -22 -23 -24 24 25 -27 -28 -29 -30 -31
leaf_value=-0.037558135436496019 0.26331935264847495 -0.01277657846722639 0.47143186478387739 0.32369900044527927 0.33009768669803941 0.12977298858490857 0.28853151950342903 0.13796859434422326 0.41968808855329243 0.22855011773109435 0.070529913480083153 0.31315712101439125 0.074145109316577085 0.22862961566809453 0.12490281278436834 0.24575160908911908 0.32523005120754245 0.41672042614763433 0.20137747049331667 0.1018565177992993 0.12099928146228195 -0.037224726843881555 -0.037570573368493253 -0.033697236872488455 0.072110983005591808 -0.033143123795466169 0.11920398215452829 0.0021475106154501826 0.27703545104889643 0.33351627723166816
leaf_weight=502 21 32 20 54 47 21 173 67 69 54 35 233 22 32 21 104 199 54 31 36 31 8759 1699 247 55 242 32 460 20 132
leaf_count=502 21 32 20 54 47 21 173 67 69 54 35 233 22 32 21 104 199 54 31 36 31 8759 1699 247 55 242 32 460 20 132
internal_value=0.000224794 -0.0332649 0.295936 0.255824 0.199989 0.251638 0.333955 0.0935951 0.329217 0.313452 0.13891 0.276718 0.237728 0.168366 0.274886 0.293174 0.32363 0.346361 0.282263 0.0483632 0.182547 -0.0347011 -0.0278599 -0.0171088 -0.00716369 0.00116224 0.0163904 0.00976399 0.204181 0.365078
internal_weight=13504 12131 1373 672 186 99 701 135 681 480 87 486 149 54 95 337 426 253 78 68 52 11996 3237 1538 1036 789 547 515 41 201
internal_count=13504 12131 1373 672 186 99 701 135 681 480 87 486 149 54 95 337 426 253 78 68 52 11996 3237 1538 1036 789 547 515 41 201
is_linear=0
shrinkage=0.02


Tree=31
num_leaves=31
num_cat=0
split_feature=27 1 89 34 2 118 58 118 17 34 115 2 118 12 112 11 109 115 128 109 2 11 59 10 10 45 16 47 11 72
split_gain=321304 8032.75 4841.51 2177.13 1517.25 1323.51 1104.4 1101.29 857.616 798.07 691.651 682.897 599.062 595.086 587.68 561.203 550.981 496.55 615.706 586.474 495.638 491.127 657.682 471.75 1015.8 542.331 459.928 714.051 449.107 401.026
threshold=12.625000000000002 1.0000000180025095e-35 240.726345040967 166.93750000000003 3.4166666666666674 0.9980146722459734 22.418750000000003 0.1753481642249955 0.70833333333333337 151.68750000000003 0.37668918918918926 26.833333333333339 0.56938008590678058 250.90000000000003 -0.34472290506320336 127.30000000000003 -21.515151515151512 0.99528301886792458 1.0590413943355121 14.075000000000005 31.166666666666668 121.7 0.65476190476190488 268.10000000000008 249.00000000000003 0.15476190476190479 301.62500000000006 26.812500000000004 120.30000000000003 0.91367275040829565
decision_type=2 2 2 2 2 2 2 2 2 2 2 2 2 2 2 2 2 2 2 2 2 2 2 2 2 2 2 2 2 2
left_child=1 4 3 5 -1 8 7 28 12 15 -4 23 -2 17 -15 -7 -16 19 29 20 -5 22 -12 24 25 -9 27 -18 -6 -19
right_child=2 -3 10 13 6 9 -8 11 -10 -11 21 -13 -14 14 16 -17 26 18 -20 -21 -22 -23 -24 -25 -26 -27 -28 -29 -30 -31
leaf_value=-0.015709384821477483 0.27392023274844346 -0.035103267574638199 0.21121637900670368 0.2666372421360575 -0.031025255322456362 0.32363327349225679 -0.038705745481631977 0.089174719850222267 0.066936128898745492 0.12729550163854253 0.37357184839599272 0.051508975476026536 0.12044355743206465 0.36336871535437448 0.38227842165076215 0.19747578278183939 0.15496732041949318 0.28058904325048767 0.22685662316037461 0.12231367612426931 0.17852657770333083 0.31340371669949713 0.24104317703247069 0.24328443348407747 0.008967513924553281 0.20707877668569674 0.15465715079080491 0.30298408683343991 0.090354183951554742 0.36926286443074546
leaf_weight=60 21 11851 23 127 25 47 21 26 41 21 271 31 25 69 22 31 20 123 76 21 45 221 24 23 20 52 20 81 22 44
leaf_count=60 21 11851 23 127 25 47 21 26 41 21 271 31 25 69 22 31 20 123 76 21 45 221 24 23 20 52 20 81 22 44
internal_value=0.000228603 -0.0325992 0.290095 0.259005 0.0730961 0.196113 0.0973226 0.111849 0.13624 0.246741 0.337616 0.137898 0.195059 0.276711 0.308052 0.276755 0.278953 0.260779 0.282368 0.23223 0.244808 0.342811 0.363674 0.159345 0.137285 0.16953 0.257105 0.275579 0.026281 0.306071
internal_weight=13504 12131 1373 834 280 186 220 199 87 99 539 152 46 648 212 78 143 436 243 193 172 516 295 121 98 78 121 101 47 167
internal_count=13504 12131 1373 834 280 186 220 199 87 99 539 152 46 648 212 78 143 436 243 193 172 516 295 121 98 78 121 101 47 167
is_linear=0
shrinkage=0.02


Tree=32
num_leaves=31
num_cat=0
split_feature=27 27 47 134 98 66 75 36 130 78 12 111 78 66 11 16 136 124 124 2 2 2 3 11 16 98 3 65 96 4
split_gain=308728 5158.32 4679.22 2995.61 1832.85 1800.76 1016.61 903.119 863.487 1287.9 793.18 780.14 618.61 489.248 1058.57 770.128 483.41 793.13 735.227 541.742 974.241 1131.86 548.223 689.583 413.045 636.536 593.189 555.762 401.926 394.872
threshold=12.625000000000002 1.2916666666666667 31.291666666666668 10.500000000000002 -3.8090277777777772 16.715416764219608 0.87493759392189829 253.33035714285717 0.38406286374217963 14.497739450983561 217.70000000000002 0.92131715038170425 1.0000000180025095e-35 3.618465911046687 121.10000000000001 25.250000000000004 1.0000000180025095e-35 0.9546596619460942 0.95266106442577037 5.166666666666667 34.166666666666679 21.166666666666668 16.640000295639041 115.30000000000003 253.62500000000003 0.75961538461538469 15.123999881744387 2.3062500000000004 -42.562499999999993 242.83333333333334
decision_type=2 2 2 2 2 2 2 2 2 2 2 2 2 2 2 2 2 2 2 2 2 2 2 2 2 2 2 2 2 2
left_child=1 16 3 -2 -5 8 7 -4 -6 10 -10 13 -8 14 15 -3 17 18 -1 -20 21 22 23 -21 27 -26 -27 28 -14 -9
right_child=2 11 6 4 5 -7 12 29 9 -11 -12 -13 24 -15 -16 -17 -18 -19 19 20 -22 -23 -24 -25 25 26 -28 -29 -30 -31
leaf_value=-0.036107510036787027 0.26840244144201281 0.074006855203991848 0.32084351830410235 0.33645775101401593 -0.015321980629648482 0.30726295471191406 0.45591950371151885 0.10061559612100775 0.079780635346065873 0.030400668614440494 0.23850555923504707 0.20375488008771622 0.26218589969303296 0.015013492219150066 0.013754642445481184 0.25366447278076698 -0.035781350798700769 -0.03611975456826827 -0.032397419473817274 0.16014581623531524 -0.031256386649656485 0.14280051211516062 0.0030933010731315205 0.0089319672584533688 0.32769723285613012 0.2073182890879906 0.30159632660876745 0.45157731941768098 0.34892417405831055 0.23337423318908329
leaf_weight=502 478 20 32 21 20 20 20 21 21 35 38 20 45 43 32 20 8759 1699 247 20 248 26 466 29 244 58 86 27 187 20
leaf_count=502 478 20 32 21 20 20 20 21 21 35 38 20 45 43 32 20 8759 1699 247 20 248 26 466 29 244 58 86 27 187 20
internal_value=0.000232682 -0.0319463 0.28437 0.243358 0.164834 0.135571 0.319063 0.23949 0.102953 0.128119 0.184448 0.0905474 0.327385 0.0691862 0.100753 0.168076 -0.033333 -0.0266961 -0.0162627 -0.00661157 0.00147894 0.0165336 0.00987518 0.0728204 0.322699 0.305338 0.265384 0.347394 0.33334 0.169629
internal_weight=13504 12131 1373 633 155 134 740 73 114 94 59 135 667 115 72 40 11996 3237 1538 1036 789 541 515 49 647 388 144 259 232 41
internal_count=13504 12131 1373 633 155 134 740 73 114 94 59 135 667 115 72 40 11996 3237 1538 1036 789 541 515 49 647 388 144 259 232 41
is_linear=0
shrinkage=0.02


Tree=33
num_leaves=31
num_cat=0
split_feature=27 1 47 134 3 110 66 132 13 75 36 130 38 132 4 9 90 134 77 116 34 118 36 134 67 90 3 134 112 34
split_gain=296622 7485.98 4499.01 2869.65 1892.29 1763.88 1733.39 1210.33 1120.16 972.746 867.323 830.481 1239.45 1269.23 784.867 775.007 598.647 473.934 422.447 495.858 433.112 766.809 399.258 467.917 456.435 397.176 361.6 356.944 356.225 337.818
threshold=12.625000000000002 1.0000000180025095e-35 31.291666666666668 10.500000000000002 13.036666615804039 -3.8062499999999999 16.715416764219608 0.72346334154623726 58.073999404907234 0.87493759392189829 253.33035714285717 0.38406286374217963 15.937500000000002 0.81272326550997065 269.16666666666669 0.58333333333333337 1.0000000180025095e-35 10.500000000000002 0.54436439642345857 1.1772624800911162 168.18750000000003 0.93434506775386483 267.61250000000007 10.500000000000002 31.440972222222225 16.113940842420856 7.6099999427795426 10.500000000000002 -0.27944470290094608 184.65000000000003
decision_type=2 2 2 2 2 2 2 2 2 2 2 2 2 2 2 2 2 2 2 2 2 2 2 2 2 2 2 2 2 2
left_child=1 4 3 18 26 -5 11 -6 -9 10 -4 -7 13 -13 15 -10 -11 -16 19 -2 21 -20 24 -24 -18 -12 -1 -28 -21 -22
right_child=2 -3 9 5 7 6 -8 8 14 16 25 12 -14 -15 17 -17 22 -19 20 28 29 -23 23 -25 -26 -27 27 -29 -30 -31
leaf_value=-0.037468518416086831 0.3123912611164269 -0.03372343372994889 0.31462109966711566 0.33003447012467818 -0.0026341203577590713 -0.015030134263492765 0.30141033127194361 0.2275705395246807 0.133949517550007 0.44723531995500837 0.097496314543214724 0.071388451063941261 0.020751814609393477 0.25502609288526906 0.23445351557298139 0.0018214251412901766 0.21880196040629277 0.091151198432559061 0.099978942076365152 0.14628980091639929 0.30835138739165613 0.24584683511315322 0.30612460237505629 0.22026944555342198 0.34268315936741117 0.23018451554434641 0.085520352231604715 -0.022396613156253641 0.26842665738529631 0.23911016384452027
leaf_weight=50 139 11851 32 21 32 20 20 37 30 20 21 28 31 35 21 42 20 20 26 20 58 40 277 43 307 20 27 21 35 160
leaf_count=50 139 11851 32 21 32 20 20 37 30 20 21 28 31 35 21 42 20 20 26 20 58 40 277 43 307 20 27 21 35 160
internal_value=0.000235639 -0.0313061 0.278747 0.238531 0.0707282 0.161667 0.132957 0.108709 0.132388 0.312765 0.234882 0.100953 0.125634 0.175956 0.0994115 0.0580926 0.32091 0.168623 0.263046 0.289693 0.243855 0.190883 0.316305 0.295341 0.335827 0.1664 -9.14148e-05 0.0386091 0.227597 0.258902
internal_weight=13504 12131 1373 633 280 155 134 182 150 740 73 114 94 63 113 72 667 41 478 194 284 66 647 320 327 41 98 48 55 218
internal_count=13504 12131 1373 633 280 155 134 182 150 740 73 114 94 63 113 72 667 41 478 194 284 66 647 320 327 41 98 48 55 218
is_linear=0
shrinkage=0.02


Tree=34
num_leaves=31
num_cat=0
split_feature=27 1 69 0 34 118 78 90 17 34 75 78 107 16 118 97 111 11 127 45 2 2 2 10 11 67 9 92 16 16
split_gain=285008 7196.89 4292.94 1845.66 1583.68 1218.12 962.765 1028.25 782.801 751.441 689.019 612.636 594.673 876.855 573.699 561.616 923.091 551.91 495.281 811.764 487.811 811.09 462.193 440.153 438.723 377.013 374.739 331.028 328.433 574.1
