tree
version=v4
num_class=3
num_tree_per_iteration=3
label_index=0
max_feature_idx=12
objective=multiclass num_class:3
feature_names=elo_home elo_away elo_diff h_wr h_dr h_gs h_gc h_n a_wr a_dr a_gs a_gc a_n
feature_infos=[566:2169] [405:2143] [-764:760] [0:1] [0:1] [0:5.5] [0:5] [0:5] [0:1] [0:1] [0:5] [0:6] [0:5]
tree_sizes=1789 1455 547 1959 1379 845 1770 1467 638 1789 1649 556 2607 1524 661 1780 1463 738 2599 1526 564 1491 1842 875 1696 2779 987 1596 1850 753 2086 1676 753 1755 2102 751 1785 2004 753 1883 1761 1252 1775 2018 751 2628 2081 754 2000 1887 960 1899 1990 877 2357 2432 878 2001 2200 963

Tree=0
num_leaves=16
num_cat=0
split_feature=2 2 2 10 12 12 1 1 2 1 10 11 10 1 10
split_gain=133.649 24.6164 5.5237 2.95678 2.64156 4.10009 4.99786 2.81701 1.0823 5.00788 1.55067 0.887833 0.294652 0.236441 0.191053
threshold=-104.49999999999999 56.000000000000007 -153.49999999999997 1.6333333333333335 4.5000000000000009 1.0000000180025095e-35 1311.5000000000002 1518.5000000000002 259.50000000000006 970.50000000000011 1.3666666666666669 1.5500000000000003 1.7750000000000001 1612.0000000000002 1.1000000000000003
decision_type=2 2 2 2 2 2 2 2 2 2 2 2 2 2 2
left_child=2 3 11 4 5 6 -2 -7 9 -3 -11 -1 -12 -5 -6
right_child=1 8 -4 13 14 7 -8 -9 -10 10 12 -13 -14 -15 -16
leaf_value=-0.31890356618082294 -0.28943538534965119 -0.25989367150261167 -0.27794417867182675 -0.23918199500216208 -0.27924583165812367 -0.23621617623500613 -0.25036874940030462 -0.25957451976996454 -0.22718109414276752 -0.22887204162594221 -0.25036874940030462 -0.28943538534965119 -0.23892474193155663 -0.25036874940030462 -0.26303900967630867
leaf_weight=19.434743374586112 5.1825982332229632 5.7008580565452567 6.996507614850997 5.4417281448841077 5.7008580565452558 9.8469366431236285 5.1825982332229614 7.5147674381732932 45.606864452362061 40.424266219139099 5.1825982332229596 5.1825982332229605 7.7738973498344421 5.1825982332229614 5.1825982332229614
leaf_count=75 20 22 27 21 22 38 20 29 176 156 20 20 30 20 20
internal_value=-0.251115 -0.239535 -0.306799 -0.25685 -0.260789 -0.255301 -0.269938 -0.246784 -0.231318 -0.234836 -0.231936 -0.313944 -0.242636 -0.243551 -0.273182
internal_weight=185.537 153.923 31.6138 49.2347 38.6104 27.7269 10.3652 17.3617 104.688 59.0816 53.3808 24.6173 12.9565 10.6243 10.8835
internal_count=716 594 122 190 149 107 40 67 404 228 206 95 50 41 42
is_linear=0
shrinkage=1


Tree=1
num_leaves=13
num_cat=0
split_feature=2 2 2 6 2 12 4 8 8 10 2 1
split_gain=91.5666 12.3611 9.54883 10.4384 10.0134 5.65777 2.4605 2.29336 3.4067 1.81319 1.20585 3.95991
threshold=-33.499999999999993 56.000000000000007 -104.49999999999999 2.1000000000000005 -376.99999999999994 1.0000000180025095e-35 1.0000000180025095e-35 1.0000000180025095e-35 0.55000000000000016 0.90000000000000013 207.50000000000003 1145.5000000000002
decision_type=2 2 2 2 2 2 2 2 2 2 2 2
left_child=2 5 3 4 -1 -2 9 -7 -9 -4 11 -3
right_child=1 10 6 -5 -6 7 -8 8 -10 -11 -12 -13
leaf_value=-1.6474643491093448 -1.6335278040575119 -1.6550722689866251 -1.6421189296340324 -1.6570349770313781 -1.5958552893595279 -1.6817228307126852 -1.629218911071689 -1.6457796902037733 -1.6740313980857202 -1.6639720841013399 -1.6835723699919096 -1.6792549740855101
leaf_weight=5.0775567889213624 6.4623450040817287 6.4623450040817252 5.7699508965015429 4.8467587530612937 18.23304483294487 4.8467587530612972 6.4623450040817252 7.8471332192420942 6.4623450040817261 6.0007489323616028 51.467961996793747 35.312099486589432
leaf_count=22 28 28 25 21 79 21 28 34 28 26 223 153
internal_value=-1.66103 -1.67498 -1.6255 -1.61441 -1.6062 -1.65687 -1.6439 -1.66479 -1.65915 -1.65366 -1.68005 -1.67527
internal_weight=165.251 118.861 46.3904 28.1574 23.3106 25.6186 18.233 19.1562 14.3095 11.7707 93.2424 41.7744
internal_count=716 515 201 122 101 111 79 83 62 51 404 181
is_linear=0
shrinkage=1


Tree=2
num_leaves=4
num_cat=0
split_feature=2 1 1
split_gain=131.805 11.0898 0.778272
threshold=-355.49999999999994 1850.0000000000002 675.00000000000011
decision_type=2 2 2
left_child=-1 2 -2
right_child=1 -3 -4
leaf_value=-3.185239236005085 -3.4376704813873005 -3.3846312593592258 -3.4572115718204124
leaf_weight=1.2591864913702 0.97936727106571453 1.5390057116746891 29.614200815558434
leaf_count=27 21 33 635
internal_value=-3.43819 -3.45182 -3.4563
internal_weight=33.3918 32.1326 30.5936
internal_count=716 689 656
is_linear=0
shrinkage=1


Tree=3
num_leaves=18
num_cat=0
split_feature=1 0 0 1 1 0 1 12 5 7 6 1 1 0 0 1 0
split_gain=19.4843 36.9318 28.1688 27.3815 16.121 4.98606 9.59722 3.05659 2.98688 1.53074 2.35306 1.25081 0.837738 0.259593 1.11724 0.0555681 0.0379477
threshold=1541.0000000000002 1614.5000000000002 1243.0000000000002 1204.5000000000002 1838.5000000000002 1361.0000000000002 1283.5000000000002 3.5000000000000004 0.45000000000000007 3.5000000000000004 0.70833333333333337 1002.5000000000001 1702.0000000000002 1450.5000000000002 1413.0000000000002 1665.5000000000002 1192.0000000000002
decision_type=2 2 2 2 2 2 2 2 2 2 2 2 2 2 2 2 2
left_child=2 -2 3 8 9 6 -4 -8 -1 15 -11 -10 -12 14 -7 -3 -5
right_child=1 4 5 16 -6 13 7 -9 11 10 12 -13 -14 -15 -16 -17 -18
leaf_value=-0.010130824758131115 -0.047861471837722679 0.022795649510738168 0.021934600726540611 -0.064850947446446622 -0.03074526427455988 0.020478227217629531 0 -0.028911441502305239 0.017217692643082535 0.018098885265906271 -0.012366103985901458 0 0.0029092991443236491 0.023000935143886899 0.0013944984165110922 0.012187545558182453 -0.036596969386708769
leaf_weight=9.6356119215488452 18.991349160671234 7.3967149257659939 13.969123095273973 5.4688036441802961 10.136142641305922 9.6948921978473646 7.0243202149867994 5.5832915902137756 9.2384294569492322 6.4056956470012691 5.1298636794090253 5.7190102040767661 5.7135954797267914 44.565109223127365 5.3647090196609488 10.037775218486784 5.3157345652580261
leaf_count=37 70 29 55 20 38 38 27 21 36 25 20 22 22 176 21 39 20
internal_value=0 -0.0133727 0.00703113 -0.0152353 0.00140937 0.0163084 0.00492927 -0.0133438 0.00212468 0.0113656 0.00413784 0.0106743 -0.00375038 0.0211476 0.0145217 0.0177 -0.0539606
internal_weight=185.39 63.8111 121.579 35.3776 44.8198 86.2014 26.5767 12.6076 24.5931 34.6836 17.2492 14.9574 10.8435 59.6247 15.0596 17.4345 10.7845
internal_count=716 243 473 135 173 338 103 48 95 135 67 58 42 235 59 68 40
is_linear=0
shrinkage=0.03


Tree=4
num_leaves=12
num_cat=0
split_feature=2 2 6 2 10 0 12 2 2 2 0
split_gain=83.8282 15.8343 9.07613 8.52274 4.92962 3.07619 2.57241 4.89334 1.70157 0.969085 0.759258
threshold=33.500000000000007 -104.49999999999999 2.1000000000000005 -376.99999999999994 1.6333333333333335 1043.5000000000002 3.5000000000000004 15.000000000000002 53.500000000000007 -33.499999999999993 1232.5000000000002
decision_type=2 2 2 2 2 2 2 2 2 2 2
left_child=1 2 3 -1 6 -2 7 9 -7 -3 -10
right_child=5 4 -4 -5 -6 8 -8 -9 10 -11 -12
leaf_value=0.012035188186403426 0.0041197556556272852 0.0075911655911232766 0.003002677983975769 0.058683739480460809 -0.0077584644205376486 -0.0030574321592860124 0.031267577352000683 0.034096611737467537 -0.0082800623842087823 -0.0076969299067287406 -0.020833842990604083
leaf_weight=5.2674887031316819 4.8272777497768393 7.9438654631376284 4.9946218430995932 19.554427742958069 7.8473252654075614 7.4104778915643683 9.1840541511774081 5.1589745730161658 8.1732092350721341 6.0354905426502228 78.792055949568748
leaf_count=22 21 34 21 79 34 32 39 22 36 26 350
internal_value=0 0.026089 0.0422469 0.0495729 0.0121294 -0.0174018 0.017991 0.0105277 -0.0186134 0.0003312 -0.019811
internal_weight=165.189 65.9862 29.8165 24.8219 36.1697 99.203 28.3224 19.1383 94.3757 13.9794 86.9653
internal_count=716 277 122 101 155 439 121 82 418 60 386
is_linear=0
shrinkage=0.03


Tree=5
num_leaves=7
num_cat=0
split_feature=0 1 0 0 0 1
split_gain=33.1604 22.0728 4.08956 0.676626 0.285003 1.85934
threshold=866.50000000000011 1850.0000000000002 1055.0000000000002 1986.0000000000002 1267.5000000000002 1332.0000000000002
decision_type=2 2 2 2 2 2
left_child=-1 2 -2 4 5 -4
right_child=1 -3 3 -5 -6 -7
leaf_value=0.12170408054741665 0.027700631074317576 0.080349563016208422 -0.016771117100373472 0 -0.019796199821145038 0.019982714840455888
leaf_weight=1.4048679247498501 1.3876491226255954 1.8877669200301159 4.4818179123103681 1.0414810366928566 22.076774094253778 1.0071659125387666
leaf_count=27 29 37 98 23 482 20
internal_value=0 -0.00709399 -0.0141197 -0.0168985 -0.0178284 -0.00741919
internal_weight=33.2875 31.8827 29.9949 28.6072 27.5658 5.48898
internal_count=716 689 652 623 600 118
is_linear=0
shrinkage=0.03


Tree=6
num_leaves=16
num_cat=0
split_feature=1 0 0 1 1 0 0 11 9 0 1 0 1 1 11
split_gain=18.1396 33.059 26.6132 26.9774 14.7728 6.92642 5.20623 3.92442 1.5576 1.50462 5.79092 0.493916 1.23401 0.0780635 0.0196274
threshold=1541.0000000000002 1614.5000000000002 1309.5000000000002 1204.5000000000002 1838.5000000000002 1239.5000000000002 1158.0000000000002 1.3666666666666669 0.22500000000000003 1450.5000000000002 1378.5000000000002 1753.5000000000002 1668.5000000000002 1270.5000000000002 2.1000000000000005
decision_type=2 2 2 2 2 2 2 2 2 2 2 2 2 2 2
left_child=2 -2 3 6 8 -5 7 -1 11 10 13 12 -3 -4 -11
right_child=1 4 9 5 -6 -7 -8 -9 -10 14 -12 -13 -14 -15 -16
leaf_value=-0.01778585391216396 -0.044634701023855333 0.017267470408275695 0.023498778529246971 -0.053343392164516605 -0.028823731485510488 -0.014946875232046438 0.020105632935171227 0.0099758474504123094 0 0.023893672905546764 -0.012552694212204009 0.019557850257382391 -0.00091487846715234821 0.012518325979947486 0.012974194459123138
leaf_weight=8.4990568459033984 19.739241600036621 5.8111527562141436 11.648415267467504 10.420675814151766 10.437460124492643 9.1001345962285978 15.012094482779501 8.5228118002414686 9.7130309641361219 37.328082203865051 5.8325859606266013 13.525542750954626 5.250238448381424 8.1102428436279279 6.1604657918214789
leaf_count=32 70 23 47 37 38 34 60 33 38 151 22 54 20 32 25
internal_value=0 -0.0128053 0.00684223 -0.0093018 0.00137778 -0.0367137 0.0074333 -0.00348397 0.0111088 0.0190003 0.0120258 0.0150687 0.00819252 0.0198561 0.0227165
internal_weight=185.111 64.4767 120.635 51.5548 44.7374 19.5208 32.034 17.0219 34.3 69.0798 25.5912 24.5869 11.0614 19.7587 43.4885
internal_count=716 243 473 196 173 71 125 65 135 277 101 97 43 79 176
is_linear=0
shrinkage=0.03


Tree=7
num_leaves=13
num_cat=0
split_feature=2 2 6 2 0 2 6 5 1 1 2 0
split_gain=77.4364 13.353 8.08954 7.58335 3.01445 2.69193 3.61046 2.57308 2.93524 5.81666 1.65178 0.742512
threshold=33.500000000000007 -104.49999999999999 2.1000000000000005 -376.99999999999994 1043.5000000000002 18.500000000000004 1.0000000180025095e-35 0.55000000000000016 1743.0000000000002 1411.0000000000002 53.500000000000007 1232.5000000000002
decision_type=2 2 2 2 2 2 2 2 2 2 2 2
left_child=1 2 3 -1 -2 6 -3 -8 9 -9 -6 -12
right_child=4 5 -4 -5 10 -7 7 8 -10 -11 11 -13
leaf_value=0.010724220520162614 0.0041686789571061707 -0.0099880964324801109 0.0022469828104983731 0.053924454022341951 -0.0029926888848798264 0.032089987220058964 -0.0026193087562865589 0.0028265390469205051 0 0.044308118580132408 -0.0080991315220719784 -0.020583763665232499
leaf_weight=5.4373396486043992 4.8197983205318442 7.0194712281227138 5.1105200648307791 20.623718857765198 7.3923182487487784 4.8126849085092536 5.8671743720769909 6.1246134489774722 5.8472979217767707 6.9132281839847565 8.1064448505640012 76.947586193680763
leaf_count=22 21 30 21 79 32 20 25 26 25 29 36 350
internal_value=0 0.0245145 0.0389423 0.0456216 -0.0171257 0.0116193 0.00779042 0.0132865 0.0186325 0.0263108 -0.0183492 -0.0195533
internal_weight=165.022 67.756 31.1716 26.0611 97.2661 36.5845 31.7718 24.7523 18.8851 13.0378 92.4463 85.054
internal_count=716 277 122 101 439 155 135 105 80 55 418 386
is_linear=0
shrinkage=0.03


Tree=8
num_leaves=5
num_cat=0
split_feature=2 1 1 0
split_gain=96.602 9.58821 0.757472 0.808691
threshold=-355.49999999999994 1850.0000000000002 675.00000000000011 1986.0000000000002
decision_type=2 2 2 2
left_child=-1 2 -2 -4
right_child=1 -3 3 -5
leaf_value=0.18746093740459568 9.8888183544737317e-05 0.04494960247421563 -0.019950174899700576 0
leaf_weight=1.8098978847265232 1.0078567825257838 1.8030260987579811 27.52444521710277 1.0334081165492524
leaf_count=27 21 33 612 23
internal_value=0 -0.0134536 -0.0180029 -0.0189422
internal_weight=33.1786 31.3687 29.5657 28.5579
internal_count=716 689 656 635
is_linear=0
shrinkage=0.03


Tree=9
num_leaves=16
num_cat=0
split_feature=1 0 0 1 1 0 0 5 7 6 0 1 1 1 1
split_gain=16.7675 29.3722 25.3107 24.5955 13.6136 6.00334 4.98014 4.02183 1.49312 2.24524 1.47877 5.5163 0.878145 0.0777081 0.0619273
threshold=1541.0000000000002 1614.5000000000002 1309.5000000000002 1204.5000000000002 1838.5000000000002 1239.5000000000002 1158.0000000000002 0.45000000000000007 3.5000000000000004 0.70833333333333337 1450.5000000000002 1378.5000000000002 1702.0000000000002 1270.5000000000002 1665.5000000000002
decision_type=2 2 2 2 2 2 2 2 2 2 2 2 2 2 2
left_child=2 -2 3 6 8 -5 7 -1 14 -10 11 13 -11 -4 -3
right_child=1 4 10 5 -6 -7 -8 -9 9 12 -12 -13 -14 -15 -16
leaf_value=-0.019536607692685171 -0.041486648252869206 0.02235913744143329 0.023238687902275949 -0.049741147919288742 -0.027173256876031473 -0.014259416510861893 0.01982419714983593 0.0087335765950281169 0.017629777270268869 -0.012799404182286181 0.02244544740628495 -0.011978018881183976 0.0028898299736942424 0.012265676639134197 0.011713186622395991
leaf_weight=7.4821641445159974 20.502112418413162 7.1115968227386501 11.352842316031461 10.848976582288744 10.701838135719298 9.222526475787161 14.709306433796881 9.5921391695737821 6.2128725051879909 5.0765700191259366 42.438153430819511 5.9046825468540183 5.705660879611969 8.0123300552368146 9.8192595541477186
leaf_count=28 70 29 47 37 38 34 60 37 25 20 176 22 22 32 39
internal_value=0 -0.012216 0.00664204 -0.00896647 0.00134225 -0.0346182 0.00723923 -0.00334602 0.0108628 0.00370978 0.0187061 0.0117633 -0.00393924 0.0195747 0.0172143
internal_weight=184.693 65.1299 119.563 51.8551 44.6278 20.0715 31.7836 17.0743 33.926 16.9951 67.708 25.2699 10.7822 19.3652 16.9309
internal_count=716 243 473 196 173 71 125 65 135 67 277 101 42 79 68
is_linear=0
shrinkage=0.03


Tree=10
num_leaves=15
num_cat=0
split_feature=2 2 0 10 0 12 2 2 2 10 0 2 10 2
split_gain=71.4657 11.5454 6.88784 4.49707 2.90427 2.26776 4.27597 1.63538 1.48325 2.21035 1.15128 1.64072 1.41422 0.852077
threshold=33.500000000000007 -104.49999999999999 1055.0000000000002 1.6333333333333335 1043.5000000000002 3.5000000000000004 15.000000000000002 207.50000000000003 -153.49999999999997 1.6333333333333335 1236.5000000000002 56.000000000000007 1.4500000000000002 -33.499999999999993
decision_type=2 2 2 2 2 2 2 2 2 2 2 2 2 2
left_child=1 2 -1 5 -2 6 13 10 9 -4 -6 -12 -13 -3
right_child=4 3 8 -5 7 -7 -8 -9 -10 -11 11 12 -14 -15
leaf_value=0.001953472371724684 0.0039555111679886916 0.0066920543101776633 0.056678140564125047 -0.0079250368597481875 0 0.028694851306851423 0.030920518359201586 -0.022424124029280401 0.023740022106797584 0.029274489226745914 0 -0.021047429340171557 -0.0047916816357875449 -0.0076382064988812009
leaf_weight=5.0893661975860587 4.8507318049669257 8.1331497728824633 12.211248248815538 7.9015572518110266 4.7303634881973258 9.5832541435956973 5.4348476231098166 46.010321527719498 6.8321367502212551 8.2500499635934812 6.2381115555763236 25.184633061289787 8.2795839756727201 6.0175101011991492
leaf_count=20 21 34 45 34 21 39 22 215 26 31 27 117 38 26
internal_value=0 0.0230417 0.0361462 0.0110261 -0.0168443 0.0165102 0.00953424 -0.0180744 0.0420484 0.0470201 -0.0131705 -0.0148205 -0.0174202 0
internal_weight=164.747 69.4531 32.3828 37.0703 95.2937 29.1688 19.5855 90.443 27.2934 20.4613 44.4327 39.7023 33.4642 14.1507
internal_count=716 277 122 155 439 121 82 418 102 76 203 182 155 60
is_linear=0
shrinkage=0.03


Tree=11
num_leaves=4
num_cat=0
split_feature=2 1 1
split_gain=80.3073 9.04946 0.754536
threshold=-355.49999999999994 1850.0000000000002 675.00000000000011
decision_type=2 2 2
left_child=-1 2 -2
right_child=1 -3 -4
leaf_value=0.15719361850782645 0.00011762237452254765 0.0419422134396795 -0.018893044780143958
leaf_weight=2.1993112415075293 1.0065017826855243 1.9118640050292004 27.957416329532862
leaf_count=27 21 33 635
internal_value=0 -0.0133323 -0.0179362
internal_weight=33.0751 30.8758 28.9639
internal_count=716 689 656
is_linear=0
shrinkage=0.03


Tree=12
num_leaves=24
num_cat=0
split_feature=0 5 8 8 0 11 0 11 6 12 0 0 5 10 5 6 9 5 4 5 12 0 0
split_gain=12.5624 12.3163 6.34608 6.23968 5.33164 4.19712 2.84595 2.46971 2.37864 3.10095 4.51173 2.02705 1.86121 1.7279 1.6321 2.38648 1.18936 1.34285 1.12785 0.584841 0.260805 0.422576 0.0437314
threshold=1239.5000000000002 0.36666666666666675 0.45000000000000007 1.0000000180025095e-35 1554.5000000000002 1.2250000000000003 1471.5000000000002 1.5500000000000003 0.29166666666666669 3.5000000000000004 1807.5000000000002 1309.5000000000002 1.1000000000000003 1.5500000000000003 0.36666666666666675 0.90000000000000013 0.22500000000000003 1.3666666666666669 1.0000000180025095e-35 1.2250000000000003 1.0000000180025095e-35 1541.5000000000002 1387.5000000000002
decision_type=2 2 2 2 2 2 2 2 2 2 2 2 2 2 2 2 2 2 2 2 2 2 2
left_child=1 -1 18 12 5 6 11 -7 -6 10 19 -5 14 -13 20 -16 17 -11 -3 -10 21 -2 -14
right_child=3 2 -4 4 8 7 -8 -9 9 16 -12 13 22 -15 15 -17 -18 -19 -20 -21 -22 -23 -24
leaf_value=-0.03486863886206245 0.014156831389938918 0.0029560681783932143 -0.02513207699555926 -0.023559327930229655 0.019567789538198856 0.021042542637157904 -0.031370367650766694 -0.0048702946091655208 -0.0016665181825725318 0.020386566519221334 -0.026527680704830442 -0.010505746061320095 0.010769736832492671 0.0091272098578429276 0.015515711779933765 -0.0095469241552705447 0 0.0033003948762640655 0.021601428984323726 0.011047771083817123 0.018702979343110226 0.0023050570561563622 0.023276754396494754
leaf_weight=16.078979074954987 6.854055508971217 9.6206281185150164 5.9139945656061164 5.5513825416565004 8.5719509422779065 4.8301343917846662 7.2867072373628607 7.439503401517868 5.1114652156829852 9.6809373646974617 6.3964195996522895 9.2902229428291303 5.0173882395029095 6.0671543031930915 4.8464615792036048 8.9437967091798765 9.156556621193884 9.879654332995413 5.0438558757305136 5.1838595569133759 7.198172688484191 8.2074491530656797 11.964990422129629
leaf_count=57 28 37 21 20 35 20 26 29 20 39 24 34 20 23 20 35 36 39 20 21 29 33 50
internal_value=0 -0.0156257 0 0.00388521 -0.000659258 -0.00891638 -0.0152899 0.00505041 0.00539027 0.00233394 -0.0075329 -0.00866376 0.0120772 -0.00213868 0.00763216 0 0.0084078 0.0125027 0.0104634 0.00411682 0.0125731 0.00855838 0.0205101
internal_weight=184.136 36.6575 20.5785 147.478 94.4459 40.4651 28.1955 12.2696 53.9808 45.4089 16.6917 20.9088 53.0323 15.3574 36.0499 13.7903 28.7171 19.5606 14.6645 10.2953 22.2597 15.0615 16.9824
internal_count=716 135 78 581 366 152 103 49 214 179 65 77 215 57 145 55 114 78 57 41 90 61 70
is_linear=0
shrinkage=0.03


Tree=13
num_leaves=14
num_cat=0
split_feature=2 2 6 2 0 2 6 5 1 1 2 0 2
split_gain=66.2169 10.0859 6.93719 6.26621 2.80281 2.31109 3.28535 2.4142 2.566 5.23415 1.62996 1.13387 1.58219
threshold=33.500000000000007 -104.49999999999999 2.1000000000000005 -376.99999999999994 1043.5000000000002 18.500000000000004 1.0000000180025095e-35 0.55000000000000016 1743.0000000000002 1411.0000000000002 207.50000000000003 1236.5000000000002 56.000000000000007
decision_type=2 2 2 2 2 2 2 2 2 2 2 2 2
left_child=1 2 3 -1 -2 6 -3 -8 9 -9 11 -6 -13
right_child=4 5 -4 -5 10 -7 7 8 -10 -11 -12 12 -14
leaf_value=0.0086537741558035276 0.0037686232672901371 -0.010038563222185357 0.00063515217742355072 0.046789858323349497 0 0.02900286420254224 -0.0031705838372432225 0.0020558330421597301 0 0.040730338455124845 -0.022214035773596194 0 -0.017157889009401038
leaf_weight=5.7164367437362698 4.8776765167713156 7.0301123410463324 5.3635431677103034 22.388789921998978 4.6977269053459159 5.0663294941186896 5.980931609869006 6.265238970518114 5.8942340016365042 7.264759749174118 44.789868608117104 6.2386191487312308 32.787692844867706
leaf_count=22 21 30 21 79 21 20 25 26 25 29 215 27 155
internal_value=0 0.0217482 0.0337511 0.0396347 -0.0165737 0.010496 0.00693561 0.0120832 0.0171934 0.0241746 -0.0178107 -0.0128964 -0.0145568
internal_weight=164.362 70.9704 33.4688 28.1052 93.3916 37.5016 32.4353 25.4052 19.4242 13.53 88.5139 43.724 39.0263
internal_count=716 277 122 101 439 155 135 105 80 55 418 203 182
is_linear=0
shrinkage=0.03


Tree=14
num_leaves=5
num_cat=0
split_feature=2 1 0 1
split_gain=68.4481 8.55836 0.755971 0.81462
threshold=-355.49999999999994 1850.0000000000002 1986.0000000000002 675.00000000000011
decision_type=2 2 2 2
left_child=-1 2 3 -2
right_child=1 -3 -4 -5
leaf_value=0.13520971132316487 0.00012488334070340608 0.039215235361588802 0.00022289412763946677 -0.019894320999725584
leaf_weight=2.5746300742030135 1.0059559270739651 2.0196456685662261 1.0023010969161976 26.371002390980721
leaf_count=27 21 33 23 612
internal_value=0 -0.0132124 -0.0178695 -0.0188468
internal_weight=32.9735 30.3989 28.3793 27.377
internal_count=716 689 656 633
is_linear=0
shrinkage=0.03


Tree=15
num_leaves=16
num_cat=0
split_feature=2 2 2 0 10 0 1 7 1 5 11 10 2 11 5
split_gain=85.1711 19.3133 3.62002 2.97476 2.42593 1.58163 4.91729 4.52576 3.0606 2.00098 0.59497 0.457851 2.50474 0.226691 0.215582
threshold=-104.49999999999999 56.000000000000007 -153.49999999999997 1158.0000000000002 1.6333333333333335 1236.5000000000002 1316.5000000000002 3.5000000000000004 1689.5000000000002 0.63333333333333341 1.5500000000000003 1.3666666666666669 179.50000000000003 0.77500000000000013 2.5500000000000003
decision_type=2 2 2 2 2 2 2 2 2 2 2 2 2 2 2
left_child=2 4 10 -3 5 -2 -7 9 -9 -8 -1 14 -13 -6 -5
right_child=1 3 -4 11 13 6 7 8 -10 -11 -12 12 -14 -15 -16
leaf_value=-0.048491375408449139 0.003778398728140858 0.00054339088919605732 -0.018327386847660148 0.022452527406897023 0.00092205914858648169 -0.031808563635450385 0.018609483984559364 -0.030583807672970559 0 -0.002896687624097827 -0.027313019897079852 0.00096708438483249855 0.022956302793369774 0.012004636917023699 0.0096155673781249361
leaf_weight=23.671215116977695 7.2109021246433249 8.7301957160234434 8.0800540745258314 60.731285452842712 5.2030416876077634 7.2617206126451483 6.7503031343221664 6.3941588848829269 5.601709172129631 6.8950933367013931 6.09577852487564 9.1248610913753527 11.585980162024496 5.4509046524763107 4.878262147307395
leaf_count=75 27 34 27 261 20 26 26 23 21 26 20 38 50 21 21
internal_value=0 0.0103943 -0.0398335 0.0183598 -0.00437708 -0.00785693 -0.0106947 -0.00387687 -0.0171936 0.00738778 -0.0449746 0.0200445 0.0139437 0.00768311 0.0217141
internal_weight=183.665 145.818 37.847 95.0506 50.7678 40.1139 32.903 25.6413 11.9959 13.6454 29.767 86.3204 20.7108 10.6539 65.6095
internal_count=716 594 122 404 190 149 122 96 44 52 95 370 88 41 282
is_linear=0
shrinkage=0.03


Tree=16
num_leaves=13
num_cat=0
split_feature=2 2 6 2 10 0 12 2 2 2 10 2
split_gain=62.8456 9.21913 6.4061 5.65808 4.12863 2.7028 2.06156 3.74106 1.8413 0.763158 0.345429 2.03158
threshold=33.500000000000007 -104.49999999999999 2.1000000000000005 -376.99999999999994 1.6333333333333335 1158.0000000000002 3.5000000000000004 15.000000000000002 53.500000000000007 -33.499999999999993 1.3666666666666669 179.50000000000003
decision_type=2 2 2 2 2 2 2 2 2 2 2 2
left_child=1 2 3 -1 6 -2 7 9 -7 -3 -10 -12
right_child=5 4 -4 -5 -6 8 -8 -9 10 -11 11 -13
leaf_value=0.0083192272980890155 0 0.0059966015556196404 0.00043851364091877364 0.044463587182203966 -0.0080034242402941148 -0.0015971484898214335 0.026714699844163071 0.028189721088180891 -0.021013984475717805 -0.0075609778823718674 -0.00073779480826704602 -0.021939899369433059
leaf_weight=5.7630665600299862 8.6781605780124647 8.2796789854764956 5.3950375914573661 23.006251096725464 7.9237698614597312 6.9152992814779273 9.9045800119638461 5.6833367794752112 58.178867176175117 5.9919039756059638 8.0909653156995791 10.224279969930647
leaf_count=22 38 34 21 79 34 30 39 22 283 26 38 50
internal_value=0 0.0209153 0.0322481 0.0377964 0.0101456 -0.0163889 0.0153107 0.00869569 -0.0180379 0 -0.0193873 -0.0133205
internal_weight=164.035 71.9476 34.1644 28.7693 37.7833 92.0876 29.8595 19.9549 83.4094 14.2716 76.4941 18.3152
internal_count=716 277 122 101 155 439 121 82 401 60 371 88
is_linear=0
shrinkage=0.03


Tree=17
num_leaves=6
num_cat=0
split_feature=2 0 12 2 0
split_gain=59.6974 3.6218 2.17778 1.91588 0.722192
threshold=-355.49999999999994 1859.0000000000002 3.5000000000000004 -252.49999999999997 940.50000000000011
decision_type=2 2 2 2 2
left_child=-1 3 -3 -2 -5
right_child=1 2 -4 4 -6
leaf_value=0.11902449875201186 0.010560684464686323 0.03479835053653009 -0.008971415457300666 0 -0.019829470873167668
leaf_weight=2.9238758459687224 1.4594969004392684 1.6852736473083489 1.1487732678651807 1.1858349107205892 24.470610752701759
leaf_count=27 28 34 24 24 579
internal_value=0 -0.0130958 0.0156723 -0.0166578 -0.0187225
internal_weight=32.8739 29.95 2.83405 27.1159 25.6564
internal_count=716 689 58 631 603
is_linear=0
shrinkage=0.03


Tree=18
num_leaves=24
num_cat=0
split_feature=1 3 1 6 1 12 10 12 4 1 10 7 1 1 3 6 10 1 10 11 1 8 1
split_gain=13.9085 5.82669 5.07787 4.63512 7.13337 3.81806 3.56439 5.09008 2.91708 2.06514 2.04213 2.66539 1.96788 2.20479 1.74395 0.817461 0.69398 0.594989 0.402592 0.402203 0.319357 0.288455 0.224834
threshold=1541.0000000000002 1.0000000180025095e-35 1838.5000000000002 1.2250000000000003 1668.5000000000002 4.5000000000000009 1.1000000000000003 1.0000000180025095e-35 0.22500000000000003 1304.0000000000002 2.1000000000000005 3.5000000000000004 1254.5000000000002 1131.5000000000002 0.45000000000000007 0.55000000000000016 0.29166666666666669 1411.0000000000002 1.4500000000000002 0.55000000000000016 1295.0000000000002 0.45000000000000007 1145.5000000000002
decision_type=2 2 2 2 2 2 2 2 2 2 2 2 2 2 2 2 2 2 2 2 2 2 2
left_child=1 6 3 10 -5 18 7 12 9 22 11 19 13 -1 -4 -13 -9 -11 -3 21 -18 -2 -7
right_child=2 5 14 4 -6 8 -8 16 -10 17 -12 15 -14 -15 -16 -17 20 -19 -20 -21 -22 -23 -24
leaf_value=0 0.0059641239412996762 0.019085914993440877 -0.012407876435548493 -0.038466842447609846 0 0 -0.019714787435300238 0.022008942182918073 0.018284144602145808 -0.01907346381721349 0.016363165485014357 -0.00036851632582135416 0.0029616122851622924 -0.026284868949959794 -0.038555737946376858 -0.016667692129082458 0.012318239258364286 -0.0022387024750324977 0.0090308426444596912 0.01152875407127853 0.00074710306243009857 -0.0031422782610900789 0.010239977064332365
leaf_weight=5.5086255818605441 5.2022118270397169 33.330033481121063 6.3021113872528058 8.1807232946157473 8.1019026488065702 5.0373337417841011 7.9493033140897742 6.1046387851238277 7.2590513974428168 5.519870311021803 4.9938957989215842 5.2604210525751123 7.0872231721878043 6.950220137834549 6.8092530369758606 10.716904789209364 5.7089232206344587 4.9962124079465866 9.9884643107652646 5.1150173991918573 6.2329727113246918 5.5676109343767166 4.992875263094902
leaf_count=21 21 141 21 28 30 21 29 25 31 21 20 20 29 26 23 40 23 20 41 20 24 20 21
internal_value=0 0.00618931 -0.0109676 -0.00648554 -0.0195659 0.0115445 -0.00201314 0.00170341 0.00241888 -0.00305994 -0.000281306 -0.00338068 -0.00852969 -0.0156231 -0.0275662 -0.0120215 0.0132032 -0.0123569 0.0171023 0.00486283 0.00727487 0.0005273 0.00595655
internal_weight=182.916 116.666 66.2501 53.1387 16.2826 71.1238 45.5419 37.5926 27.8053 20.5463 36.8561 31.8622 19.5461 12.4588 13.1114 15.9773 18.0465 10.5161 43.3185 15.8848 11.9419 10.7698 10.0302
internal_count=716 473 243 199 58 296 177 148 114 83 141 121 76 47 44 60 72 41 182 61 47 41 42
is_linear=0
shrinkage=0.03


Tree=19
num_leaves=14
num_cat=0
split_feature=2 2 6 2 0 0 0 5 2 6 6 0 2
split_gain=58.2164 7.8387 5.85707 5.03833 2.62738 1.93011 6.46126 4.17253 1.62583 1.33465 1.56429 1.08918 1.4705
threshold=33.500000000000007 -104.49999999999999 2.1000000000000005 -376.99999999999994 1043.5000000000002 1236.5000000000002 1270.5000000000002 0.55000000000000016 207.50000000000003 1.2250000000000003 0.77500000000000013 1236.5000000000002 56.000000000000007
decision_type=2 2 2 2 2 2 2 2 2 2 2 2 2
left_child=1 2 3 -1 -2 -3 -7 -8 11 10 -9 -6 -13
right_child=4 5 -4 -5 8 6 7 9 -10 -11 -12 12 -14
leaf_value=0.0075564916385067503 0.0034134735844758447 -0.0041429104849261692 0 0.041343350546344658 0 0.041826245896272013 -0.011383011817970518 0.01611069016832628 -0.021868324145848946 0.026618848231888523 -0.003005670787590529 0 -0.016692417933113338
leaf_weight=5.8705309033393887 4.9295188784599295 6.2601349651813498 5.4893110096454611 23.863294512033463 4.6607683449983588 5.2994786649942425 7.7572712302207973 7.5656525641679782 42.744200184941292 5.3187561184167853 5.8741940259933472 6.2548993527889243 31.609401196241379
leaf_count=22 21 26 21 79 21 20 33 31 215 21 24 27 155
internal_value=0 0.0197671 0.0300236 0.0352056 -0.0161167 0.00977938 0.012819 0.00602166 -0.017364 0.013795 0.00730169 -0.0124259 -0.0140965
internal_weight=163.497 73.2986 35.2231 29.7338 90.1988 38.0755 31.8154 26.5159 85.2693 18.7586 13.4398 42.5251 37.8643
internal_count=716 277 122 101 439 155 129 109 418 76 55 203 182
is_linear=0
shrinkage=0.03


Tree=20
num_leaves=4
num_cat=0
split_feature=2 1 1
split_gain=51.8448 8.11733 0.745506
threshold=-355.49999999999994 1850.0000000000002 675.00000000000011
decision_type=2 2 2
left_child=-1 2 -2
right_child=1 -3 -4
leaf_value=0.10452670996550326 0.0001520611429090299 0.036956207110393276 -0.018753090063627784
leaf_weight=3.3098819032311431 1.00392989069224 2.1162793412804595 26.33557340875268
leaf_count=27 21 33 635
internal_value=2.70834e-05 -0.0129636 -0.0177453
internal_weight=32.7657 29.4558 27.3395
internal_count=716 689 656
is_linear=0
shrinkage=0.03


Tree=21
num_leaves=13
num_cat=0
split_feature=2 2 2 12 0 0 2 7 11 10 2 11
split_gain=73.9288 13.8972 7.13664 3.45356 3.25295 2.87236 2.44544 1.22574 0.51953 0.47293 2.44243 0.37523
threshold=-70.499999999999986 56.000000000000007 -153.49999999999997 1.0000000180025095e-35 1255.5000000000002 1158.0000000000002 -33.499999999999993 3.5000000000000004 1.5500000000000003 1.3666666666666669 179.50000000000003 0.77500000000000013
decision_type=2 2 2 2 2 2 2 2 2 2 2 2
left_child=2 3 8 -2 -5 -3 -6 -8 -1 -7 -11 -4
right_child=1 5 11 4 6 9 7 -9 -10 10 -12 -13
leaf_value=-0.043869589377124006 -0.017951795467582504 0.000318152182718121 -0.0072703242458856789 0.019085814215337966 -0.015396293999112508 0.021280388790785802 0.012092090147657518 -0.0030066743865510299 -0.024588278786052038 0.00060601690192507599 0.022563178096519452 -0.019946588464175238
leaf_weight=24.796856671571735 9.6643622517585737 8.6687892079353315 8.2365028858184832 7.2525781989097586 8.8909998387098295 62.894126579165459 7.7130861729383531 9.9180880039930326 6.3350466489791861 9.015838027000429 11.071136012673376 7.8372503817081443
leaf_count=75 35 34 28 28 32 282 30 37 20 38 50 27
internal_value=0 0.0112525 -0.032169 -0.00252853 0.00181963 0.0178602 -0.0028346 0.00325349 -0.0406812 0.0195721 0.0133992 -0.0144093
internal_weight=182.295 135.089 47.2057 43.4391 33.7748 91.6499 26.5222 17.6312 31.1319 82.9811 20.087 16.0738
internal_count=716 566 150 162 127 404 99 67 95 370 88 55
is_linear=0
shrinkage=0.03


Tree=22
num_leaves=17
num_cat=0
split_feature=2 2 0 0 12 1 5 2 0 2 2 1 2 2 2 12
split_gain=55.3541 7.22271 5.21466 2.60003 1.88289 3.32301 4.75054 2.46391 3.63408 1.72575 1.25933 2.59946 0.543381 0.332086 0.583762 0.166135
threshold=33.500000000000007 -104.49999999999999 1055.0000000000002 1158.0000000000002 1.0000000180025095e-35 1283.5000000000002 0.55000000000000016 -33.499999999999993 1572.0000000000002 110.50000000000001 -153.49999999999997 1580.5000000000002 -269.99999999999994 53.500000000000007 95.500000000000014 1.5000000000000002
decision_type=2 2 2 2 2 2 2 2 2 2 2 2 2 2 2 2
left_child=1 2 -1 -2 -3 -6 -7 8 -8 13 11 -4 -13 -5 15 -15
right_child=3 4 10 9 5 6 7 -9 -10 -11 -12 12 -14 14 -16 -17
leaf_value=0 0 0.021336362993558837 0.05471188507945654 -0.0017654478772821814 -0.015516003820580878 -0.01500440425858043 0.041506217425239265 0.0026676014505396025 0.0052914352412643988 -0.020338387000359875 0.018203220269693423 0.018561616682518003 0.036654707914342007 -0.0060264854605387641 0 -0.02036603100998088
leaf_weight=5.3914449512958518 8.6303147822618467 9.1367484927177411 7.1439058184623745 6.9532280713319805 4.9645560830831554 4.7026460915803936 5.7841906249523216 8.2457042336463875 5.4868588149547577 59.684890389442444 7.5225066095590618 8.7463034093379992 6.9946032166480974 4.0433781594037992 4.1248449683189383 5.4838064312934875
leaf_count=20 38 36 23 30 21 20 22 34 22 304 26 30 23 20 20 27
internal_value=0 0.0190642 0.0288152 -0.0159324 0.00946929 0.00515401 0.00998323 0.0166781 0.0256147 -0.0176046 0.0335709 0.0377404 0.0280365 -0.00896535 -0.0118045 -0.0157818
internal_weight=163.04 74.1195 35.7988 88.9205 38.3207 29.184 24.2194 19.5168 11.271 80.2901 30.4073 22.8848 15.7409 20.6053 13.652 9.52718
internal_count=716 277 122 439 155 119 98 78 44 401 102 76 53 97 67 47
is_linear=0
shrinkage=0.03


Tree=23
num_leaves=7
num_cat=0
split_feature=2 2 10 7 7 2
split_gain=51.6047 3.92039 2.69999 1.62281 0.597469 1.84403
threshold=-397.99999999999994 -269.99999999999994 2.4500000000000006 3.5000000000000004 1.0000000180025095e-35 248.50000000000003
decision_type=2 2 2 2 2 2
left_child=-1 -2 4 -4 5 -3
right_child=1 2 3 -5 -6 -7
leaf_value=0.11962565614045689 0.021699980654397096 -0.015542271680263522 0.03249569237680839 -0.0078764406180654514 -0.019713649395469966 0.024232515073303422
leaf_weight=2.4747300073504439 2.322216626256707 3.3006248213350835 1.2160289250314229 1.0119091533124445 21.462926469743252 0.86742253974080075
leaf_count=18 31 77 25 23 521 21
internal_value=6.1753e-05 -0.0112384 -0.0146356 0.0127771 -0.0175617 -0.0036277
internal_weight=32.6559 30.1811 27.8589 2.22794 25.631 4.16805
internal_count=716 698 667 48 619 98
is_linear=0
shrinkage=0.03


Tree=24
num_leaves=15
num_cat=0
split_feature=2 2 2 1 12 1 12 11 2 1 5 8 10 11
split_gain=67.9392 11.5857 8.20306 3.58646 2.27765 3.47487 2.2799 1.33726 1.17941 4.19049 1.89751 1.07516 1.03505 0.511742
threshold=-57.499999999999993 56.000000000000007 -153.49999999999997 1662.5000000000002 1.0000000180025095e-35 1554.5000000000002 4.5000000000000009 0.63333333333333341 259.50000000000006 970.50000000000011 2.2916666666666674 0.36666666666666675 1.3666666666666669 1.5500000000000003
decision_type=2 2 2 2 2 2 2 2 2 2 2 2 2 2
left_child=2 4 13 11 -2 6 -6 -7 9 -3 12 -4 -11 -1
right_child=1 8 3 -5 5 7 -8 -9 -10 10 -12 -13 -14 -15
leaf_value=-0.041376145582956929 -0.014705202596469003 -0.0088350438256115226 -0.010812313893409217 0.0036751477467902947 0.018646603609286324 2.635646307729362e-05 -0.0029537680057283144 -0.017453936926465234 0.022148450828733464 0.021819279663545139 0 -0.031586426238904432 0.0082680553176095357 -0.022975605096524205
leaf_weight=25.403945624828342 8.9625092893838865 5.6863096803426734 7.5022396892309207 6.8586255609989157 11.383727848529821 6.1045845001935941 5.7635755389928809 7.1106948703527451 38.046714469790459 31.443720236420631 4.5882262140512458 6.1028139293193817 9.9224808961153013 6.4764037132263175
leaf_count=75 32 22 26 24 45 23 21 26 176 143 20 20 43 20
internal_value=-1.25884e-05 0.0116347 -0.0287285 -0.0127858 -0.00172556 0.00199036 0.0109983 -0.00901641 0.0175696 0.0138435 0.0169084 -0.0215584 0.0189213 -0.0383286
internal_weight=181.357 129.013 52.344 20.4637 39.3251 30.3626 17.1473 13.2153 89.6875 51.6407 45.9544 13.6051 41.3662 31.8803
internal_count=716 551 165 70 147 115 66 49 404 228 206 46 186 95
is_linear=0
shrinkage=0.03


Tree=25
num_leaves=26
num_cat=0
split_feature=0 11 10 0 6 5 12 6 10 0 0 12 8 9 12 5 10 6 0 0 11 11 0 7 6
split_gain=5.9268 8.15415 3.73311 5.42984 2.15784 1.69951 1.74676 1.72572 2.82079 1.68099 3.09515 2.63506 1.51353 1.21492 1.17644 1.1651 1.0582 0.892107 0.834063 0.650889 0.343619 0.629452 0.30015 0.172989 0.106398
threshold=1554.5000000000002 1.2250000000000003 0.22500000000000003 1239.5000000000002 0.70833333333333337 1.1000000000000003 4.5000000000000009 1.6333333333333335 0.77500000000000013 1471.5000000000002 1299.0000000000002 4.5000000000000009 0.22500000000000003 0.22500000000000003 2.5000000000000004 1.3666666666666669 1.1000000000000003 0.45000000000000007 1381.0000000000002 1687.5000000000002 0.70833333333333337 0.29166666666666669 1701.5000000000002 4.5000000000000009 0.45000000000000007
decision_type=2 2 2 2 2 2 2 2 2 2 2 2 2 2 2 2 2 2 2 2 2 2 2 2 2
left_child=1 2 3 17 20 7 -7 8 -3 10 11 -4 19 15 -12 23 -16 -1 -5 -6 21 -2 -17 -14 -22
right_child=4 5 9 18 12 6 -8 -9 -10 -11 14 -13 13 -15 16 22 -18 -19 -20 -21 24 -23 -24 -25 -26
leaf_value=0.023157595533710627 -0.013169486883781886 -0.0091821115392631825 0.009603060209223158 -0.00092617920708682529 -0.0010616064041205468 -0.019783029324793037 0 -0.010841566132060524 0.019052009386995826 0.031228028332350197 0.01428210141371522 0.040060435990267977 -0.0025546016529955206 0.01129826358651281 0.006562459039039543 0 -0.011464505421683861 0.0035983328273237109 -0.017213667985266148 -0.019767696135722684 -0.021520492277883656 0 0.0091771349590443561 -0.014664595074680714 -0.0084727822072965912
leaf_weight=7.440153509378435 9.630794286727907 4.6865077912807482 7.1903316229581851 6.6577197164297086 4.233392730355261 11.279134228825571 6.1590015441179267 7.6504354923963538 6.9290266633033752 7.2914185672998419 5.5389591604471198 5.3097609132528305 4.4718413352966362 7.7908673733472815 5.1111324131488782 5.0706923305988294 5.1659445017576218 4.8124868869781494 7.0360359996557236 4.6108205765485764 7.9047390371561033 6.199640527367591 4.8538719862699509 4.5609140843153 4.7672972977161407
leaf_count=28 47 21 28 30 20 55 29 35 28 27 23 18 20 33 20 23 21 20 35 23 39 27 21 21 24
internal_value=0 0.00461499 0.0113072 0.00217946 -0.00707217 -0.00636727 -0.0130136 0 0.00700875 0.0175868 0.013281 0.0242762 -0.00179786 0.00151074 0.00356181 -0.00223604 -0.00177547 0.0166233 -0.0102406 -0.0123129 -0.0132036 -0.0085383 0.00416419 -0.0100619 -0.0178031
internal_weight=162.353 98.258 61.5539 25.9464 64.0949 36.7041 17.4381 19.266 11.6155 35.6075 28.3161 12.5001 35.5924 26.7482 15.816 18.9573 10.2771 12.2526 13.6938 8.84421 28.5025 15.8304 9.92456 9.03276 12.672
internal_count=716 418 250 113 298 168 84 84 49 137 110 46 161 118 64 85 41 48 65 43 137 74 44 41 63
is_linear=0
shrinkage=0.03


Tree=26
num_leaves=8
num_cat=0
split_feature=0 1 1 0 0 1 5
split_gain=19.4734 19.1018 15.1681 0.694659 0.260334 1.89557 0.152763
threshold=1055.0000000000002 1131.5000000000002 1850.0000000000002 1986.0000000000002 1267.5000000000002 1456.5000000000002 0.77500000000000013
decision_type=2 2 2 2 2 2 2
left_child=1 6 3 4 5 -2 -1
right_child=2 -3 -4 -5 -6 -7 -8
leaf_value=0.00069936135771745788 -0.016673328057075998 0.11679766596562377 0.051183883788858187 0.00083266815688490215 -0.019634431513229279 0.021217233339397287 -0.0094374871436617731
leaf_weight=0.96516886726021711 4.4319609850645163 1.8843607194721697 2.8329634852707377 0.96077489480376144 19.330534104257822 0.93616479262709607 1.1798100657761095
leaf_count=20 108 14 37 23 482 10 22
internal_value=0.000101376 0.0582114 -0.00866819 -0.0164723 -0.0175058 -0.00728695 -0.00220361
internal_weight=32.5217 4.02934 28.4924 25.6594 24.6987 5.36813 2.14498
internal_count=716 56 660 623 600 118 42
is_linear=0
shrinkage=0.03


Tree=27
num_leaves=14
num_cat=0
split_feature=2 2 2 12 0 0 0 0 10 2 11 11 2
split_gain=64.0808 11.2614 7.61618 3.14669 2.7352 1.67183 1.25394 1.72854 0.487051 2.42113 0.42081 0.35461 0.226705
threshold=-33.499999999999993 -153.49999999999997 56.000000000000007 1.0000000180025095e-35 1158.0000000000002 1551.5000000000002 1328.5000000000002 1556.5000000000002 1.3666666666666669 179.50000000000003 1.5500000000000003 0.90000000000000013 24.000000000000004
decision_type=2 2 2 2 2 2 2 2 2 2 2 2 2
left_child=1 10 3 -2 -4 12 11 -8 -6 -10 -1 -3 -5
right_child=2 6 4 5 8 -7 7 -9 9 -11 -12 -13 -14
leaf_value=-0.039617527523830576 -0.015766447535286048 -0.0074555123190553291 0.00022650075830249757 0.018069740564356451 0.020846594581911806 -0.002344239544670528 -0.026285095675293958 -0.0057174694774243268 0.00011840207415471507 0.022216238046151599 -0.022163317155468914 0.001434568942334076 0.0050132307058590236
leaf_weight=25.82034495472908 7.9703474789857891 6.4744656980037707 8.6404557526111585 6.3564935475587863 60.154040798544884 10.155562967061995 7.8605248630046871 9.7876463532447797 8.8726226538419741 10.598557770252226 6.5455260276794425 6.3473657369613647 4.9842346459627151
leaf_count=75 28 22 34 25 282 38 26 35 38 50 20 23 20
internal_value=-1.9938e-05 -0.0244198 0.0129748 0 0.0173623 0.00574686 -0.0106475 -0.015846 0.0190965 0.0128524 -0.0367524 -0.00249029 0.0135455
internal_weight=180.568 62.8359 117.732 29.4666 88.2657 21.4963 30.47 17.6482 79.6252 19.4712 32.3659 12.8218 11.3407
internal_count=716 201 515 111 404 83 106 61 370 88 95 45 45
is_linear=0
shrinkage=0.03


Tree=28
num_leaves=17
num_cat=0
split_feature=2 2 6 2 10 0 1 5 12 2 10 10 10 10 10 10
split_gain=48.8826 5.69075 5.17468 4.09529 3.65098 2.4828 2.19136 6.4622 2.70589 1.70136 0.488128 0.403261 0.107395 0.0419437 0.152153 0.731948
threshold=33.500000000000007 -104.49999999999999 2.1000000000000005 -376.99999999999994 1.6333333333333335 1158.0000000000002 1211.5000000000002 0.36666666666666675 2.5000000000000004 110.50000000000001 1.1000000000000003 0.45000000000000007 1.6333333333333335 0.90000000000000013 1.6333333333333335 1.3666666666666669
decision_type=2 2 2 2 2 2 2 2 2 2 2 2 2 2 2 2
left_child=1 2 3 -1 6 -2 -3 -8 -9 10 11 -7 -5 -11 15 -15
right_child=5 4 -4 12 -6 9 7 8 -10 13 -12 -13 -14 14 -16 -17
leaf_value=0.0060548268487972774 0 0.03002495970239262 0 0.039871976064299458 -0.0081606067975738567 -0.0039898766438635292 -0.014089731071708704 0.0025153878058001827 0.027881753376491937 -0.022702092392059482 -0.00033516316775371037 -0.017163629106607969 0.024501186472601733 -0.015574915559398113 -0.021526549532382946 0
leaf_weight=6.0845876336097744 8.6003552824258787 5.9389688223600414 5.7437575757503501 17.378708600997928 7.9647637009620658 6.5544205009937304 7.0485674142837551 7.1523860991001156 10.682099238038061 29.678683400154114 6.6553544700145713 6.961322158575058 8.0061911642551404 13.545311957597738 9.8917819559574109 3.9455640614032736
leaf_count=22 38 22 21 54 34 32 30 29 40 160 31 34 25 72 52 20
internal_value=0 0.0174552 0.0259168 0.0306273 0.00888136 -0.0154792 0.0136325 0.0088511 0.0185457 -0.0171716 -0.00854371 -0.0117874 0.0359388 -0.0199644 -0.0163206 -0.0123597
internal_weight=161.833 76 37.2132 31.4695 38.7868 85.8328 30.822 24.8831 17.8345 77.2324 20.1711 13.5157 25.3849 57.0613 27.3827 17.4909
internal_count=716 277 122 101 155 439 121 99 69 401 97 66 79 304 144 92
is_linear=0
shrinkage=0.03


Tree=29
num_leaves=6
num_cat=0
split_feature=2 1 2 0 0
split_gain=42.9362 8.27144 2.70477 0.764643 0.74644
threshold=-444.99999999999994 1850.0000000000002 -320.99999999999994 1986.0000000000002 925.50000000000011
decision_type=2 2 2 2 2
left_child=-1 2 -2 4 -4
right_child=1 -3 3 -5 -6
leaf_value=0.11838010344801785 0.01374498292603832 0.035983756312793873 0 0.0009919962895194106 -0.019750186581431926
leaf_weight=2.0631035715341559 2.0583642423152986 2.6738158091902724 1.1220420747995437 0.95028553903102775 23.517520744353533
leaf_count=12 17 35 23 23 606
internal_value=0.000141371 -0.00940144 -0.0146715 -0.0175218 -0.0185994
internal_weight=32.3851 30.322 27.6482 25.5898 24.6396
internal_count=716 704 669 652 629
is_linear=0
shrinkage=0.03


Tree=30
num_leaves=19
num_cat=0
split_feature=2 2 2 7 7 6 5 2 5 7 10 7 11 5 2 2 3 5
split_gain=59.4511 10.2498 7.30791 3.15711 2.88942 2.09242 1.53835 1.19391 1.28774 0.879923 0.628614 0.493309 0.412217 0.411743 0.350584 0.296493 0.260427 0.135218
threshold=-33.499999999999993 -153.49999999999997 56.000000000000007 1.0000000180025095e-35 1.5000000000000002 1.7083333333333337 1.4500000000000002 259.50000000000006 2.2916666666666674 3.5000000000000004 1.3666666666666669 1.5000000000000002 1.5500000000000003 0.45000000000000007 218.50000000000003 179.50000000000003 0.45000000000000007 1.2250000000000003
decision_type=2 2 2 2 2 2 2 2 2 2 2 2 2 2 2 2 2 2
left_child=1 12 3 -2 -3 6 -6 8 10 11 13 -5 -1 15 -15 -4 -11 -12
right_child=2 4 7 9 5 -7 -8 -9 -10 16 17 -13 -14 14 -16 -17 -18 -19
leaf_value=-0.037670028516401902 -0.017033935844136448 0.0049855890147673587 0.013752833050601317 0.0022319543155015298 -0.028128300423588871 0 -0.006762897480988293 0.021777625714061777 -0.0001274380164948966 -0.0051496062844595429 0.000904817093887604 0.017222095133415501 -0.020896313880452606 0.02295432916474327 0.0078637587502545098 0.0013674843759819409 0.0035363488832309176 0.010130039308755156
leaf_weight=26.263176411390305 7.0410650521516827 7.4555241763591793 9.7926183640956861 5.4817234873771667 10.316869810223585 6.3868655264377585 6.5764912962913504 36.336764141917229 4.494172438979148 5.3693610727787018 5.4544260054826719 5.7691484689712524 6.653628706932067 16.447314143180851 4.4646691828966132 4.3314079046249381 5.7961644232273102 5.0757847279310226
leaf_count=75 25 27 44 21 35 22 22 176 20 20 24 23 20 77 21 20 22 22
internal_value=-2.67113e-05 -0.023263 0.0127075 0 -0.0101398 -0.0153652 -0.0207618 0.0170853 0.0133197 0.00533938 0.0148283 0.0110901 -0.0349122 0.0169747 0.0204117 0.0107467 0 0.00642513
internal_weight=179.507 63.6526 115.855 29.4575 30.7358 23.2802 16.8934 86.3972 50.0604 22.4164 45.5662 11.2509 32.9168 35.036 20.912 14.124 11.1655 10.5302
internal_count=716 201 515 111 106 79 57 404 228 86 208 44 95 162 98 64 42 46
is_linear=0
shrinkage=0.03


Tree=31
num_leaves=15
num_cat=0
split_feature=2 2 6 2 10 2 1 1 5 12 2 10 10 12
split_gain=45.4861 4.97457 4.83616 3.73591 3.44848 2.38064 3.01071 2.03478 6.17765 2.53623 1.06532 1.40921 0.10325 0.0717736
threshold=33.500000000000007 -104.49999999999999 2.1000000000000005 -376.99999999999994 1.6333333333333335 207.50000000000003 1145.5000000000002 1211.5000000000002 0.36666666666666675 2.5000000000000004 53.500000000000007 1.4500000000000002 1.6333333333333335 4.5000000000000009
decision_type=2 2 2 2 2 2 2 2 2 2 2 2 2 2
left_child=1 2 3 -1 7 6 -2 -3 -9 -10 -8 -12 -5 -7
right_child=5 4 -4 12 -6 13 10 8 9 -11 11 -13 -14 -15
leaf_value=0.0055392145748897623 0.0066734915534918844 0.028789998303150707 0 0.037646092725067137 -0.0080551179893089877 -0.022636710890583542 -0.0009605593711999815 -0.01401355327920421 0.0023387993083459481 0.026819953470936582 -0.01977994834181886 -0.0031011678487968875 0.023044316017929781 -0.013916868391191212
leaf_weight=6.1594419777393332 7.3063088804483405 6.0529659241437939 5.8142530769109717 17.796303719282154 7.9267886132001868 29.489139705896378 6.7037083357572547 7.0154354274272945 7.1848305761814144 10.86327204108238 21.657451122999195 7.7261231541633597 8.1637029647827131 11.215872466564177
leaf_count=22 33 22 21 54 34 162 29 30 29 40 116 38 25 61
internal_value=0 0.0165973 0.0244242 0.028919 0.00855262 -0.0152191 -0.00974193 0.0131285 0.00850499 0.0178852 -0.0133572 -0.0158209 0.0339166 -0.0206505
internal_weight=161.076 76.977 37.9337 32.1194 39.0433 84.0986 43.3936 31.1165 25.0635 18.0481 36.0873 29.3836 25.96 40.705
internal_count=716 277 122 101 155 439 216 121 99 69 183 154 79 223
is_linear=0
shrinkage=0.03


Tree=32
num_leaves=6
num_cat=0
split_feature=2 1 2 0 1
split_gain=38.1498 7.84066 2.59646 0.767273 0.704872
threshold=-444.99999999999994 1850.0000000000002 -320.99999999999994 1986.0000000000002 760.50000000000011
decision_type=2 2 2 2 2
left_child=-1 2 -2 4 -4
right_child=1 -3 3 -5 -6
leaf_value=0.10673397893809339 0.012865639640992634 0.034047325895229082 0 0.0011847479681059759 -0.019718122321016204
leaf_weight=2.2848470807075492 2.1171665936708512 2.7818970233201972 1.20964707434178 0.93779183551669021 22.877745117992163
leaf_count=12 17 35 27 23 602
internal_value=0.00019589 -0.00926335 -0.0145635 -0.0174432 -0.0185439
internal_weight=32.2091 29.9242 27.1424 25.0252 24.0874
internal_count=716 704 669 652 629
is_linear=0
shrinkage=0.03


Tree=33
num_leaves=16
num_cat=0
split_feature=2 2 2 7 0 7 0 1 0 2 1 11 2 0 0
split_gain=55.2249 9.38971 6.9823 3.01152 2.76573 2.7169 2.68702 1.94559 1.92822 1.01855 0.510972 0.405689 0.354569 0.19304 0.354539
threshold=-33.499999999999993 -153.49999999999997 56.000000000000007 1.0000000180025095e-35 1350.5000000000002 1.5000000000000002 1158.0000000000002 1705.0000000000002 1328.5000000000002 11.000000000000002 1572.5000000000002 1.5500000000000003 110.50000000000001 1986.0000000000002 1841.5000000000002
decision_type=2 2 2 2 2 2 2 2 2 2 2 2 2 2 2
left_child=1 11 3 -2 -5 -3 -4 8 -7 -6 12 -1 -8 14 -12
right_child=2 5 6 4 9 7 10 -9 -10 -11 13 -13 -14 -15 -16
leaf_value=-0.035922054232801731 -0.01649283988674654 0.0050093884316451285 0 0.019275343894765221 0.005824690997672936 -0.0067579792244829382 0.011951392000113071 0 -0.028686444317059103 -0.0092659055163535498 0.0051401689226510689 -0.019742179244013915 0.021611297533643086 0.0028750433183365736 0.02024884441487769
leaf_weight=26.637046694755554 7.1003367155790356 7.4536751061677959 8.5169103890657407 7.7773419022560146 6.5401030629873267 8.3009153008461052 11.059188947081564 5.6870064735412589 9.544689327478407 8.0563385784625989 5.2730190306901914 6.7489247024059287 50.030834510922432 4.6475392729043952 5.0304928869009018
leaf_count=75 25 27 34 31 25 28 52 20 31 30 24 20 249 21 24
internal_value=-3.10548e-05 -0.0221969 0.0124455 0 0.00530183 -0.0096561 0.016806 -0.0146833 -0.0194391 -0.00193925 0.0185867 -0.0332565 0.0201199 0.0112911 0.0139455
internal_weight=178.404 64.3723 114.032 29.4741 22.3738 30.9863 84.558 23.5326 17.8456 14.5964 76.0411 33.386 61.09 14.9511 10.3035
internal_count=716 201 515 111 86 106 404 79 59 55 370 95 301 69 48
is_linear=0
shrinkage=0.03


Tree=34
num_leaves=19
num_cat=0
split_feature=1 0 0 1 1 7 0 11 7 0 12 11 10 0 11 10 5 11
split_gain=6.77192 13.7299 12.1894 9.60894 6.13889 3.33758 3.03783 3.34563 2.66555 2.00112 1.03461 2.46288 0.94826 0.800966 0.436082 0.431193 0.173014 0.00463238
threshold=1518.5000000000002 1309.5000000000002 1617.0000000000002 1204.5000000000002 1955.5000000000002 3.5000000000000004 1158.0000000000002 1.3666666666666669 3.5000000000000004 1704.5000000000002 4.5000000000000009 1.7750000000000001 1.2250000000000003 1423.0000000000002 0.77500000000000013 1.4500000000000002 1.5500000000000003 0.63333333333333341
decision_type=2 2 2 2 2 2 2 2 2 2 2 2 2 2 2 2 2 2
left_child=1 3 12 6 8 -5 7 -1 15 -10 17 13 -2 -12 -11 -4 -8 -3
right_child=2 10 4 5 -6 -7 16 -9 9 14 11 -13 -14 -15 -16 -17 -18 -19
leaf_value=0.016349795689982943 0.030670574841429009 -0.014365517616225676 -0.019540875924554987 0.031081700969520613 0.024379116560224394 0.0038488419977227022 -0.02070336027599497 -0.010456313335512109 0.015146181109983271 -0.011598190969060486 -0.0021729512411643387 0.01004230029489505 0.014694113462838308 -0.020946381270929834 0 -0.005385719280785563 -0.006756144734595247 -0.022250467853785094
leaf_weight=8.1405102759599703 13.124512255191805 14.749964371323584 11.522769063711168 12.771266624331476 5.8709527403116217 7.2314825206995001 6.9665767550468427 7.3530790209770194 5.3704674690961864 5.8021196424961072 4.43570424616337 3.9638544321060172 10.696607664227484 7.7489445060491562 6.2860255390405655 5.3010779917240134 4.3151841759681702 18.625430718064308
leaf_count=32 42 79 59 44 20 25 37 33 21 27 20 20 35 42 30 24 23 103
internal_value=0 -0.00503104 0.00751843 0.00645736 -0.00240198 0.0220093 -0.00502135 0.00313603 -0.00753158 0.000234504 -0.0160185 -0.00833007 0.0243161 -0.0151767 -0.0060139 -0.0158844 -0.0166457 -0.0192949
internal_weight=160.277 96.302 63.9745 46.7781 40.1534 20.0027 26.7754 15.4936 34.2825 17.4586 49.5239 16.1485 23.8211 12.1846 12.0881 16.8238 11.2818 33.3754
internal_count=716 458 258 194 181 69 125 65 161 78 264 82 77 62 57 83 60 182
is_linear=0
shrinkage=0.03


Tree=35
num_leaves=6
num_cat=0
split_feature=2 1 2 0 1
split_gain=34.2032 7.43973 2.76612 0.769232 0.709275
threshold=-444.99999999999994 1850.0000000000002 -355.49999999999994 1986.0000000000002 760.50000000000011
decision_type=2 2 2 2 2
left_child=-1 2 -2 4 -4
right_child=1 -3 3 -5 -6
leaf_value=0.097164755068933822 0.014857910696033268 0.032251588986596934 0 0.00131717731352743 -0.019697247487670148
leaf_weight=2.4955869913101187 1.9630915820598662 2.888648994266986 1.1971651241183341 0.9293169192969789 22.563910055905581
leaf_count=12 13 35 27 23 606
internal_value=0.00024045 -0.00912857 -0.014456 -0.0173926 -0.0185074
internal_weight=32.0377 29.5421 26.6535 24.6904 23.7611
internal_count=716 704 669 656 633
is_linear=0
shrinkage=0.03


Tree=36
num_leaves=16
num_cat=0
split_feature=2 2 2 12 0 2 5 1 0 1 1 10 11 2 5
split_gain=51.5307 8.61314 6.74231 2.74134 2.64843 2.83066 2.06492 2.20874 4.1516 1.92868 0.654853 0.944697 0.372656 0.294222 0.174825
threshold=-33.499999999999993 -153.49999999999997 56.000000000000007 1.0000000180025095e-35 1232.5000000000002 261.50000000000006 0.36666666666666675 1705.0000000000002 1328.5000000000002 1554.5000000000002 1572.5000000000002 1.4500000000000002 1.5500000000000003 33.500000000000007 1.1000000000000003
decision_type=2 2 2 2 2 2 2 2 2 2 2 2 2 2 2
left_child=1 12 3 -2 5 -4 -3 8 -8 13 -6 14 -1 -5 -12
right_child=2 6 4 9 10 -7 7 -9 -10 -11 11 -13 -14 -15 -16
leaf_value=-0.034334761763102642 -0.01445295029666599 0.0029530519114574104 -0.0072363578750480155 0.018311124128747493 0.020652625504859579 0.020439876423022276 -0.0015189131005225885 0.00053940714937211255 -0.032091607760091553 -0.0035885166436106443 0.006313897160471006 0 -0.018802086456280731 0.0045492775042413744 0.020785076259854634
leaf_weight=26.956336885690689 8.1288215219974536 7.9070708751678493 7.8932503908872587 6.7257426083087939 55.413912147283554 4.8219114243984222 7.8807559907436433 5.9969758093357077 9.4074746966361982 9.6702029854059202 4.0943765044212324 4.9365026503801337 6.8219748437404624 4.8932785391807556 5.737880066037178
leaf_count=75 28 28 32 27 281 22 27 21 30 36 20 22 20 20 27
internal_value=-3.52857e-05 -0.0212572 0.0122008 0 0.0165569 0.00295438 -0.00925605 -0.0137553 -0.0190956 0.00552342 0.0188556 0.0110681 -0.0317803 0.0136849 0.0162272
internal_weight=177.286 64.9706 112.316 29.418 82.8978 12.7152 31.1923 23.2852 17.2882 21.2892 70.1827 14.7688 33.7783 11.619 9.83226
internal_count=716 201 515 111 404 54 106 78 57 83 350 69 95 47 47
is_linear=0
shrinkage=0.03


Tree=37
num_leaves=18
num_cat=0
split_feature=2 0 2 1 2 1 3 10 5 2 1 10 10 2 1 7 12
split_gain=39.7239 4.10715 5.13198 2.39709 2.37073 3.01162 2.01231 1.93981 3.41508 2.25392 2.04087 4.35506 0.947475 1.21085 0.773354 0.533868 0.107199
threshold=33.500000000000007 1043.5000000000002 -137.49999999999997 1580.5000000000002 207.50000000000003 1032.0000000000002 0.45000000000000007 0.90000000000000013 0.63333333333333341 -26.999999999999996 1301.5000000000002 0.36666666666666675 1.3666666666666669 53.500000000000007 1665.5000000000002 4.5000000000000009 4.5000000000000009
decision_type=2 2 2 2 2 2 2 2 2 2 2 2 2 2 2 2 2
left_child=1 -1 3 -3 5 -2 -5 10 -9 14 -4 -12 13 -7 -10 -14 -6
right_child=4 2 7 6 16 12 -8 8 9 -11 11 -13 15 -15 -16 -17 -18
leaf_value=-0.0048303433009936865 0.01217127038213223 0.040411617910388602 0.031151808744207223 0.009717278401188835 -0.022379454492260961 -0.00041545132634773644 0.031309234407735122 -0.016200813993469572 0.025533772110070605 -0.004955674711359318 -0.0047756213344213134 0.028115585335629741 -0.0098991303654518328 -0.018267850762970068 0.0067341354675765613 0.0021672205804201478 -0.013338574120866099
leaf_weight=7.4841701090335837 4.4511267095804206 9.6141243278980273 6.2390121072530773 11.870142608880998 27.965619012713432 5.3052297532558468 7.8817005753517142 5.2539446651935604 5.7976614832878131 5.0260377079248419 7.8200369924306852 5.5749528855085373 5.2810164690017682 21.811096787452698 6.0401595383882523 5.35130675137043 10.742645978927611
leaf_count=28 19 28 22 37 162 23 24 22 20 21 32 20 26 122 23 26 61
internal_value=0 0.0151201 0.0173644 0.0270996 -0.0147317 -0.00923359 0.0193379 0.0100645 0.00332665 0.0102201 0.0169365 0.008785 -0.012119 -0.0151717 0.0173325 -0.00319304 -0.020302
internal_weight=159.51 78.6019 71.1178 29.366 80.908 42.1998 19.7518 41.7518 22.1178 16.8639 19.634 13.395 37.7486 27.1163 11.8378 10.6323 38.7083
internal_count=716 277 249 89 439 216 61 160 86 64 74 52 197 145 43 52 223
is_linear=0
shrinkage=0.03


Tree=38
num_leaves=6
num_cat=0
split_feature=2 1 2 0 1
split_gain=31.0162 7.07951 2.66367 0.767019 0.645105
threshold=-444.99999999999994 1850.0000000000002 -355.49999999999994 1986.0000000000002 778.00000000000011
decision_type=2 2 2 2 2
left_child=-1 2 -2 4 -4
right_child=1 -3 3 -5 -6
leaf_value=0.089487748530791777 0.014037805609128031 0.030657956020013401 0 0.001372208414357416 -0.019660540081954725
leaf_weight=2.6867791116237667 2.0132262855768266 2.9891723319888106 1.3274114616215289 0.9258161224424829 21.903518583625555
leaf_count=12 13 35 30 23 603
internal_value=0.000294294 -0.00899077 -0.0143468 -0.0173141 -0.0184513
internal_weight=31.8459 29.1591 26.17 24.1567 23.2309
internal_count=716 704 669 656 633
is_linear=0
shrinkage=0.03


Tree=39
num_leaves=17
num_cat=0
split_feature=2 2 0 10 10 1 3 10 2 10 2 1 2 2 2 2
split_gain=48.0569 13.0097 2.69589 1.73925 2.82337 4.53346 2.75997 2.07734 1.30194 0.802727 0.734574 0.573215 0.272412 0.1253 0.267235 0.0675492
threshold=33.500000000000007 -153.49999999999997 1158.0000000000002 0.90000000000000013 0.29166666666666669 1237.5000000000002 0.45000000000000007 1.6333333333333335 114.50000000000001 1.9000000000000001 -52.999999999999993 1665.5000000000002 53.500000000000007 -355.49999999999994 -202.99999999999997 82.500000000000014
decision_type=2 2 2 2 2 2 2 2 2 2 2 2 2 2 2 2
left_child=1 13 -2 4 5 -3 10 -8 9 12 -5 -10 -4 -1 -15 -14
right_child=2 3 8 6 -6 -7 7 -9 11 -11 -12 -13 15 14 -16 -17
leaf_value=-0.038395010507057854 0 -0.022822573812693717 0.0044171644788759071 0.00060417167289437512 -0.025675024963106377 0.0078765269222097287 -0.019530516943812627 0.0012322106159677975 0.020818546742998923 0 0.017351712805991858 0.0074239564303664818 0.020450636904761607 -0.020862118402713476 -0.034590963638259753 0.0090634990731753538
leaf_weight=9.8449965417385084 9.4514511823654157 6.5423767864704194 6.157439857721335 5.8411141335964203 8.4796528965234739 10.286476179957388 7.791900619864462 7.4161985218524933 51.06549197435379 4.4989573657512656 5.6304087489843386 6.1386315673589698 5.6564252227544767 16.757166862487793 7.5095924139022854 6.9605676680803299
leaf_count=27 38 21 24 20 28 38 26 27 267 19 22 29 28 47 21 34
internal_value=-4.6136e-05 -0.0160691 0.0151991 -0.00629294 -0.0118689 -0.00385283 -0.000551386 -0.00911572 0.0169687 0.00981273 0.00995731 0.0196139 0.0124999 -0.0304023 -0.0260866 0.0154396
internal_weight=176.029 86.0999 89.929 51.9881 25.3085 16.8289 26.6796 15.2081 80.4775 23.2734 11.4715 57.2041 18.7744 34.1118 24.2668 12.617
internal_count=716 277 439 182 87 59 95 53 401 105 42 296 86 95 68 62
is_linear=0
shrinkage=0.03


Tree=40
num_leaves=16
num_cat=0
split_feature=2 0 2 2 0 1 3 11 1 1 11 2 10 2 12
split_gain=37.0489 3.86109 4.55298 2.35794 2.86663 2.27534 1.90133 1.85271 5.14051 2.43683 2.28875 1.17491 1.42634 0.644512 0.123678
threshold=33.500000000000007 1043.5000000000002 -137.49999999999997 207.50000000000003 1232.5000000000002 1580.5000000000002 0.45000000000000007 0.45000000000000007 1338.0000000000002 1411.0000000000002 1.1000000000000003 56.000000000000007 1.4500000000000002 -37.499999999999993 4.5000000000000009
decision_type=2 2 2 2 2 2 2 2 2 2 2 2 2 2 2
left_child=1 -1 5 4 -2 -3 -7 8 -4 13 -11 -6 -13 -9 -5
right_child=3 2 7 14 11 6 -8 9 -10 10 -12 12 -14 -15 -16
leaf_value=-0.0048853421453731822 0.0071264826553276896 0.038521656996183783 0.037548673032723592 -0.022242992900696902 0 0.008931106119227341 0.029712835014150334 0 0.0027193826811510993 0.00027989091285351655 0.024301711222752875 -0.019294036000540939 -0.0023626531765120933 -0.014468458979124198 -0.013044408549880116
leaf_weight=7.4913242608308783 7.1709096133708945 9.7760385274887103 6.444178611040118 27.16075824201107 6.2622201293706885 12.011356398463251 8.0218921303749067 5.6273978650569916 10.043713644146917 8.7670244425535184 6.6184204667806616 20.66676734387875 7.4980652034282675 4.5181277096271533 10.510060146450995
leaf_count=28 32 28 22 162 27 37 24 21 39 34 24 119 38 20 61
internal_value=0 0.0144325 0.0165915 -0.0144768 -0.00897718 0.0256951 0.0182119 0.00969534 0.0175665 0.00402665 0.0116197 -0.0126431 -0.0152204 -0.00664748 -0.0201169
internal_weight=158.588 79.3195 71.8281 79.2688 41.598 29.8093 20.0332 42.0189 16.4879 25.531 15.3854 34.4271 28.1648 10.1455 37.6708
internal_count=716 277 249 439 216 89 61 160 61 99 58 184 157 41 223
is_linear=0
shrinkage=0.03


Tree=41
num_leaves=11
num_cat=0
split_feature=1 5 7 10 12 12 12 1 1 1
split_gain=7.12319 4.42118 3.30615 1.99057 1.41078 0.381658 0.244089 0.302114 0.173044 0.150082
threshold=1850.0000000000002 0.36666666666666675 2.5000000000000004 2.2250000000000005 3.5000000000000004 1.0000000180025095e-35 1.5000000000000002 1323.5000000000002 1153.0000000000002 1462.0000000000002
decision_type=2 2 2 2 2 2 2 2 2 2
left_child=1 2 6 5 -5 -3 7 8 -1 -9
right_child=-2 3 -4 4 -6 -7 -8 9 -10 -11
leaf_value=0.0017885980952061227 0.037814354261629289 0 0.038543577967725597 -0.008974579845279473 0.02747761661063099 -0.017634507143766097 -0.0098104072161754041 0.016753192037803871 -0.0095979516668901373 0
leaf_weight=0.89677479118109316 3.5517232716083518 1.5800778456032336 2.4597963690757751 1.1066227816045275 1.3431189320981503 15.778325542807577 1.2967214491218326 1.0773905478417876 1.2615906130522487 1.3002853766083715
leaf_count=21 37 39 31 24 21 419 35 19 34 36
internal_value=0.000340537 -0.00465947 0.0127152 -0.0125104 0.00922988 -0.0162551 0 0.00304703 -0.00203486 0.0103397
internal_weight=31.6524 28.1007 8.29256 19.8081 2.44974 17.3584 5.83276 4.53604 2.15837 2.37768
internal_count=716 679 176 503 45 458 145 110 55 55
is_linear=0
shrinkage=0.03


Tree=42
num_leaves=16
num_cat=0
split_feature=2 2 0 10 10 1 5 9 2 10 1 11 3 2 2
split_gain=45.0203 12.1616 2.63596 1.62411 2.73814 4.24236 2.67333 2.0413 1.28455 0.776851 0.582433 0.452983 0.304482 0.254366 0.0769336
threshold=33.500000000000007 -153.49999999999997 1158.0000000000002 0.90000000000000013 0.29166666666666669 1237.5000000000002 0.55000000000000016 1.0000000180025095e-35 114.50000000000001 1.9000000000000001 1665.5000000000002 1.5500000000000003 0.55000000000000016 53.500000000000007 82.500000000000014
decision_type=2 2 2 2 2 2 2 2 2 2 2 2 2 2 2
left_child=1 11 -2 4 5 -3 -5 12 9 13 -10 -1 -8 -4 -15
right_child=2 3 8 6 -6 -7 7 -9 10 -11 -12 -13 -14 14 -16
leaf_value=-0.03174954585856811 0 -0.021665194000669113 0.0043519312277152519 0.017393160234868234 -0.024834530202428987 0.0079042874021689469 -0.005670500514505618 0.0041007616951948553 0.02061786682693844 0 0.0071257496874013926 -0.016649503067095093 -0.019199281359236965 0.020251082994123794 0.0087606365731632448
leaf_weight=27.393751174211502 9.4200476855039579 6.6457238942384782 6.143250420689589 5.2686140388250378 8.5781548470258695 10.290254011750219 5.975417837500574 9.4677815884351713 49.726793453097343 4.493753880262374 6.0518209338188163 6.9806222617626181 6.0140465646982193 5.5192349553108198 6.8506411910057068
leaf_count=75 38 21 24 20 28 38 21 33 267 19 29 20 21 28 34
internal_value=-5.5242e-05 -0.0154247 0.0149374 -0.00598312 -0.0113391 -0.00347123 -0.000425109 -0.00550654 0.0167199 0.0095884 0.0193902 -0.0292238 -0.0136742 0.0122654 0.0151744
internal_weight=174.82 86.6144 88.2055 52.24 25.5141 16.936 26.7259 21.4572 78.7855 23.0069 55.7786 34.3744 11.9895 18.5131 12.3699
internal_count=716 277 439 182 87 59 95 75 401 105 296 95 42 86 62
is_linear=0
shrinkage=0.03


Tree=43
num_leaves=18
num_cat=0
split_feature=2 2 2 10 3 2 1 2 10 10 2 2 2 7 11 11 12
split_gain=34.5435 3.15632 3.282 2.78257 2.96895 2.34884 2.7647 1.20021 2.78268 0.923482 1.13217 0.742158 0.664465 0.516047 0.268682 0.250499 0.141265
threshold=33.500000000000007 -70.499999999999986 -397.99999999999994 0.90000000000000013 0.45000000000000007 207.50000000000003 1032.0000000000002 15.000000000000002 0.29166666666666669 1.3666666666666669 53.500000000000007 -153.49999999999997 -282.99999999999994 4.5000000000000009 0.77500000000000013 1.9000000000000001 4.5000000000000009
decision_type=2 2 2 2 2 2 2 2 2 2 2 2 2 2 2 2 2
left_child=1 2 -1 7 -5 6 -2 8 -3 10 -8 12 -4 -11 -13 -12 -7
right_child=5 3 11 4 -6 16 9 -9 -10 13 15 14 -14 -15 -16 -17 -18
leaf_value=-0.0020690307192789961 0.011562576888978753 -0.0049424306411309585 0.014305817253847759 -0.017764976894954616 0.0079337196962670237 -0.022112141201325711 -0.00040161492226491565 0.0254911003855759 0.022958430532013328 -0.009498600577068925 -0.02000025267943243 0.0074455106735329853 0.029368601057691561 0.0025231830310456223 0.01912949314735694 -0.0064556529153253009 -0.012744044949942511
leaf_weight=5.1845034360885611 4.5183437317609778 6.5007483214139956 8.3177863061428088 6.5774540007114402 8.5327929705381376 26.369868576526642 5.3026124686002758 5.7586508542299262 5.0151717215776443 5.1621780991554242 16.395293906331066 8.1467561572790164 18.084754794836044 5.2845737934112549 7.886775776743888 4.3368857800960532 10.277620896697043
leaf_count=18 19 27 25 28 34 162 23 20 18 26 97 28 52 26 27 25 61
internal_value=0 0.0137817 0.0187655 0.00600556 -0.00288702 -0.0142184 -0.00871395 0.0141527 0.00690908 -0.011591 -0.0146776 0.021515 0.0253119 -0.00275764 0.0141418 -0.0178095 -0.0199341
internal_weight=157.653 80.0054 47.6206 32.3848 15.1102 77.6474 40.9999 17.2746 11.5159 36.4815 26.0348 42.4361 26.4025 10.4468 16.0335 20.7322 36.6475
internal_count=716 277 150 127 62 439 216 65 45 197 145 132 77 52 55 122 223
is_linear=0
shrinkage=0.03


Tree=44
num_leaves=6
num_cat=0
split_feature=2 1 2 0 1
split_gain=27.1331 4.77881 1.86839 0.7739 0.648959
threshold=-397.99999999999994 1850.0000000000002 -355.49999999999994 1986.0000000000002 778.00000000000011
decision_type=2 2 2 2 2
left_child=-1 2 -2 4 -4
right_child=1 -3 3 -5 -6
leaf_value=0.068755460546332317 0.013675835799950924 0.021721005643496348 0 0.0017668552210755924 -0.019610792282242131
leaf_weight=4.0274708569049862 1.2157819867134154 3.0158551484346381 1.3104587197303832 0.90124277025461097 21.081876402720809
leaf_count=18 8 34 30 23 603
internal_value=0.000353026 -0.0103825 -0.015048 -0.0171813 -0.018359
internal_weight=31.5527 27.5252 24.5094 23.2936 22.3923
internal_count=716 698 664 656 633
is_linear=0
shrinkage=0.03


Tree=45
num_leaves=24
num_cat=0
split_feature=0 5 8 8 0 6 7 0 5 9 5 5 12 0 12 5 6 7 6 6 0 0 3
split_gain=7.19838 7.66296 4.28486 3.5534 2.6917 2.01323 2.39507 1.8475 1.66911 1.44516 2.35353 1.41845 1.00071 3.45241 2.8264 0.640143 0.609404 0.4367 0.418829 0.205423 0.182405 0.17437 0.0527392
threshold=1239.5000000000002 0.45000000000000007 0.45000000000000007 1.0000000180025095e-35 1554.5000000000002 0.29166666666666669 2.5000000000000004 1471.5000000000002 1.1000000000000003 0.29166666666666669 1.3666666666666669 0.36666666666666675 4.5000000000000009 1381.0000000000002 2.5000000000000004 1.6333333333333335 1.1000000000000003 1.0000000180025095e-35 1.7750000000000001 0.90000000000000013 968.50000000000011 1687.5000000000002 0.90000000000000013
decision_type=2 2 2 2 2 2 2 2 2 2 2 2 2 2 2 2 2 2 2 2 2 2 2
left_child=1 20 18 8 7 -6 -7 12 11 10 19 17 14 -14 -5 -12 -13 21 -3 -8 -1 -2 -10
right_child=3 2 -4 4 5 6 9 -9 22 -11 15 16 13 -15 -16 -17 -18 -19 -20 -21 -22 -23 -24
leaf_value=-0.014761008736493424 0.0086257038885528912 0.0043849378109820794 -0.017801176308895137 -0.0083693793715800199 0.018325483083472982 -0.011771929665342518 0.0082039871880860721 -0.016623188306662706 0.021848496170280764 -0.0039494302411827477 -0.0068445172242000835 0.0031302040400357383 -0.018368461982966558 0.0092728386161521383 0.016980231212399069 0.0062101745125715717 -0.0093332919187721179 0.017874343925976973 0.017841989679960531 0.023114102740797612 -0.0291998734292599 0 0.0091497679444057477
leaf_weight=6.2369980216026333 8.2870463579893165 7.5109766274690646 6.3232006281614295 7.5023292899131775 7.3960657119750968 8.781745567917822 4.4710896164178866 10.581751272082327 9.2285685837268812 9.2690357118844968 5.8105316907167417 7.0401783138513547 9.5051586776971799 5.9694215357303628 6.9821072667837143 6.773096576333046 5.3936039209365845 6.1595763713121405 5.6024728864431381 7.1308071315288544 12.080287992954252 4.9233331531286231 4.5707997381687155
leaf_count=20 39 32 21 28 35 36 21 39 48 37 24 32 32 25 28 29 23 28 22 32 40 23 22
internal_value=-6.35764e-05 -0.0116129 0.00113093 0.00311262 -0.000253001 0.00430839 0.00145755 -0.00604107 0.00989341 0.00531753 0.00924172 0.00554629 -0.00179638 -0.00718576 0.00340843 0 -0.00173224 0.0105974 0.0112395 0.0186881 -0.0252846 0.00601987 0.0187387
internal_weight=173.53 37.7539 19.4367 135.776 90.1731 49.6324 42.2363 40.5408 45.6031 33.4546 24.1855 31.8037 29.959 15.4746 14.4844 12.5836 12.4338 19.37 13.1134 11.6019 18.3173 13.2104 13.7994
internal_count=716 135 75 581 366 214 179 152 215 143 106 145 113 57 56 53 55 90 54 53 60 62 70
is_linear=0
shrinkage=0.03


Tree=46
num_leaves=19
num_cat=0
split_feature=1 0 0 1 1 5 0 5 7 0 12 0 10 1 1 3 10 8
split_gain=4.98914 11.3848 8.72792 7.25795 4.91052 2.92853 2.51155 3.03145 2.4468 1.62083 1.02543 1.32605 0.914844 0.813037 0.481141 0.450545 0.392434 0.195149
threshold=1518.5000000000002 1309.5000000000002 1617.0000000000002 1204.5000000000002 1955.5000000000002 1.0000000180025095e-35 1158.0000000000002 0.45000000000000007 3.5000000000000004 1704.5000000000002 4.5000000000000009 1423.0000000000002 1.2250000000000003 1304.0000000000002 1316.5000000000002 0.55000000000000016 1.4500000000000002 0.55000000000000016
decision_type=2 2 2 2 2 2 2 2 2 2 2 2 2 2 2 2 2 2
left_child=1 3 12 6 8 -5 7 -1 16 -10 -3 -12 -2 -7 -13 -8 -4 -11
right_child=2 10 4 5 -6 13 15 -9 9 17 11 14 -14 -15 -16 -17 -18 -19
leaf_value=0.016560976777489744 0.025913739409075022 -0.018553670451282679 -0.019029229155800697 0.032804210963604363 0.0210639208721713 0 -0.020280551301012393 -0.0088677554598631386 0.013559206902842571 -0.0086457484806287017 0.0020425633447630868 -0.0017688908441393313 0.011323175519879007 0.014612995082832323 -0.019866308089497849 -0.0027489415729136449 -0.0051663375173955292 0
leaf_weight=7.3198519498109844 13.805838674306871 30.2973522990942 10.783102273941042 8.1401621401309985 6.1201794743537894 5.5013068020343763 6.9554959386587125 8.3262213170528394 5.4887325763702419 6.6611612141132337 6.2183957844972602 3.332499295473097 11.230805203318594 7.1341527700424194 5.6817686706781387 3.4046406745910645 5.2331531643867484 5.068753644824028
leaf_count=28 42 182 59 26 20 20 41 37 21 33 28 21 35 23 33 19 24 24
internal_value=0 -0.00447033 0.00637288 0.00576056 -0.00225819 0.0188511 -0.00451591 0.00261584 -0.00706827 0.000331901 -0.0151264 -0.00736464 0.0200711 0.00827041 -0.0145664 -0.0157397 -0.0153381 -0.0054229
internal_weight=156.704 92.3118 64.3917 46.7818 39.3551 20.7756 26.0062 15.6461 33.2349 17.2186 45.53 15.2327 25.0366 12.6355 9.01427 10.3601 16.0163 11.7299
internal_count=716 458 258 194 181 69 125 65 161 78 264 82 77 43 54 60 83 57
is_linear=0
shrinkage=0.03


Tree=47
num_leaves=6
num_cat=0
split_feature=2 2 0 4 1
split_gain=25.2324 4.37125 3.69765 2.16807 0.774964
threshold=-279.49999999999994 -444.99999999999994 1859.0000000000002 1.0000000180025095e-35 691.50000000000011
decision_type=2 2 2 2 2
left_child=1 -1 4 -4 -2
right_child=2 -3 3 -5 -6
leaf_value=0.074682574549469166 0 0.019945510736581872 0.033515873964621329 -0.0095244944523612835 -0.019603656007760366
leaf_weight=3.1215871125459671 1.0375806093216002 3.7979871146380928 1.7312048673629754 1.2129008825868366 20.45702544786036
leaf_count=12 24 34 34 24 588
internal_value=0.000389742 0.0492205 -0.0137849 0.0143626 -0.0182883
internal_weight=31.3583 6.91957 24.4387 2.94411 21.4946
internal_count=716 46 670 58 612
is_linear=0
shrinkage=0.03


Tree=48
num_leaves=18
num_cat=0
split_feature=1 0 0 1 1 11 0 11 12 0 1 9 11 0 7 3 1
split_gain=7.36845 14.4218 10.7366 10.6197 6.43372 3.59657 2.92182 2.51854 1.56914 1.24113 3.46099 0.943957 0.400016 0.364845 0.336519 0.322928 0.123641
threshold=1541.0000000000002 1309.5000000000002 1617.0000000000002 1204.5000000000002 1842.5000000000002 0.90000000000000013 1158.0000000000002 1.3666666666666669 3.5000000000000004 1450.5000000000002 1378.5000000000002 0.22500000000000003 2.1000000000000005 1772.5000000000002 3.5000000000000004 0.55000000000000016 1270.5000000000002
decision_type=2 2 2 2 2 2 2 2 2 2 2 2 2 2 2 2 2
left_child=1 3 14 6 8 -5 7 -1 -4 10 16 13 -11 -10 -2 -8 -3
right_child=2 9 4 5 -6 -7 15 -9 11 12 -12 -13 -14 -15 -16 -17 -18
leaf_value=-0.012542789918975915 -0.016040985362049155 0.020967586497669694 0.015614166645307551 -0.032304267142464642 -0.017127116970999706 -0.0070922492627065068 0.021047189595838144 0.0094925501046279996 0 0.021499678343013539 -0.0082746592227551478 -0.0068843338954014364 0.0067902273120250215 0.013513069618860044 -0.028137864577301292 0.0051362523134781063 0.0094603559627913884
leaf_weight=9.2921139448881203 12.363618716597557 8.4354787021875399 14.902925938367844 12.291743814945223 11.422466605901716 10.885275796055792 7.7949412018060666 8.1719565540552122 4.9701085835695249 27.212453961372379 6.2892931550741187 6.0417626947164544 4.4186471849679938 4.4009871929883957 13.07811027765274 3.8003396540880203 6.9178257733583441
leaf_count=32 36 47 67 36 36 35 41 33 20 151 22 25 25 22 37 19 32
internal_value=-6.69412e-05 0.00481799 -0.0078509 -0.00623486 0.00135079 -0.0212432 0.00558779 -0.00175358 0.00876994 0.0157802 0.0090934 0.0013039 0.0198626 0.0075761 -0.0230287 0.0170044 0.0168123
internal_weight=172.69 105.51 67.18 52.2364 41.7383 23.177 29.0594 17.4641 30.3158 53.2737 21.6426 15.4129 31.6311 9.3711 25.4417 11.5953 15.3533
internal_count=716 473 243 196 170 71 125 65 134 277 101 67 176 42 73 60 79
is_linear=0
shrinkage=0.03


Tree=49
num_leaves=17
num_cat=0
split_feature=2 0 2 2 0 11 5 0 2 0 11 2 12 11 11 0
split_gain=31.0573 3.57512 3.46822 2.3335 2.59262 1.69033 3.79887 2.38895 1.39498 1.36812 1.41084 1.11559 0.16734 0.142915 0.0889282 0.0420433
threshold=33.500000000000007 1043.5000000000002 -137.49999999999997 207.50000000000003 1232.5000000000002 0.45000000000000007 0.55000000000000016 1503.0000000000002 -279.49999999999994 1328.5000000000002 1.1000000000000003 60.500000000000007 4.5000000000000009 1.9000000000000001 0.55000000000000016 1416.5000000000002
decision_type=2 2 2 2 2 2 2 2 2 2 2 2 2 2 2 2
left_child=1 -1 8 4 -2 7 -7 -4 -3 -8 -11 -6 -5 14 -13 -10
right_child=3 2 5 12 11 6 9 -9 15 10 -12 13 -14 -15 -16 -17
leaf_value=-0.005550425459699972 0.006832163254120365 0.011799634420265749 0.027750597715343096 -0.021927837736370581 -0.00097307406947389147 -0.016636790837105987 0 0.0037358837586211392 0.033828803263730139 0.004668561972544203 0.026476907838902358 -0.0095319132082202218 -0.012302491368389854 -0.0047192836164242297 -0.019393145669630692 0.02057661159784346
leaf_weight=7.6300223320722571 7.2188859879970542 10.945394665002825 8.0820333063602465 25.200028151273727 8.0981803536415082 5.7171999961137798 7.0242524445056942 8.6922286003828031 9.3259806334972399 7.3609612286090833 5.6966251730918884 7.7087112218141618 9.9477533102035505 3.8935046792030326 13.191050067543982 10.388276919722555
leaf_count=28 32 33 27 162 38 25 26 34 26 28 20 46 61 23 77 30
internal_value=0 0.0128565 0.014921 -0.0138362 -0.00832599 0.00886104 0.00346691 0.0162958 0.0227697 0.00989274 0.0154723 -0.0119749 -0.0196668 -0.0151223 -0.0164842 0.0279726
internal_weight=156.121 80.863 73.233 75.2581 40.1103 42.5733 25.799 16.7743 30.6597 20.0818 13.0576 32.8914 35.1478 24.7933 20.8998 19.7143
internal_count=716 277 249 439 216 160 99 61 89 74 48 184 223 146 123 56
is_linear=0
shrinkage=0.03


Tree=50
num_leaves=8
num_cat=0
split_feature=0 1 1 0 0 1 10
split_gain=11.8135 10.0778 8.0837 0.695766 0.28732 1.95027 0.12316
threshold=1055.0000000000002 1850.0000000000002 1131.5000000000002 1986.0000000000002 1267.5000000000002 1525.5000000000002 0.90000000000000013
decision_type=2 2 2 2 2 2 2
left_child=2 3 6 4 5 -2 -1
right_child=1 -3 -4 -5 -6 -7 -8
leaf_value=-0.0087042343995568285 -0.016401940425436329 0.033843837103843949 0.067594228637914533 0.0017953334120899035 -0.019421216088708271 0.023609488621549234 0
leaf_weight=1.1173968352377444 4.0764207430183985 3.8186227083206168 3.0733474381268024 0.89945707097649474 16.35785299167037 0.83549002185463894 0.99542943015694607
leaf_count=25 112 37 14 23 482 6 17
internal_value=0.000434074 -0.00771149 0.0399231 -0.015855 -0.0170389 -0.00638073 -0.00211576
internal_weight=31.174 25.9878 5.18617 22.1692 21.2698 4.91191 2.11283
internal_count=716 660 56 623 600 118 42
is_linear=0
shrinkage=0.03


Tree=51
num_leaves=17
num_cat=0
split_feature=2 2 0 2 11 5 2 5 2 6 11 2 2 0 0 0
split_gain=38.1848 10.2687 2.43655 1.25307 1.08601 2.85466 1.74161 2.8157 1.01891 1.02232 0.466739 0.235398 0.302693 0.165637 0.110366 0.256349
threshold=33.500000000000007 -153.49999999999997 1158.0000000000002 114.50000000000001 0.45000000000000007 0.36666666666666675 -33.499999999999993 1.4500000000000002 1.0000000180025095e-35 0.55000000000000016 1.5500000000000003 95.500000000000014 53.500000000000007 1447.0000000000002 1816.5000000000002 2004.0000000000002
decision_type=2 2 2 2 2 2 2 2 2 2 2 2 2 2 2 2
left_child=1 10 -2 11 8 -6 7 -7 9 -3 -1 12 -4 -14 -5 -16
right_child=2 4 3 14 5 6 -8 -9 -10 -11 -12 -13 13 -15 15 -17
leaf_value=-0.028974736595114167 0 0.0027824851086677002 0.0042108910028994754 0.020386834472437106 0.017189130922853624 -0.02022324823818893 0.0043299891614665582 0.0031750760674021067 -0.020201401720129204 -0.012154714953113089 -0.014610700948599146 0.0015122451021726507 0.019782502379985117 0.0054408191887469082 0.0065369798532921306 0.019431427070316646
leaf_weight=27.706854462623596 9.3806763589382154 6.5177664607763308 7.5441243648529115 39.984371274709702 5.3735137432813671 11.12848900258542 8.6866952925920433 6.5097009539604178 6.7995825111865988 7.666337713599205 7.1085780858993521 5.7495331913232794 5.0907409042119962 3.9190538972616196 7.8549508303403837 4.4281203299760818
leaf_count=75 38 23 30 230 21 36 33 22 22 25 20 28 27 20 43 23
internal_value=-7.17967e-05 -0.0139529 0.014286 0.0160873 -0.0052906 -0.00140288 -0.00578311 -0.011242 -0.0105752 -0.00481696 -0.0265451 0.00898837 0.0109368 0.0151046 0.0188322 0.0124678
internal_weight=171.449 87.4975 83.9516 74.5709 52.6821 31.6984 26.3249 17.6382 20.9837 14.1841 34.8154 22.3035 16.5539 9.00979 52.2674 12.2831
internal_count=716 277 439 401 182 112 91 58 70 48 95 105 77 47 296 66
is_linear=0
shrinkage=0.03


Tree=52
num_leaves=18
num_cat=0
split_feature=2 6 2 2 1 2 1 2 11 2 5 2 12 2 1 2 12
split_gain=29.099 2.80517 4.217 2.78713 2.3922 2.31769 2.52744 2.13576 1.42864 1.38088 1.08377 2.07805 0.748819 0.455648 0.235579 0.187831 0.182746
threshold=33.500000000000007 2.1000000000000005 -57.499999999999993 18.500000000000004 1556.5000000000002 207.50000000000003 1145.5000000000002 -376.99999999999994 1.5500000000000003 -104.49999999999999 1.1000000000000003 60.500000000000007 2.5000000000000004 172.00000000000003 1454.5000000000002 -7.4999999999999991 4.5000000000000009
decision_type=2 2 2 2 2 2 2 2 2 2 2 2 2 2 2 2 2
left_child=1 2 7 4 12 6 -2 -1 9 -9 11 -8 -4 -12 -13 -6 -7
right_child=5 -3 3 -5 15 16 10 8 -10 -11 13 14 -14 -15 -16 -17 -18
leaf_value=0.002474736121263432 0.0068071646372390099 -0.0018553127941622078 -0.017069939695706672 0.022803151008528942 0.013268556289624971 -0.021813185471837224 0.0096221710274570597 0.030090901451789637 0.0096397458819489825 0.01083597306977897 -0.019853377832619461 -0.016089923960007087 0 -0.0035984001324938829 -0.0020591498026034916 0.0021587710907291936 -0.012030938845773338
leaf_weight=6.5956362485885611 7.2451439052820197 9.798119589686392 5.9109201282262855 5.366976559162139 5.7629391551017761 24.487619191408157 4.9093188643455496 22.552646845579147 8.7828542888164503 6.7382927983999279 13.479053795337679 6.9633346796035749 4.8334104120731354 3.6587518304586402 3.3462962806224823 5.0124883353710157 9.7513636797666532
leaf_count=22 33 35 25 18 23 162 24 63 28 24 74 43 19 22 20 20 61
internal_value=0 0.0123263 0.0143925 0.00445149 -0.000130506 -0.0136012 -0.0080976 0.0200612 0.0228029 0.0262197 -0.0117617 -0.00483208 -0.0103051 -0.0170938 -0.0126743 0.00922363 -0.0194995
internal_weight=155.195 81.3543 71.5562 26.8867 21.5198 73.8409 39.6019 44.6694 38.0738 29.2909 32.3568 15.2189 10.7443 17.1378 10.3096 10.7754 34.239
internal_count=716 277 242 105 87 439 216 137 115 87 183 87 44 96 63 43 223
is_linear=0
shrinkage=0.03


Tree=53
num_leaves=7
num_cat=0
split_feature=2 2 10 7 7 2
split_gain=22.6029 3.48919 2.39957 1.26455 0.748409 1.95836
threshold=-279.49999999999994 -444.99999999999994 2.4500000000000006 3.5000000000000004 1.0000000180025095e-35 248.50000000000003
decision_type=2 2 2 2 2 2
left_child=1 -1 4 -4 5 -2
right_child=2 -3 3 -5 -6 -7
leaf_value=0.067140202348323852 -0.014864533232580135 0.018674275697967285 0.027521782665523548 -0.0073455807613306365 -0.019466901929045856 0.028697075549141728
leaf_weight=3.3800559192895889 2.8703026380389995 3.9167174734175232 1.3846830241382115 0.94572560675442208 17.753755807876587 0.74451715871691693
leaf_count=12 77 34 26 23 523 21
internal_value=0.00046066 0.0451452 -0.013574 0.0113942 -0.0169068 -0.00130843
internal_weight=30.9958 7.29677 23.699 2.33041 21.3686 3.61482
internal_count=716 46 670 49 621 98
is_linear=0
shrinkage=0.03


Tree=54
num_leaves=21
num_cat=0
split_feature=11 5 10 10 10 5 6 6 10 6 10 10 5 6 7 4 12 11 5 5
split_gain=3.97072 2.78889 2.84237 1.83304 1.92981 1.79084 1.29841 1.25058 1.69632 1.15705 2.3354 1.54038 1.94612 1.02847 0.975759 0.847489 0.600829 0.594201 0.230353 0.000743181
threshold=2.2916666666666674 1.6333333333333335 2.4500000000000006 1.3666666666666669 1.6333333333333335 1.1000000000000003 1.3666666666666669 1.4500000000000002 2.2916666666666674 1.7083333333333337 0.63333333333333341 0.36666666666666675 0.55000000000000016 1.2916666666666667 4.5000000000000009 1.0000000180025095e-35 3.5000000000000004 0.45000000000000007 0.90000000000000013 0.70833333333333337
decision_type=2 2 2 2 2 2 2 2 2 2 2 2 2 2 2 2 2 2 2 2
left_child=1 3 6 5 18 9 14 8 -6 11 -11 12 -1 -7 17 -13 -2 -3 -5 -17
right_child=16 2 -4 4 7 13 -8 -9 -10 10 -12 15 -14 -15 -16 19 -18 -19 -20 -21
leaf_value=-0.0046208205707072058 0.017881626990001426 0.0069710295859690486 -0.014893886637625026 -0.024556014557611115 -0.0074987090712350978 0.013088277722501922 -0.0027589798389223998 -0.012906570143506799 0.010272027330117291 -0.0057432687043371226 0.017201273667481892 -0.017938818585713341 0.015383851388857724 -0.0014681735423247341 0.0022881987953565879 -0.0056918451931714503 0.0032375825028682129 0.022142931835278979 -0.0099730294697617395 -0.00061004026093250429
leaf_weight=24.244610115885738 10.859264001250269 6.7426241487264731 4.3472556471824637 6.4023269116878492 10.304728701710706 10.410215586423872 5.0686750262975684 9.1050555706024152 8.2109557241201383 8.6881115436553937 6.2117938101291648 10.570482149720194 4.7544108629226676 5.4479716867208472 8.0353338420391065 4.6375978738069517 5.7375537157058707 9.2649130970239622 5.8416901826858521 5.2404709160327911
leaf_count=99 52 30 16 21 38 50 25 32 32 35 29 39 24 21 37 18 27 46 22 23
internal_value=-7.23632e-05 -0.00164685 0.00585075 -0.00382638 -0.00907351 -0.00106682 0.00945169 -0.00410767 0 -0.00339507 0.00348584 -0.0056628 -0.000830784 0.0076453 0.0123964 -0.0119023 0.0135883 0.0167022 -0.0189689 -0.00402236
internal_weight=170.126 153.529 33.4588 120.07 39.8648 80.2057 29.1115 27.6207 18.5157 64.3475 14.8999 49.4476 28.999 15.8582 24.0429 20.4486 16.5968 16.0075 12.244 9.87807
internal_count=716 637 154 483 145 338 138 102 70 267 64 203 123 71 113 80 79 76 43 41
is_linear=0
shrinkage=0.03


Tree=55
num_leaves=22
num_cat=0
split_feature=1 0 0 1 1 7 7 0 11 0 5 6 11 0 1 11 6 6 3 0 1
split_gain=4.16734 9.88438 7.12028 6.03418 3.15061 2.71667 2.42074 2.26792 2.67693 1.79742 1.0807 0.900909 0.780584 0.704824 2.00055 0.767394 0.529934 0.498298 0.4667 0.120753 0.102868
threshold=1518.5000000000002 1309.5000000000002 1556.5000000000002 1204.5000000000002 1955.5000000000002 3.5000000000000004 3.5000000000000004 1158.0000000000002 1.3666666666666669 1704.5000000000002 0.55000000000000016 0.45000000000000007 1.1000000000000003 1450.5000000000002 1378.5000000000002 2.1000000000000005 1.4500000000000002 1.7750000000000001 0.55000000000000016 1438.0000000000002 1683.0000000000002
decision_type=2 2 2 2 2 2 2 2 2 2 2 2 2 2 2 2 2 2 2 2 2
left_child=1 3 10 7 6 11 16 8 -1 -8 -2 -5 -11 14 17 -15 20 -3 -9 -12 -4
right_child=2 13 4 5 -6 -7 9 18 -10 12 19 -13 -14 15 -16 -17 -18 -19 -20 -21 -22
leaf_value=0.013769098799826131 0.007168319159070468 -0.018284352130330972 -0.020583647095564799 0.033339394168559203 0.017185699070504309 0.0010558709605435815 0.012644976877384565 -0.019980066252026304 -0.010110565229263352 -0.010663538644729282 0.016011730787059607 0.012874753532689045 0.0041499369699491591 -0.020356443639413448 0.0054267660294443562 -0.001271526796113425 -0.00080884113029961163 -0.00095430812039214532 -0.0021673342816308119 0.030898001787369473 -0.0088718776932865014
leaf_weight=8.5397276729345339 6.6033823788166073 9.9284633994102496 6.27912685275078 6.9524976164102572 6.5571809709072104 7.5444604009389868 8.3820240646600741 6.6089252680540067 7.1704754531383506 7.5948720127344114 6.9738904833793622 6.6816874593496323 3.8645496666431427 21.474551528692249 5.2536469995975486 3.274906486272811 4.1737709194421759 3.1419457495212546 3.3080846518278122 7.1862592548131943 6.723310187458992
leaf_count=32 20 60 35 21 21 25 30 41 33 37 20 23 20 143 20 22 21 19 19 21 33
internal_value=0 -0.00418247 0.00578459 0.00520113 -0.000953279 0.0169484 -0.00459246 -0.00430104 0.00233902 0.00216826 0.020038 0.0247573 -0.00495069 -0.0145284 -0.00865539 -0.0182627 -0.0127518 -0.0149703 -0.0152914 0.0249766 -0.015747
internal_weight=154.218 89.8794 64.3384 46.8059 43.5748 21.1786 37.0177 25.6272 15.7102 19.8414 20.7635 13.6342 11.4594 43.0735 18.3241 24.7495 17.1762 13.0704 9.91701 14.1601 13.0024
internal_count=716 458 258 194 197 69 176 125 65 87 61 44 57 264 99 165 89 79 60 41 68
is_linear=0
shrinkage=0.03


Tree=56
num_leaves=7
num_cat=0
split_feature=2 0 2 10 1 2
split_gain=21.1216 3.57141 3.17184 1.87823 0.828227 0.223777
threshold=-279.49999999999994 1859.0000000000002 -444.99999999999994 1.9000000000000001 675.00000000000011 259.50000000000006
decision_type=2 2 2 2 2 2
left_child=2 4 -1 5 -2 -3
right_child=1 3 -4 -5 -6 -7
leaf_value=0.063419905265361648 0.0014807526747247267 -0.0098897001162111062 0.017738586299141362 0.039595864577677005 -0.019531193598309942 0.0050652076357807557
leaf_weight=3.5172746479511261 0.91558677703142777 1.2585808318108314 4.0104758255183723 1.0059735793620346 19.366511192172766 0.72205012291669834
leaf_count=12 21 23 34 15 591 20
internal_value=0.000488634 -0.0134417 0.0428245 0.0138899 -0.0181368 -0.000887637
internal_weight=30.7965 23.2687 7.52775 2.9866 20.2821 1.98063
internal_count=716 670 46 58 612 43
is_linear=0
shrinkage=0.03


Tree=57
num_leaves=18
num_cat=0
split_feature=2 2 0 2 11 5 1 1 1 1 8 11 0 0 2 1 0
split_gain=34.5115 9.24903 2.34535 1.24893 0.976348 2.73339 2.42524 2.77474 1.94252 0.644218 0.606515 0.398643 0.827402 1.10423 0.24665 0.323549 1.50218
threshold=33.500000000000007 -153.49999999999997 1158.0000000000002 114.50000000000001 0.45000000000000007 0.36666666666666675 1411.0000000000002 1662.5000000000002 1338.0000000000002 1665.5000000000002 0.55000000000000016 1.5500000000000003 1355.0000000000002 1519.5000000000002 95.500000000000014 1304.0000000000002 1620.5000000000002
decision_type=2 2 2 2 2 2 2 2 2 2 2 2 2 2 2 2 2
left_child=1 11 -2 14 8 -6 -7 -8 -3 -5 -10 12 -1 -14 15 -4 -17
right_child=2 4 3 9 5 6 7 -9 10 -11 -12 -13 13 -15 -16 16 -18
leaf_value=-0.034513899086997202 0 -0.02009542114090037 0.016517035875544712 0.019840289868390541 0.017052043995311499 0.0052532584563431397 -0.026283940352823543 -0.00063237571238058184 0.0048055872827155134 0.00574795693458018 -0.0078277836919309896 -0.013780155360956677 -0.0086314189253533201 -0.02821493029865698 0.0010574105038656683 -0.0057930579360941257 0.015871576790964417
leaf_weight=12.984318256378176 9.3255231380462629 9.068919390439989 6.3585566431284013 44.591975331306458 5.3263422399759319 10.133950188755991 7.0232806652784374 9.2391621023416501 5.8280287832021695 5.6674573123455039 6.2600796222686768 7.1436539590358725 7.4146038889884931 7.402288407087326 5.6454984843730918 4.5369153171777707 5.3235007226467133
leaf_count=35 38 28 32 267 21 37 22 32 21 29 21 20 20 20 28 21 24
internal_value=-8.85469e-05 -0.0131502 0.01388 0.0156989 -0.00493603 -0.00123163 -0.00550399 -0.012701 -0.00991817 0.0185008 -0.00107296 -0.0250813 -0.0273724 -0.0196043 0.0085864 0.0105588 0.00523618
internal_weight=169.274 87.8246 81.4494 72.1239 52.8798 31.7227 26.3964 16.2624 21.157 50.2594 12.0881 34.9449 27.8012 14.8169 21.8645 16.219 9.86042
internal_count=716 277 439 401 182 112 91 54 70 296 42 95 75 40 105 77 45
is_linear=0
shrinkage=0.03


Tree=58
num_leaves=20
num_cat=0
split_feature=1 0 0 1 1 0 6 0 11 11 3 8 12 11 0 1 11 3 6
split_gain=4.00336 9.57534 6.77827 5.73568 3.01688 2.29588 2.29354 2.20168 2.53186 1.79898 1.18306 1.27193 1.03617 2.38845 0.687692 0.67999 0.609467 0.470299 0.17655
threshold=1518.5000000000002 1309.5000000000002 1556.5000000000002 1204.5000000000002 1955.5000000000002 1846.5000000000002 0.45000000000000007 1158.0000000000002 1.3666666666666669 1.1000000000000003 0.55000000000000016 0.55000000000000016 4.5000000000000009 1.7750000000000001 1423.0000000000002 1304.0000000000002 0.36666666666666675 0.55000000000000016 0.36666666666666675
decision_type=2 2 2 2 2 2 2 2 2 2 2 2 2 2 2 2 2 2 2
left_child=1 3 16 7 5 9 -5 8 -1 10 11 -4 18 14 -14 -8 -2 -9 -3
right_child=2 12 4 6 -6 -7 15 17 -10 -11 -12 -13 13 -15 -16 -17 -18 -19 -20
leaf_value=0.013325327741703067 0.0088055044306461008 -0.010180714383585057 -0.0012012031454727244 0.030094174001741643 0.016757064879252444 -0.017624508515585707 0 -0.019878162112773826 -0.0099043978143188039 0.011788006667652982 0.003382460937573105 -0.021454409246405019 -0.0017003679739688638 0.012039874971912714 -0.01990123442718409 0.013008813315478623 0.023655705771574463 -0.0019989308581098235 -0.020384601262521892
leaf_weight=8.6152244508266467 6.8347685337066677 8.1526711136102694 7.7137902379036003 7.3109659552574184 6.5941612422466269 8.6014494597911817 5.4269182085990897 6.4985617846250516 7.0992635339498511 7.547984465956687 7.8284362256526938 5.1553498804569244 4.2874338626861555 3.6829676032066336 6.5308670550584793 8.5396561473607999 14.020725339651106 3.2830128222703934 19.882003635168076
leaf_count=32 20 52 35 22 21 51 20 41 33 33 34 23 20 20 42 27 41 19 130
internal_value=0 -0.00411384 0.00566996 0.00509392 -0.000926001 -0.00451353 0.0164982 -0.00421153 0.00229407 0 -0.00486037 -0.0104867 -0.0143896 -0.00651284 -0.0138769 0.00796502 0.0195305 -0.0151417 -0.017963
internal_weight=153.606 89.3095 64.2967 46.7736 43.4412 36.847 21.2775 25.4961 15.7145 28.2456 20.6976 12.8691 42.5359 14.5013 10.8183 13.9666 20.8555 9.78157 28.0347
internal_count=716 458 258 194 197 176 69 125 65 125 92 58 264 82 62 47 61 60 182
is_linear=0
shrinkage=0.03


Tree=59
num_leaves=8
num_cat=0
split_feature=0 1 1 0 0 1 10
split_gain=9.98165 9.16141 6.33356 0.698551 0.294304 1.96776 0.114986
threshold=1055.0000000000002 1850.0000000000002 1131.5000000000002 1986.0000000000002 1267.5000000000002 1608.0000000000002 0.90000000000000013
decision_type=2 2 2 2 2 2 2
left_child=2 3 6 4 5 -2 -1
right_child=1 -3 -4 -5 -6 -7 -8
leaf_value=-0.0084722175002961246 -0.016289455364608608 0.031024826846110021 0.058384963493067259 0.0022157004819478416 -0.019343457623510061 0.02453978985795614 0
leaf_weight=1.0878183022141485 3.9648935180157521 4.0241251960396758 3.4037102945148945 0.87419111654162307 15.426345741376279 0.7955162227153777 1.0040518194437025
leaf_count=25 114 37 14 23 482 4 17
internal_value=0.000550202 -0.00733258 0.0356438 -0.0156285 -0.0168712 -0.00607158 -0.00201119
internal_weight=30.5807 25.0851 5.49558 21.0609 20.1868 4.76041 2.09187
internal_count=716 660 56 623 600 118 42
is_linear=0
shrinkage=0.03


end of trees

feature_importances:
elo_diff=180
elo_home=139
elo_away=131
a_gs=66
a_gc=50
h_gs=47
a_n=41
h_gc=38
h_n=28
h_wr=14
a_wr=12
a_dr=6
h_dr=5

parameters:
[boosting: gbdt]
[objective: multiclass]
[metric: multi_logloss]
[tree_learner: serial]
[device_type: cpu]
[data_sample_strategy: bagging]
[data: ]
[valid: ]
[num_iterations: 800]
[learning_rate: 0.03]
[num_leaves: 31]
[num_threads: 12]
[seed: 42]
[deterministic: 0]
[force_col_wise: 0]
[force_row_wise: 0]
[histogram_pool_size: -1]
[max_depth: -1]
[min_data_in_leaf: 20]
[min_sum_hessian_in_leaf: 0.001]
[bagging_fraction: 0.8]
[pos_bagging_fraction: 1]
[neg_bagging_fraction: 1]
[bagging_freq: 0]
[bagging_seed: 400]
[bagging_by_query: 0]
[feature_fraction: 0.8]
[feature_fraction_bynode: 1]
[feature_fraction_seed: 30056]
[extra_trees: 0]
[extra_seed: 12879]
[early_stopping_round: 0]
[early_stopping_min_delta: 0]
[first_metric_only: 0]
[max_delta_step: 0]
[lambda_l1: 0.3]
[lambda_l2: 0.5]
[linear_lambda: 0]
[min_gain_to_split: 0]
[drop_rate: 0.1]
[max_drop: 50]
[skip_drop: 0.5]
[xgboost_dart_mode: 0]
[uniform_drop: 0]
[drop_seed: 17869]
[top_rate: 0.2]
[other_rate: 0.1]
[min_data_per_group: 100]
[max_cat_threshold: 32]
[cat_l2: 10]
[cat_smooth: 10]
[max_cat_to_onehot: 4]
[top_k: 20]
[monotone_constraints: ]
[monotone_constraints_method: basic]
[monotone_penalty: 0]
[feature_contri: ]
[forcedsplits_filename: ]
[refit_decay_rate: 0.9]
[cegb_tradeoff: 1]
[cegb_penalty_split: 0]
[cegb_penalty_feature_lazy: ]
[cegb_penalty_feature_coupled: ]
[path_smooth: 0]
[interaction_constraints: ]
[verbosity: -1]
[saved_feature_importance_type: 0]
[use_quantized_grad: 0]
[num_grad_quant_bins: 4]
[quant_train_renew_leaf: 0]
[stochastic_rounding: 1]
[linear_tree: 0]
[max_bin: 255]
[max_bin_by_feature: ]
[min_data_in_bin: 3]
[bin_construct_sample_cnt: 200000]
[data_random_seed: 175]
[is_enable_sparse: 1]
[enable_bundle: 1]
[use_missing: 1]
[zero_as_missing: 0]
[feature_pre_filter: 1]
[pre_partition: 0]
[two_round: 0]
[header: 0]
[label_column: ]
[weight_column: ]
[group_column: ]
[ignore_column: ]
[categorical_feature: ]
[forcedbins_filename: ]
[precise_float_parser: 0]
[parser_config_file: ]
[objective_seed: 16083]
[num_class: 3]
[is_unbalance: 0]
[scale_pos_weight: 1]
[sigmoid: 1]
[boost_from_average: 1]
[reg_sqrt: 0]
[alpha: 0.9]
[fair_c: 1]
[poisson_max_delta_step: 0.7]
[tweedie_variance_power: 1.5]
[lambdarank_truncation_level: 30]
[lambdarank_norm: 1]
[label_gain: ]
[lambdarank_position_bias_regularization: 0]
[eval_at: ]
[multi_error_top_k: 1]
[auc_mu_weights: ]
[num_machines: 1]
[local_listen_port: 12400]
[time_out: 120]
[machine_list_filename: ]
[machines: ]
[gpu_platform_id: -1]
[gpu_device_id: -1]
[gpu_use_dp: 0]
[num_gpu: 1]

end of parameters

pandas_categorical:[]
